// Auto-generated weights file
// DO NOT EDIT

#ifndef WEIGHTS_H_
#define WEIGHTS_H_

#include <stddef.h>
#include <stdint.h>

// Shape: (83, 128), dtype: int8
static const int8_t net_0_weight[10624] = {
    14, 54, -11, -38, 10, 46, -24, -24,
    47, -8, 4, 11, 16, -12, 7, 30,
    -1, -19, 60, -35, -18, -7, 22, 52,
    20, 23, -11, 19, 14, -8, -29, 24,
    -35, -20, 14, 30, -2, -6, -14, 93,
    12, 16, 28, 4, 16, 22, 36, 42,
    21, -2, 11, -30, 34, 21, -24, 60,
    -60, 26, -31, 11, -7, -31, -15, 35,
    9, -13, -15, -27, -1, -11, -11, -1,
    -5, -24, 31, 97, 0, 26, 46, -3,
    3, 73, 3, 19, 41, 22, -20, 58,
    -37, -9, 13, 62, 12, -1, 39, 12,
    -14, 6, 53, 27, 6, -17, 6, 29,
    32, 14, -33, 52, -4, -12, -8, -54,
    1, -4, 22, -21, 40, 42, 27, -25,
    11, 5, -16, -3, -22, 29, -40, -43,
    23, 2, 28, 50, -18, -53, -127, -102,
    -23, 13, 9, 17, -18, -21, -70, -23,
    13, -127, -6, -76, 16, -67, 22, -5,
    22, -56, 61, -35, 7, 36, -40, 12,
    5, 8, -87, -114, 17, 18, -18, 12,
    3, -66, -1, -48, -104, 30, -51, 32,
    -11, -10, -23, 8, 4, -47, -26, 30,
    -14, -4, 10, 3, -78, 1, 13, 11,
    8, -14, 2, -109, 8, -127, -1, -32,
    -34, 22, -12, 18, -12, 32, -27, -127,
    6, -12, 1, 0, -37, 15, -1, 2,
    -33, -23, -30, 1, -27, 11, -27, 20,
    3, -31, 8, -51, -96, 15, 1, -127,
    -52, 7, -3, -112, 7, -15, -43, -39,
    0, -22, -32, 14, 27, 16, 5, -92,
    -38, -8, 6, -92, 63, -30, -22, -127,
    -25, -16, 10, 50, 37, -44, 35, 54,
    27, -19, 13, 17, -57, -19, 14, -15,
    -20, 5, -127, 56, 16, 4, 23, -110,
    -50, 24, -48, -122, 25, -72, 127, 0,
    32, -31, -56, -38, 64, 20, 27, -127,
    15, 39, 1, 3, -20, -79, -26, -30,
    -36, 42, -55, 53, 3, -32, 54, -103,
    96, -87, 66, -10, 26, 36, 46, -43,
    3, 24, 13, -23, 24, 71, 16, -49,
    -78, 3, -52, -127, -65, -32, -107, 12,
    2, -1, -1, -15, 6, -127, 25, -127,
    46, 8, 71, -127, -2, 56, -5, -1,
    11, 34, -70, 35, 72, 5, 29, 34,
    17, -7, 37, -127, -21, -17, 27, 107,
    6, 11, -41, 19, -74, -127, -48, -25,
    1, 36, 20, 27, -29, 54, 82, 60,
    18, -26, 0, 17, -19, -52, -2, 7,
    14, 41, -4, 21, 15, -78, -7, 29,
    4, -22, -20, 20, -23, -42, 8, -19,
    0, 1, 3, -79, 5, -25, -73, 32,
    -20, -5, -24, 1, -14, 30, -5, 13,
    -13, 4, 1, 27, 6, 4, 12, 33,
    17, 19, 43, -3, 11, 11, -43, 18,
    -1, 23, 16, -10, -38, 4, 4, -10,
    20, 5, 24, 0, 13, 12, 13, 14,
    14, 4, -10, -29, 13, -41, -10, 1,
    -5, -76, -8, 21, 4, 4, 4, 3,
    -14, 6, 6, -32, -37, -30, -16, 9,
    -3, 32, 6, -4, -12, -5, -2, 6,
    -23, 11, 2, -31, 15, -21, 20, 18,
    5, -26, 1, -13, 16, -19, 3, -38,
    -42, 2, 18, -4, 4, 3, 15, -21,
    10, 57, -4, -42, -33, -18, -20, -1,
    26, 13, 10, -15, -5, -43, -24, -14,
    8, -21, -11, -3, 0, 1, 33, 52,
    7, -2, -2, 3, -127, 41, -32, -66,
    -20, -1, 33, 9, -89, -10, 1, -3,
    7, 7, -6, -36, -1, -5, -1, 30,
    15, 3, 43, -12, -23, -21, -1, 27,
    20, -12, 7, -12, -50, -10, 13, 7,
    -15, 6, 21, 26, -12, 6, -2, -50,
    12, 34, -13, 38, -17, -29, 6, 7,
    18, 31, 0, 1, 15, 15, -3, 15,
    -25, 8, 24, -31, 1, -19, -30, -16,
    5, -47, 9, -3, -59, -4, 13, -1,
    -127, 3, 15, -4, -24, 32, 14, -59,
    -73, -7, 13, 4, 10, 26, -10, -7,
    41, 14, -59, -31, -16, -22, 8, -59,
    13, 10, -16, -8, 15, 16, -59, 2,
    15, -16, 9, -23, 28, -13, -24, -34,
    -3, -2, 7, 18, -3, 25, -8, -71,
    24, 29, -40, 1, -25, -24, 13, 36,
    0, 4, -1, 16, -10, -10, 16, -21,
    -82, 3, -35, -6, -10, 20, 23, 4,
    12, 36, 13, 15, -60, 31, 8, 0,
    -10, 33, 4, 16, 5, -3, -32, -70,
    -102, -5, 3, -27, 2, 11, 10, 34,
    -42, -69, -22, 20, 7, -8, 4, 0,
    27, 7, -39, -4, -5, 4, -3, 16,
    -10, 9, 64, 8, 21, -53, 13, -6,
    2, 17, -1, -2, -26, 0, -9, 17,
    29, -3, 5, 11, -41, 2, -6, 4,
    -21, -7, -10, -113, -119, 7, -4, 22,
    -127, 5, -10, 15, -35, 44, 6, 1,
    12, -17, 0, -25, -49, 16, -12, 15,
    18, 14, -3, -76, 12, 25, -9, 30,
    -13, 17, 16, 28, -12, -32, 3, 50,
    6, -25, 2, 13, 10, -32, 10, -34,
    10, -19, 27, -30, 3, -57, 2, -22,
    -26, 9, 2, 16, 12, -4, 10, 10,
    14, 53, 72, 1, -43, 27, 15, -45,
    8, 15, -6, -37, 1, 1, -3, -9,
    3, -11, 15, -25, 0, -10, -48, -12,
    36, 8, -64, -3, 0, 3, 35, 4,
    30, 15, 7, -64, 29, -13, 13, 28,
    37, 8, -13, -13, 11, -15, -46, 8,
    -1, 2, 16, -25, 0, 0, 12, -65,
    12, 1, 2, 17, -91, -1, 48, 6,
    13, 6, 38, -66, -127, 2, 2, 11,
    -44, 8, -1, 16, -45, 7, -3, 11,
    -4, -11, 7, 14, -77, -5, 8, 11,
    14, 15, 14, 24, -5, -62, -55, 38,
    -7, -10, 43, 5, -2, 0, 61, 21,
    -1, -8, 11, -2, -24, -92, 11, -27,
    -2, 15, 31, 11, 20, 46, -52, 32,
    -6, 4, 23, -7, -39, 15, -18, 2,
    5, -37, -23, -20, 24, 13, -2, -39,
    23, -112, 17, -48, -25, -3, 18, 26,
    2, -23, 14, -16, -47, -29, -75, 34,
    17, -95, -22, -61, 10, -127, -28, -7,
    -113, 31, -2, -127, 27, 15, 2, 14,
    3, -23, -53, 20, 12, 33, 29, -17,
    5, -30, 10, -16, -13, -2, -21, 33,
    24, -72, 7, 12, -38, -20, 27, 18,
    -10, -2, 26, -57, -71, -33, -6, -14,
    -77, -18, 0, 18, -25, 20, -2, 21,
    10, 73, 21, 13, -100, 48, 23, 15,
    -55, 1, -72, 8, 36, 8, 25, 17,
    -4, 20, 6, -8, -7, -10, 26, 10,
    52, -56, 3, 48, 10, -64, 20, 2,
    -55, -35, 42, -2, -38, 13, -127, -62,
    -7, 6, 21, -4, 64, 3, 50, -88,
    18, 10, 32, 47, -3, -11, 8, 15,
    9, -90, -12, -127, -7, 0, 36, -62,
    -8, 3, 7, 29, 38, -16, -62, 32,
    32, 30, -93, 18, -5, 24, -18, 8,
    -30, 4, 6, -114, 8, 36, -16, -20,
    1, 10, 9, -20, 18, -13, 29, 25,
    0, 2, -3, 9, -13, 3, -115, 25,
    30, -39, 16, 35, -27, 37, 11, -34,
    21, 14, 25, -120, -54, 4, 10, 38,
    0, -1, -4, 26, 19, 0, 11, -2,
    16, 117, 18, -7, 55, -12, -2, 6,
    -91, 51, 2, -48, 30, 23, 24, 9,
    24, -15, 40, -25, 12, 28, -55, -127,
    -127, -127, -24, 77, 33, 67, -15, 35,
    61, 4, 58, -70, 70, 9, 14, 2,
    39, 2, 19, 16, 11, 5, -89, -85,
    21, 81, -1, 21, -127, 33, -12, 79,
    34, 62, 8, 7, 24, 20, 55, 18,
    -102, 22, 16, 21, -127, 26, 29, 4,
    24, 66, -127, 100, 37, -9, 10, 5,
    57, -113, -127, -76, -43, 48, 10, -63,
    12, 10, 36, -5, 11, -25, -48, -67,
    -5, 85, 22, -1, 14, -10, -27, -13,
    48, -127, -32, 30, -42, -69, 68, 42,
    22, -12, -4, 33, 20, 27, -43, 35,
    -11, -16, 23, -45, 0, -86, 5, 18,
    20, -5, -3, 27, -19, 3, -74, 19,
    -27, -9, 7, -17, 30, 7, 42, 50,
    9, -47, -2, -84, -11, 8, -50, 39,
    45, -47, -57, 26, 35, -40, -1, -13,
    4, 3, 33, 14, 60, -127, -48, -75,
    36, -7, -127, -9, 20, 5, -37, 24,
    16, 12, 30, -43, -12, 21, -8, 14,
    -33, -4, 20, -37, -53, -52, -72, -10,
    -25, 10, -51, -4, -34, 19, -84, -33,
    9, -6, -57, -8, 1, 18, 26, 0,
    -1, 14, -9, -34, 14, 24, -7, 21,
    -19, 1, -111, -97, -23, -17, -89, -60,
    -2, 28, 20, 30, 29, -8, 29, -64,
    55, 0, 8, 48, -17, 14, 38, -20,
    -56, 18, 22, -127, -74, 28, -27, 13,
    25, 7, 5, 4, 19, 54, 17, -20,
    -20, -56, -3, 17, 14, 9, 29, 14,
    -127, -55, 12, -60, 42, -41, 28, -111,
    3, 6, 38, 10, -54, -127, -127, 12,
    -90, 10, -28, 57, -42, -20, 5, -6,
    -127, -1, 50, 16, -105, 28, -71, 48,
    -68, 16, 29, -9, -3, 3, 14, -12,
    34, -127, 93, 6, 1, 5, 30, 2,
    -1, 27, -51, 40, 22, 10, 2, 5,
    -23, -15, -12, 71, 9, -39, 40, -127,
    -65, -66, 74, 5, 28, -54, 36, 33,
    -55, -22, 3, 19, 25, 27, -4, -19,
    1, 35, -127, 50, 53, 3, 118, 15,
    1, -63, 16, -36, 29, -1, 64, 60,
    -31, -9, 8, 11, 21, 4, -89, 18,
    6, -4, 48, -2, 21, 50, -8, 48,
    7, 4, -20, 7, -9, -112, -2, 26,
    -38, 33, 21, 49, 6, 3, 3, 4,
    -124, -127, 12, -127, 2, 25, 8, -61,
    33, 32, 16, 40, 29, -2, 4, -61,
    -27, 15, -17, 21, -73, 58, 18, 12,
    -111, -12, -49, 9, -127, 20, 40, -74,
    -68, -27, -3, 22, -114, -9, 40, 1,
    -17, 0, -70, 2, -110, 17, 11, 54,
    40, 44, -12, 29, 48, -70, -97, 20,
    -127, 17, 22, 29, 37, -19, -22, 3,
    67, -8, -46, 29, 63, 38, -108, 1,
    -40, -122, -58, 36, -10, -33, -11, 22,
    -24, 6, 55, 10, 22, 20, -55, -67,
    -44, -9, -14, -12, 2, -5, -53, -16,
    -31, 23, 2, 9, -23, 22, 12, 21,
    -12, 5, 42, 24, 24, 0, 1, -7,
    -57, 6, 2, -5, 69, -31, 11, 9,
    12, 43, 13, -60, 13, -14, -18, -52,
    -59, -118, -22, 11, 38, 45, -28, 18,
    30, -20, 43, -21, 7, 6, 41, 34,
    36, 3, 127, 68, 6, 33, -8, -8,
    74, 54, -127, -61, 32, -104, 15, 74,
    48, 14, -35, 8, -114, 68, 7, -8,
    19, 60, 37, -127, -73, 47, 4, 3,
    17, 38, -2, -2, -75, -76, -9, -2,
    1, 20, -51, 28, -20, -30, 6, -21,
    84, -7, -55, 62, 127, 28, 1, -19,
    32, -25, 30, 24, 4, 44, 15, 33,
    -58, 15, -59, 12, -13, -17, 9, 70,
    74, -61, 43, 19, 25, 15, -124, -116,
    12, 15, 24, 20, 29, 40, -8, 27,
    33, 2, 10, 18, 0, 18, 77, -26,
    23, 38, 24, 15, 65, 20, -6, 9,
    -29, 31, -3, 10, -23, -3, -34, -113,
    -54, 16, -2, -18, 9, -25, 20, 18,
    -45, -1, -51, 23, 9, -3, 76, 9,
    24, -14, 89, 2, -11, 25, -19, -127,
    -28, 30, -112, -12, -12, -116, 9, -53,
    3, -14, -53, -14, 9, 88, -57, 2,
    0, -6, 8, -3, -1, -30, -10, -4,
    6, 43, 5, 1, 0, 9, 12, 17,
    0, 13, -127, -17, -81, -83, 14, 25,
    -31, 29, 5, -40, -108, 20, 108, -18,
    22, 31, 0, 36, 5, 25, 11, 20,
    -78, -10, -111, -60, 9, -22, -44, 64,
    42, -41, -78, 16, -48, 9, 3, -22,
    -12, -5, -51, 7, -2, 47, -47, -66,
    16, -22, 10, 24, 36, -6, 79, -30,
    13, -34, 6, -46, 44, 22, -52, -46,
    -127, 38, -127, -11, -1, -7, 5, 0,
    -76, 5, 15, -106, 53, 7, 31, 18,
    -127, 2, 15, -127, 2, 15, 69, -37,
    -13, 3, 39, -21, -64, 40, 33, 0,
    0, -76, 39, -16, -2, 29, 36, 3,
    0, -127, 12, -21, -4, -4, 55, -17,
    31, 14, 60, 9, -43, 17, 25, -15,
    65, 30, -66, -30, 2, -1, -1, -8,
    21, 12, 18, 7, 44, -111, 15, 40,
    -5, 44, -11, 18, -31, -16, 64, -12,
    29, -67, 12, 38, 7, 21, 4, 23,
    22, 18, 103, 5, 15, -17, -25, 76,
    -127, -127, -127, -10, -127, 38, 34, -114,
    -106, -5, 46, -8, 47, 18, 15, -21,
    18, 13, 11, 9, 101, -12, 75, 22,
    31, -127, 4, -12, -21, -56, -26, 5,
    -78, -34, -61, -52, -6, -13, 5, -6,
    -43, 15, 86, 16, 13, 28, -6, 8,
    -48, -3, -39, -3, 7, 15, -65, 15,
    -66, 0, -8, -2, 8, 56, -98, 15,
    5, 53, -10, -11, 11, -1, 21, -15,
    8, -69, 0, 12, 20, 68, 32, -2,
    37, 0, 69, -52, 6, -121, -127, -57,
    -82, 30, -48, -26, -57, -66, -74, 69,
    1, 4, 36, 3, 12, -71, 5, 26,
    17, -2, -11, 43, 25, 21, -21, -8,
    44, 32, -4, 30, 11, 24, 6, 28,
    -47, -2, -13, -6, -127, -74, 15, 0,
    -99, 7, 24, -38, -88, 49, 8, -17,
    17, -11, 37, 30, 30, -127, -47, -31,
    12, 5, 17, 4, 75, -56, -8, 12,
    7, -58, 17, 29, -29, -127, -72, -37,
    -49, 25, -44, -63, 3, -73, 7, 28,
    -1, 20, 45, -48, -61, 30, -57, 17,
    -34, 20, 9, -101, 18, 11, -28, -11,
    7, 25, -127, 13, 7, 36, 27, -58,
    5, 39, -8, -7, 5, 3, 9, -37,
    9, -90, 8, 3, -97, 70, 21, -11,
    28, -36, -39, 14, -13, -4, -26, -127,
    -119, 37, -84, -8, -3, -3, 1, 38,
    5, 2, 54, 18, 4, -3, 1, 0,
    12, -55, -7, 5, 7, 2, 111, -45,
    5, -54, 27, 21, -51, 23, 10, 5,
    -74, 17, -26, 23, -26, 8, 15, -79,
    -62, 1, 19, 11, -57, 27, -29, -127,
    35, 27, 7, -61, -39, -11, -30, -96,
    -51, -6, -21, 8, 21, 20, -124, -7,
    8, -47, -6, 3, -6, 37, -35, -43,
    2, -101, 6, 5, -116, 63, 9, 19,
    -47, -10, 24, -4, -63, 0, -12, -18,
    12, 6, -77, -14, 19, -20, -101, 7,
    12, 17, 6, 6, 4, 20, -21, 5,
    -70, 10, -30, -78, -1, 9, -49, 0,
    5, -13, 8, -57, -10, 34, 10, -1,
    -26, -62, -87, -1, -14, 26, 3, -119,
    -6, -127, -8, -7, 1, 6, -6, 1,
    -2, -78, 25, -5, 2, -9, 22, -13,
    -16, 51, 4, 49, -40, 6, 111, -60,
    -127, 29, -3, 19, 5, 17, -69, 12,
    -24, -92, 5, 22, 11, 27, 13, -127,
    -125, 9, 37, -31, -29, -17, -64, 13,
    -15, 13, -35, 35, -127, 2, 39, -33,
    -118, -24, 11, -25, 3, 12, -127, -2,
    -54, 6, -127, -10, 18, 16, -97, -34,
    21, -29, 17, 56, 4, 65, 10, -111,
    32, 4, -65, 37, -46, -22, -113, 31,
    21, 14, 13, -21, -50, 4, 3, 52,
    15, 13, -10, -37, -1, -21, -2, 2,
    -61, 9, 12, -1, 29, 11, 25, -18,
    13, 22, 15, 65, 22, 44, -7, 27,
    -87, 25, 23, -80, -18, -2, -30, 19,
    22, -51, 15, -7, 16, 0, 50, -7,
    2, -85, -48, -34, 10, 3, 19, -50,
    -13, -45, 2, 60, 8, 12, 6, -46,
    -83, 26, -3, 2, 28, 29, -61, 17,
    -85, -46, 4, 18, 18, -17, -98, -87,
    6, -31, 12, -88, 29, -83, -80, 4,
    -63, -2, -43, 39, -95, -8, 19, 29,
    -127, 3, 24, -73, 6, 39, -87, 11,
    10, 16, -104, -60, -4, 16, -41, 22,
    13, 38, 28, 74, -9, 127, 9, -127,
    8, 12, -127, 18, 37, 14, 11, 37,
    -16, 17, 35, -125, -127, 14, -31, 2,
    -12, 4, 16, 81, -4, -96, 0, -20,
    -47, -106, 47, 31, -4, -17, 12, 40,
    -127, 11, -14, 21, 32, -7, 13, 6,
    31, 44, 42, 25, 44, 26, -53, 24,
    14, -43, 4, 0, 3, 14, 14, -127,
    -2, -127, -111, 14, 37, 4, -127, -18,
    2, -4, 51, 11, 21, -40, -127, -26,
    -23, 57, -31, -23, 3, -53, -127, 32,
    -23, -40, 48, 7, -6, -86, 94, 15,
    15, -7, -50, -59, 32, -53, -4, -7,
    22, 5, -52, 51, -49, -33, -127, 27,
    -29, 4, 2, -107, -5, -32, -4, 69,
    7, 14, -78, 5, -53, -8, -93, -77,
    18, -6, -10, 19, -38, -16, 27, 9,
    21, 28, -113, 21, -62, 13, 28, 21,
    21, -6, 29, -46, -1, 28, -90, 22,
    -15, 10, 37, 75, -50, -127, -21, 31,
    -82, -112, 49, 58, -8, -20, -67, 12,
    -52, 19, -8, 47, 72, -92, -127, 5,
    15, -13, -49, 19, 56, -36, 11, 73,
    -109, -96, 7, 7, 41, 22, 9, -119,
    -4, -51, -76, 11, 20, 5, -43, 2,
    8, -24, -20, -11, 9, -81, -39, -59,
    -97, 18, -1, -82, 0, 2, -64, 4,
    30, -127, -68, 5, 12, -13, 108, 18,
    -16, -17, -67, 17, 22, -127, -5, 33,
    28, 13, -127, 4, -1, -23, -71, -106,
    5, 11, 16, -3, -23, 27, 21, 51,
    -2, 12, -28, -32, -85, 19, -85, -16,
    17, -23, -33, -79, -79, -4, -9, 25,
    28, 59, -81, 33, 34, -127, 20, -43,
    42, 23, -7, 21, 22, -6, -46, 41,
    49, 5, 45, -80, -37, 16, -51, 56,
    -4, -127, 96, 4, -31, 10, -30, 54,
    -17, 22, 42, -127, 30, -127, -66, 33,
    -92, -23, -127, 13, 21, 90, 43, 106,
    -36, -95, 11, -6, 62, 29, 30, 5,
    5, -20, 6, 26, -18, 4, 35, -69,
    -11, 19, 31, 24, 11, 13, 29, -1,
    -60, 53, 2, 7, 19, -119, 9, 29,
    43, -74, -51, 57, -48, 3, 34, 12,
    16, 5, 4, 21, 37, -46, -25, -11,
    35, 11, -20, -42, 9, 3, 26, -61,
    -28, -18, 24, 55, 0, -50, 26, 7,
    -53, 14, -9, -74, 19, 72, -9, 1,
    16, 33, -13, -91, -68, 56, 18, 13,
    37, 19, 18, 11, 29, -44, 50, -40,
    34, 21, 35, -34, 9, 1, -27, 37,
    45, 3, -31, -127, -16, 22, 2, 26,
    31, 10, 24, -37, -9, 23, -55, 39,
    -21, -11, 20, -22, 6, -39, -30, 14,
    8, -55, 41, -75, 40, 110, 60, 97,
    -15, 12, 21, -92, 13, 5, -37, 11,
    24, -42, -44, 24, -50, 2, 34, -56,
    41, 28, 50, 37, -14, -64, 9, 14,
    -40, 66, -2, -90, 4, -1, 38, -7,
    -21, -41, -26, 51, -11, -4, -10, -27,
    16, 3, 24, -31, 27, -6, 33, 10,
    -31, -4, -59, -26, 18, 23, 64, -88,
    19, -5, 12, 52, -3, 43, -18, 57,
    -14, 18, 17, -127, 34, 59, -62, -71,
    15, 24, 26, 43, -14, 44, 11, -82,
    21, -126, 11, 39, -50, 11, -10, 12,
    8, 11, -62, 23, -67, -17, 4, 38,
    8, -5, -70, 7, -16, 8, -11, -7,
    18, 20, 45, -1, 2, 31, -66, 28,
    5, 28, 19, -97, 56, 20, 22, 16,
    -28, -39, -64, -21, 11, -38, 40, 75,
    1, 21, 15, 11, 36, 4, -39, 21,
    13, 25, -5, 46, 18, 33, 14, 29,
    -14, -5, 5, 7, -27, -7, -9, 1,
    2, 77, 2, -39, 28, -2, -19, -23,
    26, 60, 12, -7, 41, -5, -61, 1,
    -12, 38, -18, -127, 0, 18, 10, 34,
    -107, 0, -105, 25, 15, 15, -12, -53,
    -123, -4, 27, -44, 4, -33, -20, 25,
    -4, 0, 28, -124, -58, 38, -127, -44,
    15, -112, 13, 30, 11, 4, -7, -39,
    31, -3, 64, 77, 31, -6, -29, 12,
    0, -27, -55, 31, -47, 39, -41, 10,
    28, -50, 32, 5, -23, -11, -8, 15,
    -10, 7, 38, 10, 19, -5, -27, 33,
    -4, -14, 8, 10, 7, 14, 14, 21,
    -47, -41, -57, -16, 22, -38, 44, 33,
    -13, 33, 16, 5, 9, -2, 22, -16,
    26, 29, 18, 34, 8, 31, -26, 20,
    0, -13, 18, 15, 39, 20, -42, 7,
    -83, 87, -8, 12, 30, 20, -71, -22,
    50, -71, -6, -27, 21, -27, -16, -7,
    -5, 31, 4, -86, -110, 44, 37, 71,
    33, -16, -96, -8, 17, 12, -54, -127,
    -29, -17, 30, -67, 3, -7, -3, -7,
    12, -37, 13, -83, 14, -26, -61, -62,
    49, -43, 40, 26, 18, 74, 0, 1,
    71, 62, 12, 71, 68, -16, 127, -1,
    69, 29, -1, 42, 3, 44, -21, 92,
    99, 10, 30, 35, 49, 22, 20, 15,
    -21, -34, 43, 35, 14, -30, 7, 93,
    -42, 78, 14, -42, 35, -92, 35, 127,
    -40, 25, -31, -42, 15, 48, 85, 115,
    5, 26, 70, 111, 75, -127, -127, -8,
    31, 65, 45, 48, 24, 121, -68, -53,
    -77, 37, 21, -42, 14, 80, 35, 68,
    60, 21, 0, 35, 127, 15, -76, -7,
    122, 2, -28, -8, -66, -49, -78, 4,
    2, 17, -20, 119, -68, 62, 94, 66,
    84, 18, -21, 87, 23, 52, -35, 122,
    -43, 27, 127, 86, 20, 91, -1, 24,
    23, 10, -31, 11, 85, 45, 25, 79,
    8, 19, 8, -3, -127, 4, -11, -59,
    -4, 40, 20, 45, 111, -61, -42, 15,
    9, -42, -102, 80, -57, 11, 34, 54,
    30, -3, 2, 19, 5, -54, -109, -5,
    2, -44, 45, 27, 14, -33, 20, -6,
    -23, 35, 7, 30, 18, -18, -18, 34,
    -20, 8, -11, -4, -9, 12, 7, 32,
    -23, -59, -13, 17, -1, 11, 0, -68,
    18, 54, -38, 24, -38, -51, -116, 15,
    -42, -23, 20, 6, -19, 39, -44, 21,
    21, 42, 3, -15, 21, -67, 16, 4,
    -29, -88, 4, 4, -35, -7, 14, 5,
    64, -6, 80, 76, -111, -3, -36, 67,
    77, 8, -97, -6, 15, 22, -16, 6,
    -6, -46, 25, -75, -14, 5, -32, 16,
    5, 43, 30, -49, -34, 8, 25, -50,
    28, 52, 16, -35, -93, 8, -3, 16,
    35, -8, 37, 42, 38, -5, -20, 27,
    -28, -15, 1, 34, -27, 25, 11, 72,
    -23, -7, -16, -53, 17, -59, 6, -2,
    12, -11, 3, 24, -19, -14, 6, -99,
    -1, -59, 14, -5, 21, -87, -92, 36,
    27, 11, -28, 7, 14, 7, 17, -87,
    -1, -21, 13, -2, -1, -43, -43, -17,
    6, 30, 11, 15, -20, 24, -21, 21,
    -10, -13, 16, -8, 51, -28, -9, 27,
    16, 74, 1, -4, 7, -60, -40, 13,
    28, 26, -1, 9, -82, -57, -127, 19,
    35, 37, 44, 55, -67, 25, -127, 20,
    15, 7, 12, -67, 16, 10, 22, 20,
    -62, -127, 19, -18, -36, -47, 28, 16,
    5, 8, 34, -80, 20, 20, 24, -42,
    12, 10, 4, -25, 42, 14, -26, -18,
    5, -42, 10, -49, 71, 6, 24, 9,
    -58, -92, 26, 16, -43, 35, 25, 69,
    32, -52, 34, -8, 1, 21, -8, 41,
    25, -32, 49, -34, 32, 7, -6, -83,
    6, -71, 12, 15, -46, -80, -6, 15,
    15, 22, 24, -44, -36, -16, 34, -110,
    49, 5, -3, -1, -28, -3, -7, 15,
    10, 42, 3, 42, 33, 24, 12, 35,
    24, -6, 7, 26, 24, -26, 2, -18,
    7, 6, 3, -10, -3, -10, 14, 3,
    -7, 13, 9, 5, 60, -12, 1, 7,
    12, 24, 19, 34, -8, 18, -62, 34,
    39, 3, 30, -22, 3, 31, -7, 17,
    26, -52, 12, 11, 20, 33, 16, 9,
    7, 13, 27, 2, -31, 27, -18, 20,
    -18, 20, 3, 7, -9, 14, 12, -7,
    -32, -2, 14, 17, 26, 14, 44, 14,
    -17, -19, 24, 34, -39, 22, -8, 26,
    -6, -15, -89, -61, 20, -20, -108, -9,
    8, 9, 42, -127, 23, 18, -4, -46,
    18, 7, -37, -74, -16, 28, 30, 15,
    23, 9, -11, 3, -22, 18, -89, -57,
    -56, -16, -1, 22, 35, -7, -31, -4,
    12, 20, 80, 15, 27, 5, -3, 22,
    -25, 6, 4, -9, 11, -21, 57, 23,
    23, -9, 12, -25, 5, -24, 15, 17,
    37, 56, 24, 1, -64, -10, -13, 2,
    20, 46, 51, 44, 40, 23, -20, 13,
    8, -17, 3, -14, -3, -9, -24, -74,
    12, -13, 32, -46, -18, 11, 36, -36,
    7, 2, -4, 9, 56, 48, -5, -12,
    -35, -11, -29, -41, 1, 13, 15, -43,
    -33, -35, 34, -20, 26, 2, -1, 21,
    -15, -1, 45, 43, -27, 29, 37, 26,
    53, 17, -70, -10, 20, 24, 15, 25,
    41, 17, -9, 6, 29, -23, 22, 48,
    20, 32, -30, 26, -34, 14, 10, -25,
    -70, -2, -77, 28, 9, 29, -13, -78,
    -34, 15, -47, -10, 25, -7, -74, 8,
    10, -12, -7, -32, -28, 20, -3, 37,
    44, 37, 1, -11, 25, -10, -85, 40,
    -9, 31, 0, 8, 6, 41, 19, 28,
    37, -43, 3, 0, -9, -12, 9, -33,
    27, -19, 29, 6, 46, 26, 19, 58,
    43, 0, 30, -47, 10, 28, 31, -18,
    38, 21, 1, 12, 14, 24, -21, 11,
    19, 12, 28, 22, -92, 13, 26, 62,
    6, 57, 17, -28, -36, 10, 23, 1,
    -37, -38, 4, -44, 47, 17, 41, 56,
    12, -30, 13, 54, -70, -5, 26, -18,
    20, -9, -122, 9, 19, 52, 53, 21,
    14, -30, 8, -9, 5, -17, 50, 58,
    -50, 16, -60, -29, -98, -35, -9, 3,
    -67, 10, 67, 51, -12, 29, -53, -7,
    20, 43, -7, -32, -20, -13, -60, 19,
    11, 2, 29, 9, 3, 19, 0, 16,
    59, 22, 3, 22, 13, 31, 31, 22,
    -1, -83, 5, 0, 17, -7, -27, 25,
    48, -48, 40, -2, 39, -21, -10, -22,
    13, 28, -4, -87, 31, -15, 26, 27,
    -41, 22, 17, 21, 15, 12, 43, 30,
    -23, 3, 21, -13, -2, 24, -73, 31,
    32, -8, -24, 38, 40, -18, 32, 47,
    -6, 35, 3, 12, -8, 24, -14, -12,
    -15, 10, 1, -6, -3, 14, 39, 53,
    7, -50, 57, 12, 20, 4, 16, 9,
    5, -4, -61, 30, 32, 25, 6, 34,
    19, 19, -8, 15, 14, -4, -2, 49,
    -50, 8, -17, 30, -127, -3, 15, -13,
    26, 27, 41, 29, 0, -8, -49, -12,
    13, -64, 15, -1, -5, -54, -35, -36,
    1, 22, 41, -86, 22, -7, -37, 51,
    73, 45, -2, 11, 36, 37, -10, 10,
    4, -78, -3, -16, 35, -28, 1, 49,
    36, 6, 18, -5, 11, 5, -12, -51,
    -77, 8, -63, 26, 5, 5, 6, 17,
    20, 24, 20, -60, 15, 1, 27, -2,
    -14, -10, 43, 54, 5, 28, -112, 11,
    -15, -37, 6, 28, 73, -1, 42, 25,
    5, 91, 2, -75, -60, 3, 19, 25,
    -27, 20, 37, -11, 43, 7, 15, 63,
    -5, -46, 6, 42, 38, 42, 17, -35,
    20, 14, -11, -9, -5, 10, 70, -1,
    48, 13, 6, 32, -6, -1, -11, 34,
    -16, -19, -25, -9, -84, -43, -65, 51,
    -51, -28, -102, -24, 8, 35, 30, -117,
    53, -5, 45, 53, 41, -18, -22, -30,
    12, 20, -26, -30, -7, 15, -33, 19,
    42, 41, 16, 13, 11, 24, -53, 40,
    49, -127, 1, 10, 63, 4, 4, 9,
    -44, -80, 21, -6, -39, -13, -34, -8,
    14, 8, 20, -51, 0, -8, 15, 14,
    23, 21, 35, 27, -16, 17, 14, 88,
    -2, 2, 46, -15, -10, -12, -28, 27,
    39, 29, 18, 42, 17, -19, 61, 18,
    -17, 61, 15, 57, 15, -60, 28, 1,
    -17, 65, -40, -21, 11, -7, -25, 52,
    15, -12, 0, 11, -17, 13, 34, -26,
    54, -8, -15, 7, 29, -21, 9, 26,
    -52, -25, -29, 8, 8, -23, 17, 0,
    -12, -26, -12, -15, -25, -72, -14, 22,
    11, -47, -51, 13, 22, 35, -16, -56,
    89, -8, 5, 52, 46, 2, 54, -18,
    0, 14, 11, -43, 1, 17, 9, 25,
    9, 21, -15, -2, -29, 21, -71, 13,
    29, -74, -11, 11, 50, -21, -23, 29,
    -11, -76, 11, -11, -39, 24, 29, 53,
    -26, 28, -33, -57, 24, 2, 33, -29,
    33, -4, -20, -29, 0, 22, 18, 40,
    -27, 4, 52, 40, 2, -20, -82, -17,
    16, 17, 1, 4, -87, 45, 17, 35,
    8, 67, 12, -23, 26, 9, 4, 14,
    -34, 6, -67, 6, -13, -1, -80, 18,
    -6, -19, -11, 48, -30, 6, 4, -28,
    25, 0, -50, -13, -31, 19, -31, -13,
    31, -49, 18, -20, -18, 11, 5, -8,
    10, 10, 5, -20, 71, 21, -59, 65,
    46, -13, 26, 25, -11, 55, -24, -58,
    22, -2, -14, -37, 47, 20, 12, -31,
    -12, 17, 21, -44, 18, 29, 14, 26,
    14, -1, 27, 44, -9, 2, 23, 6,
    -3, -3, -14, 49, 51, 32, -16, -9,
    -34, 25, 19, 7, -17, -3, 29, -23,
    12, 35, 27, -28, 17, -62, 44, -19,
    12, -12, 23, 25, -16, 8, 58, 80,
    -18, -21, 29, 22, 18, 16, -2, 36,
    -9, -9, 14, -10, -77, 21, 40, -23,
    12, -15, -16, -37, 1, 4, 23, -5,
    3, 41, 11, 26, 26, 27, -37, -57,
    -29, -14, 0, 42, 2, 23, 58, 3,
    -10, -14, 16, 4, 13, -55, -24, 28,
    -39, -19, 91, 25, 10, 81, 19, 6,
    -30, 3, 2, 4, -6, -29, 21, -14,
    21, 19, 85, -46, 9, 18, -37, -35,
    16, 32, 6, 21, 34, 35, 27, 18,
    2, 24, 4, -62, 33, 15, 40, -7,
    15, 24, 36, 16, 8, 37, 12, 6,
    24, 8, -5, 14, -7, 17, 8, 20,
    -66, 47, 21, 30, -23, 11, -9, 32,
    13, 33, -57, -37, -41, 4, 17, 64,
    9, -29, 21, -58, 16, 14, 42, -3,
    -6, -10, -30, -3, -7, 6, 19, 58,
    18, 16, 6, -10, -86, 47, 10, -16,
    21, -127, -3, -52, 38, -18, -6, -53,
    37, 8, -27, -3, 50, 6, 16, -127,
    -5, 12, 11, 50, 8, 7, 16, 0,
    -44, -12, -86, -6, -7, 27, -77, 16,
    -28, -9, 48, 29, -32, 14, 42, -17,
    4, 6, 17, -18, -8, -11, 40, -34,
    -40, 53, 105, -106, -7, -34, 4, 1,
    -77, 26, 76, 78, 9, 9, 16, 6,
    8, 29, -27, 60, 56, 40, 45, 18,
    -4, 63, 27, 30, 20, 6, -8, 7,
    77, -41, -1, 26, 15, -9, 26, 25,
    -81, 1, -66, 15, 0, 7, 25, -49,
    -3, 29, -54, 18, -22, -43, 9, 9,
    27, -15, 18, -21, -8, 19, -41, 4,
    11, 0, -26, 13, -6, -50, -21, 40,
    -3, 15, -9, 5, -103, 25, 13, 34,
    9, -24, 8, -38, -7, -18, 41, -25,
    -12, -13, -3, -15, 53, 20, -120, -14,
    5, -21, 1, 33, -6, 9, 62, -2,
    -17, 3, 19, 0, -58, 28, -98, 8,
    -49, 19, 86, -36, 1, 16, -2, -4,
    -34, -1, -5, -5, 24, 24, 10, 11,
    -10, -9, -67, -20, 1, 17, -23, -15,
    63, 33, 25, 32, -20, 4, -21, -16,
    -6, -10, -8, 16, -6, 53, -6, 12,
    -13, -19, 19, 4, 18, 35, 19, -11,
    24, -47, 3, 23, 24, -1, -13, 18,
    -127, -34, 17, 26, -26, -33, -36, -35,
    13, 46, -11, -118, -58, 23, 19, 18,
    -26, -4, 19, -26, -10, -3, 27, 52,
    4, -15, -7, 5, -4, -82, -35, 16,
    14, 23, -2, -1, -68, -3, 9, 29,
    17, 7, -5, -101, 30, -9, 3, -11,
    31, -60, -26, -32, 16, 33, -57, -15,
    15, -30, 4, -16, -36, 19, 44, -2,
    -19, 4, 49, 7, -6, 46, -47, 4,
    56, 21, -20, -27, -85, 34, 22, 51,
    26, 23, -7, -68, 29, 21, -28, 13,
    -15, 44, 72, -76, 11, 1, 5, 12,
    7, 10, 59, 78, 12, 36, 33, 11,
    24, -22, 14, 51, 20, 46, 4, 27,
    -68, 38, 7, 73, 4, 7, 35, -26,
    64, 51, -7, -11, 38, -24, 20, 27,
    -22, 49, 39, 21, 4, -121, 44, -20,
    -15, 49, -64, -40, -35, 26, -15, 15,
    17, -8, -24, 27, -8, -7, 84, 23,
    -4, -8, -2, -39, 8, -101, -29, 11,
    39, 17, -6, 18, -105, 21, 56, -10,
    9, 24, 11, 25, -24, 4, 16, 6,
    44, -43, 12, -22, -11, 10, -48, -2,
    4, -11, 9, -23, 29, -7, 16, -8,
    29, 0, -5, 9, -18, 1, 25, 55,
    63, -3, -84, -10, -23, 41, 31, 18,
    31, 15, 27, -13, 10, -17, 23, 16,
    3, 33, 58, -39, 21, 11, 12, -15,
    -5, -9, 36, 39, -27, 3, -16, -13,
    0, -9, -34, -11, -18, 3, -4, 24,
    -19, 107, -30, 25, -51, -11, -24, 11,
    -11, -1, -15, 16, 22, -1, 20, 21,
    -67, -40, -10, 18, -25, -15, 8, -14,
    -29, 27, 3, -53, 5, 28, 18, -8,
    -3, -3, 54, 20, -7, 0, 21, 59,
    22, 5, -1, -11, -3, 28, -19, -19,
    6, 11, 1, 17, -48, 10, -18, -31,
    -17, 7, 3, -19, 24, -11, 0, 3,
    33, -20, 5, 34, 1, 2, -36, 52,
    6, -4, -28, 0, -16, 22, 34, 7,
    1, 5, -5, 23, -17, 4, 2, 0,
    -18, 6, 15, -27, 36, 17, -5, -5,
    4, -10, 14, 39, 8, 5, 1, -11,
    4, -20, -3, -22, 13, 20, 13, 60,
    5, -3, 2, -9, 19, 1, 0, 10,
    7, -16, 0, 30, 19, 11, -14, 2,
    41, -39, -16, 18, -14, -22, -19, -9,
    -67, 23, -17, 10, -12, -3, -35, -1,
    6, -31, 69, -4, -35, 2, -50, -21,
    19, 11, -2, -51, -21, -39, -56, 23,
    1, 6, 6, 40, 13, 18, 15, -18,
    -3, 10, -8, 12, 15, 50, -1, 5,
    3, 0, 10, -17, 38, 16, 32, -18,
    -17, -9, 15, 11, 2, -41, 6, 18,
    -13, -19, 27, -8, 20, -19, -5, 44,
    -4, -6, 3, -12, -20, 0, -2, -4,
    -32, -2, 3, 1, -24, -36, 22, 0,
    -30, 12, 27, -9, 45, -7, 17, 6,
    -37, -20, -3, 27, -10, 40, 2, -4,
    2, 7, 22, 18, -19, -1, -18, -4,
    -21, -7, -27, -32, -10, 9, 24, -10,
    2, -26, -8, -11, 5, -19, -36, -4,
    40, 13, -37, 26, -52, 1, 8, -2,
    -4, 6, 1, 9, -34, 33, -12, -9,
    31, -57, -75, -6, 12, -26, 18, 8,
    8, -2, -27, -5, 4, -16, 0, -5,
    -15, 5, -4, 9, -5, 13, 23, 41,
    -21, 7, -23, -37, -6, 26, -5, -12,
    6, -40, -30, -5, -8, -8, 3, 21,
    2, 55, 0, -33, 27, -4, -36, 10,
    2, 0, 12, 30, 53, -34, -8, -1,
    44, -31, -11, 15, -33, -61, 4, 12,
    -39, 5, 18, 60, -25, 1, 66, 5,
    24, -9, -20, -22, 33, 1, -10, -39,
    30, -4, 16, -33, 19, -33, -46, 50,
    29, -55, 5, -21, 0, 24, 19, 61,
    65, 26, -10, -53, -61, -13, -19, -15,
    32, -4, -22, 22, 6, -36, 6, -7,
    -62, -47, -2, 48, 29, -39, 77, 21,
    -13, -2, 19, -18, -10, 29, 10, 7,
    -22, -29, -87, 7, 18, -30, 25, 15,
    -12, -36, -5, -21, 14, 9, -54, -51,
    -53, 5, 24, 32, 0, 19, 76, 30,
    16, 26, -4, -7, -10, -3, -40, -1,
    -4, -24, -1, 0, 55, 4, 28, -1,
    -29, -11, -1, 127, 40, 14, -23, -36,
    -2, -23, 3, -26, -37, 3, -46, 39,
    11, -7, 18, 17, 12, -35, -16, 19,
    -2, 12, -2, 45, 25, -7, 44, -54,
    -20, -3, 44, 16, -23, -22, 10, 30,
    33, 1, 18, 78, -56, -1, -5, -62,
    39, 4, 30, 39, -26, -18, -49, 2,
    54, 14, -47, -92, -79, -16, 16, 10,
    3, 10, -10, -82, 15, -90, -3, 9,
    -33, -105, -31, 24, 28, -28, 42, 9,
    26, 23, 0, -10, -19, -4, 39, 8,
    21, 7, -9, -3, 54, 50, -12, -46,
    1, -50, 61, 10, 45, -13, -86, -55,
    33, -4, -32, -8, 2, -5, 0, 26,
    27, 6, -1, -21, -1, 7, 9, -50,
    -26, -46, 24, -4, 15, 10, 28, 51,
    24, 39, -5, 77, 25, -45, -18, 25,
    -8, -38, -4, -37, -46, 16, 22, -11,
    40, -36, 34, 16, 18, 10, 28, -33,
    62, 33, 30, 84, 60, 6, 33, 41,
    19, 18, -45, 33, -32, 28, -4, 42,
    32, 8, 37, 31, -37, -14, 27, -30,
    53, 6, 91, 35, -12, -16, -57, -29,
    15, 23, -30, -102, -82, -18, -35, -1,
    -9, -35, 17, 22, 7, -81, 12, 30,
    79, 46, 25, 14, -20, 6, -7, 20,
    9, 46, 2, -4, -4, 21, 50, 29,
    21, 57, 45, 22, 78, 8, 36, -8,
    1, -8, 8, 42, 59, -11, -14, -12,
    89, 25, -4, 16, 4, 8, 25, 7,
    64, 17, -17, 28, -39, 15, 0, -14,
    3, 32, 11, 28, 30, 12, 3, 47,
    47, 7, -23, 85, 45, -53, -18, -74,
    19, -11, -13, 24, 29, 49, 52, 4,
    6, 5, 44, -49, 19, 9, 26, 13,
    -9, 45, 29, 99, 49, 12, 13, 8,
    14, -16, -71, 37, -48, 20, 36, 70,
    8, 33, 47, 83, -14, -13, 28, 28,
    127, 72, 79, 16, -50, -127, 39, -36,
    26, 35, 71, 111, 1, -23, 24, 34,
    -14, 26, 15, 15, 12, -28, 8, 28,
    37, -5, 4, 7, 14, 18, -61, -28,
    21, 38, -8, 35, 20, 39, 14, 31,
    68, 70, -72, 16, 87, -3, 42, 2,
    12, -36, -6, 95, 117, -17, 2, -59,
    75, 25, -43, 14, 0, -15, -62, -60,
    66, 29, 9, 60, 8, 45, 17, -127,
    15, 40, 17, 78, 8, 25, 25, 59,
    20, 4, -19, 77, 33, -19, -15, -36,
    29, -57, -18, -17, -27, 23, 58, 19,
    12, 4, 10, -68, 9, 12, -26, -36,
    -52, 19, 10, 56, 43, -35, -57, 9,
    -12, -9, -37, 30, -70, 13, 40, 43,
    14, 47, 34, 85, 23, 14, 6, 1,
    74, 67, 70, 31, -10, -75, -71, 32,
    -14, 31, 50, 2, 10, 17, 3, 39,
    -23, 11, 52, 25, 25, -33, 44, 4,
    25, 18, 37, 25, 20, 3, -63, -25,
    34, -3, -11, 65, 3, 33, 24, 15,
    67, 13, -12, 5, 65, 14, 42, 4,
    12, -56, 25, 61, 56, 14, 9, -28,
    63, 7, -45, 17, 18, -34, -3, -83,
    65, 18, 10, 33, -10, 6, 8, -83,
    3, 10, 18, 30, -89, -21, -82, 60,
    5, -70, 45, 53, -2, -74, 16, 4,
    6, -9, 18, 0, -127, 25, 48, 45,
    17, 8, 0, 24, -4, -6, -27, 6,
    -14, 17, 14, 38, 46, -16, 21, 12,
    19, 19, -29, 3, 16, 62, 19, 33,
    -1, 65, 16, 99, 26, 2, 17, 19,
    53, -43, -43, 55, 14, -58, -45, 43,
    -38, -17, -93, -71, -72, 15, 18, 50,
    0, -3, 62, 28, 34, -40, 2, -52,
    25, 121, -47, 4, -4, 21, -1, 19,
    -51, 13, 7, -28, -33, 21, 5, 3,
    31, -18, -20, 9, 40, -11, 9, -6,
    24, 24, 10, 45, 16, 21, -18, 12,
    53, 11, -12, 27, 3, -62, -3, -23,
    34, 7, -76, -10, 1, 41, 4, -68,
    22, 11, 37, 29, -34, 3, -73, 19,
    -5, 49, 36, 32, -31, 26, -5, 34,
    -44, -2, 4, -18, -40, -10, 30, 87,
    20, -7, 20, 22, 21, 12, -48, 6,
    27, 1, 38, 14, -1, 16, -41, 3,
    2, 30, 36, -20, -13, 29, -7, 16,
    24, 10, 11, 10, 14, 25, 15, -4,
    7, -20, -59, 14, 0, -1, 8, 62,
    3, 3, 14, -21, 17, 11, 36, -21,
    12, -15, 21, 46, 6, -38, -31, 9,
    127, -1, -7, 103, -71, 15, -6, 4,
    0, 2, 0, 21, -11, -17, -19, 10,
    -23, -16, -7, 28, 9, 36, 31, -12,
    -26, 22, 23, 8, 2, -4, -90, -15,
    29, 23, 30, 46, -27, 9, 22, -58,
    9, -19, 28, -74, -15, 8, 3, 33,
    -8, 17, -13, 14, 80, -20, 18, 18,
    13, -30, 6, 6, -32, -20, 4, -4,
    -4, -9, 10, 17, -65, -1, -16, 13,
    -37, 13, 9, 22, -12, -2, 11, 5,
    7, 13, 15, -20, 4, 30, -15, 18,
    1, 3, 13, 28, 23, 15, -13, -23,
    -38, 8, -3, 28, -33, -4, 24, -31,
    3, -4, 18, 7, -11, -30, -24, -15,
    26, -7, -26, -55, -15, 7, 3, -8,
    11, -6, 13, -127, 16, -22, -7, -22,
    -25, 17, 0, 12, -98, 14, 58, 0,
    14, 7, 14, 14, 9, -53, -69, 13,
    -29, 4, 61, 7, 17, 10, 43, 21,
    -25, 3, 10, -31, -13, 25, -5, 17,
    17, 2, -30, 5, 3, -10, 26, -34,
    -1, -24, -8, -32, 21, -43, 0, 13,
    22, -11, 12, -3, -23, -30, -35, -98,
    -12, -4, -7, 13, -53, -3, -11, 17,
    -26, -2, -7, -6, -6, -14, 12, 15,
    -27, 8, -15, -8, -3, -3, -42, 14,
    20, 18, -40, -15, -31, -46, 43, -14,
    -38, -5, 45, -24, 6, -24, -19, 2,
    -20, 13, -2, 25, -8, -9, -7, 16,
    2, -9, 31, -39, -9, 2, 16, 8,
    48, 11, -61, -57, 32, 5, -14, -4,
    -5, 8, 1, -93, 20, -36, -9, -14,
    -17, 40, 0, 35, -47, -22, 11, 3,
    -120, -21, 16, 1, -9, -48, -51, 12,
    41, -11, -76, -7, 9, 10, 14, 6,
    25, -8, 0, 29, 19, -35, -79, -20,
    -3, 18, 17, -11, 19, 1, 8, -11,
    -4, 7, 2, -51, -11, -1, 2, -31,
    4, -10, 19, 12, 19, -16, -73, -99,
    47, 14, 28, 62, -30, 23, -7, 1,
    4, -14, 9, 31, -59, 5, 71, 32,
    43, 34, 47, -18, -4, -11, 43, 31,
    32, 36, 37, 46, 36, 9, -13, 14,
    11, -16, -60, 2, 38, 31, 7, 78,
    20, 32, 46, 27, 88, 32, 44, 3,
    -20, 63, -36, 98, 4, 7, -26, 56,
    39, 14, -6, 18, 36, -16, 14, 22,
    23, -37, 31, 0, 46, -2, -19, 39,
    77, 95, 7, 46, 18, 51, -25, -16,
    32, 69, 8, 13, 23, 24, 24, 31,
    68, 10, -5, 61, 31, 7, 31, 14,
    18, -47, 12, 95, 51, 9, -20, 20,
    31, 36, 25, 13, 14, 0, 27, -22,
    40, 24, 5, 8, -18, 14, -5, -35,
    8, 56, -17, 52, -2, -46, -48, 18,
    20, 20, -13, 5, -49, -11, 2, -2,
    -3, -15, 14, 2, -11, 22, 52, 22,
    2, 30, 20, 28, -5, 19, 63, 11,
    6, 13, -39, 32, 12, 25, -7, -1,
    33, -1, -40, 26, -3, -5, -31, 66,
    41, 12, 17, 11, 42, -12, 52, 30,
    50, 55, 4, -29, 15, 0, -49, 7,
    -17, -6, -17, 37, 33, 19, 1, 19,
    16, -15, 22, 24, -22, -96, -5, -40,
    37, 57, 12, 38, -10, -16, -20, 29,
    -63, 51, 7, 17, 18, -8, 37, 28,
    44, 61, 23, 36, 4, 38, 22, -22,
    28, -3, 9, 57, 28, 22, -7, 37,
    24, 29, 6, 57, 6, 1, 10, -113,
    27, 22, 16, -14, 0, 13, 19, -31,
    10, 47, 15, 11, 11, 16, -22, -1,
    13, 38, 0, 3, -26, 2, -22, -4,
    2, 10, 15, -2, 14, 6, 16, -14,
    62, 14, 32, -7, 25, -4, 29, -26,
    -14, 39, -7, -5, 4, 42, -63, -19,
    1, 25, -58, -4, 0, -33, -6, 11,
    17, -26, -12, -17, 76, -17, 31, -26,
    -18, -10, 4, -51, 14, 19, -51, -6,
    -63, 8, -78, -72, -29, -9, 23, 5,
    5, -18, -21, -2, -15, -33, -9, -24,
    -91, 66, -1, 13, -32, -27, -3, 7,
    -22, 31, -1, 34, -28, -8, -33, 27,
    17, 37, -85, 6, -2, 1, -6, -5,
    8, -9, 9, 25, 21, 32, -48, -5,
    10, 32, 34, 35, 14, 11, -8, -8,
    11, 8, 3, -8, 7, 4, 12, 2,
    -4, 20, -11, 33, 37, 21, -23, 30,
    6, 0, -1, -69, -62, -27, -6, 19,
    0, 1, 28, 0, -107, 1, -29, 10,
    -22, 12, -10, 17, 6, -18, 13, -26,
    17, 5, 0, 3, -11, -18, -31, -9,
    35, 6, 2, 0, -15, 13, -23, -34,
    -26, -12, 17, -31, 53, -12, 32, -27,
    8, -13, 15, -40, -1, 27, -74, -60,
    44, 16, -127, -92, -60, -10, -12, 5,
    -8, 3, -6, -122, 7, 15, 31, -19,
    -35, -29, -21, -10, -29, -55, 7, 7,
    6, -22, -7, 21, -57, -53, -42, 7,
    23, 11, -8, -3, -21, -5, 3, -7,
    -17, 5, -6, -20, 14, -19, 20, 1,
    -14, 21, 39, 59, 14, 12, -8, 14,
    -4, -19, -40, -33, -4, 29, 4, -20,
    -7, -16, 0, 17, -76, -2, -89, -6,
    2, 36, 13, -7, -33, -23, 17, 21,
    11, -1, 8, 17, -86, 18, -10, -29,
    5, 25, 17, 10, -1, 15, 51, 16,
    -3, 12, 48, 22, -8, 33, -11, -36,
    16, -27, 14, 15, 15, 4, 10, 26,
    -28, 11, 12, -4, -35, -42, 31, -31,
    -13, 11, 23, -6, -22, 3, 29, -9,
    -51, 26, -55, -31, 6, -11, 9, -2,
    4, 3, -6, -9, 24, -7, -2, 29,
    -12, 11, 12, 27, -11, -33, 49, -22,
    -68, 30, 15, -11, -9, -41, -17, 12,
    10, 44, -17, 19, 17, 24, 20, 16,
    -13, 3, 31, -51, 2, -23, -28, 0,
    5, 6, -11, 23, 20, 14, -32, -1,
    14, -9, -36, -18, -6, 34, 34, -12,
    -3, -37, -63, 21, 37, 14, 6, 6,
    -37, -25, 30, -11, -39, -26, 20, 5,
    17, -7, 17, 1, -27, 1, -62, -6,
    -19, 18, -8, 38, 8, 11, 22, 3,
    8, -1, 28, -52, 15, -5, -28, -20,
    -61, 19, -7, -9, 20, 2, 0, -7,
    11, 11, 6, -8, -4, -3, -4, -59,
    -5, 4, 0, -12, -8, 7, -12, 10,
    18, -2, -45, -34, -35, 13, 16, 35,
    -3, -14, -2, -59, 20, -20, 30, 22,
    71, -16, -22, 19, -10, 3, 67, 4,
    -7, 15, 13, -18, -80, -29, 0, 6,
    -59, -2, -67, 11, -49, 9, 0, 8,
    -3, -4, -39, -52, -31, -13, -36, 6,
    14, 4, 11, -19, 15, 13, 2, -11,
    -1, -12, -54, -27, -11, 16, 34, -11,
    -20, -25, 0, -2, 0, 16, 5, -11,
    -1, 15, 9, 33, -12, -21, -5, 24,
    -16, 17, 22, 17, -44, 4, -38, 54,
    -3, 13, -4, -25, 16, 9, -4, 24,
    0, 9, 14, -43, -20, -19, -1, -47,
    27, -11, -17, 24, -2, 20, 4, -5,
    -15, 6, 9, -13, 19, -19, 15, -71,
    8, 21, -48, 27, 8, 25, 23, -12,
    6, 0, -23, -81, -61, -16, -12, 10,
    -8, 5, 2, -50, -11, 46, 7, 27,
    11, -49, -16, 16, -40, -19, -53, -6,
    7, -10, 3, 7, -83, 2, -35, -7,
    -42, 10, 25, 7, -29, -15, -14, 13,
    -24, 9, -20, -70, -2, 18, 23, 10,
    -23, 0, 8, 25, -12, 2, 3, -6,
    -1, 3, -53, -38, -13, -23, 10, -6,
    13, -32, -32, 14, 5, -4, 12, -38,
    -1, 9, 9, 104, -6, 20, -19, 48,
    -23, -15, -23, 2, -44, 1, 73, 9,
    -22, 40, 4, -10, -10, -7, 31, -3,
    -1, 3, -16, -5, 2, 3, -8, -17,
    35, 18, -87, 33, 41, -15, 13, 26,
    -44, 22, -5, -35, 53, 42, -5, -55,
    7, 33, 33, 58, 4, 0, 23, 17,
    -32, 8, -71, -71, -28, -4, 46, 17,
    6, -4, -1, -89, -39, -37, 5, 15,
    -42, -108, -4, 49, 4, -1, -66, 10,
    -24, 38, -10, 14, -76, 8, 4, -1,
    9, -1, -19, 14, 4, -10, -10, -20,
    -14, -2, 22, -2, 8, -2, 8, 12,
    31, 1, -3, 17, -31, -6, 58, -14,
    11, 16, -71, 1, -1, -31, -17, -37,
    0, -34, -47, 32, -65, 7, 19, -89,
    11, 51, -15, 90, 3, 41, 2, 33,
    11, -2, -41, -11, 26, 1, 40, 22,
    21, 32, 4, 38, 6, 13, 13, -34,
    -5, 14, 14, 19, 18, 11, -41, -45,
    -21, -1, -68, 20, 29, 14, 13, -16,
    -7, -18, 1, 35, 60, 38, -23, -68,
    -8, 15, -30, 21, 7, 7, 10, 33,
    -7, 3, -29, -31, -17, 5, 62, -11,
    13, 19, 13, -9, -28, -56, 15, 3,
    2, -79, 12, 57, 18, 1, -17, 18,
    8, 4, 7, -11, -43, 16, 10, 5,
    -29, 3, -35, -2, -10, -31, -11, 5,
    5, 8, 34, 17, -4, 20, 43, 43,
    -43, -3, -8, 25, -40, 1, 28, 28,
    9, 10, -33, 20, 1, 6, -3, 35,
    -9, -30, -8, 21, -34, 10, 20, 33,
    6, 34, -23, 51, -21, 19, -19, -19,
    -42, -28, -1, 19, -63, -1, 49, -19,
    11, 5, -37, 24, 9, 14, 6, -7,
    0, 1, -15, -40, 8, -9, 4, 8,
    -21, 11, 34, 15, 19, 15, -1, -1,
    13, -4, -1, 11, 29, 20, -2, -39,
    -29, 17, -29, 37, 27, 20, 22, 46,
    -21, 16, -26, -34, 3, 18, 32, -36,
    -22, 12, -9, -6, -28, -53, 31, 34,
    -7, -48, 45, 38, -22, -2, 25, 0,
    7, -28, 6, 17, -32, -2, 34, 0,
    3, -3, 20, -15, -13, -3, -55, 6,
    -31, 10, -3, -29, -14, 17, 37, 1,
    -23, -10, 27, 30, -8, 8, 18, -86,
    14, -4, -33, 25, 4, 1, -35, 52,
    -29, 7, 12, 4, 44, 14, 19, 20,
    9, 54, 7, 64, -38, 7, -7, 13,
    5, 22, 59, -4, -9, -9, 25, -32,
    7, 11, 12, 37, -20, -30, 12, 7,
    14, 10, 0, -2, 4, -22, -7, -1,
    31, 35, -16, 8, 15, 33, -8, 14,
    -20, 4, -6, -54, -61, -20, -5, -77,
    2, -5, -73, 23, -30, 24, 28, -4,
    7, -3, -19, -44, -33, -15, 42, 15,
    4, 16, 0, -40, -43, 5, 36, 12,
    -18, 85, 14, 21, -28, -5, -27, 16,
    -47, 9, -5, -6, -43, -14, 2, 7,
    0, 7, -17, 9, -19, 15, 10, 8,
    -8, 13, 5, 1, -2, 27, 2, -10,
    43, -5, 34, 24, 10, 13, -13, -18,
    22, 6, -31, -12, 6, 19, 24, 15,
    -34, 4, 6, 18, -15, 35, 29, 17,
    12, 109, -9, 22, -39, 5, 0, 47,
    11, 24, 28, 14, 39, -7, 25, 10,
    13, 37, 32, -15, 9, -1, 58, 22,
    25, 14, 66, -5, 13, 7, -43, 31,
    -23, 17, -12, 10, 2, 29, 21, -29,
    -40, 20, -9, -78, 11, 28, 6, 8,
    -2, 29, -14, 8, 2, 33, 6, -9,
    16, 18, -18, 13, 14, 43, 60, 5,
    -4, -22, 8, 15, -54, 36, 19, 28,
    30, 127, -10, 58, -5, 15, -25, -12,
    -8, 50, -14, 9, 20, 17, -29, 9,
    17, -25, -32, 19, -6, 8, 20, 14,
    5, 6, -21, 49, 19, 13, 21, -15,
    12, 15, 9, 44, -9, 12, 6, 36,
    16, 2, 0, -2, -11, 18, 24, 13,
    -14, 9, -12, 61, 78, 26, 27, 6,
    9, 41, 3, -15, 21, 25, 18, 14,
    -5, 47, -11, -7, 16, 1, 1, 27,
    16, 11, 10, -19, 20, 1, 33, -17,
    31, 11, 7, -12, -6, -5, 46, 7,
    -61, 11, 52, 15, 23, 10, 3, 22,
    -6, -17, -5, -15, 41, 21, 9, -39,
    -17, 49, -48, -3, 7, 8, 22, 28,
    -19, 5, 6, -18, -66, 3, 12, -10,
    -15, -3, 19, 6, -50, 1, 1, 6,
    -11, -23, 7, 3, -23, 7, -29, 9,
    -18, 26, -5, 9, -17, 22, 15, 8,
    40, -5, 13, 10, 3, 23, 7, 14,
    -15, -6, 1, 17, 10, -27, 6, -3,
    -5, 1, -46, 16, -39, 16, 6, -76,
    -8, -2, -48, 25, -12, 0, 1, 5,
    -34, 25, -18, 10, 49, 32, 19, 16,
    0, 14, 3, -36, 0, 12, 7, 21,
    11, 30, -20, 7, -31, 5, 11, 52,
    5, 7, -7, -7, 23, -4, 7, -27,
    -2, 1, 13, -19, 5, -34, 13, 5,
    -20, -13, 49, 1, 59, 27, 2, 20,
    -12, 6, 4, -43, 6, -13, 6, -26,
    -4, 8, 34, 22, -3, 9, 60, 27,
    9, 0, -16, -15, -26, 17, -9, -1,
    -8, -4, 23, 0, 15, 23, -3, 18,
    1, 72, -40, -2, -12, 3, -31, -18,
    -56, -13, 1, -7, -58, 15, 15, -13,
    24, 10, 10, -25, -5, 11, 7, -2,
    2, 11, -35, 24, -1, -28, 31, 17,
    9, -4, -11, 17, 8, 9, 9, -12,
    -2, 3, -37, 48, 19, -9, 8, 9,
    -7, -2, 2, 19, 4, 22, -7, 9,
    11, -13, -7, -45, 5, -121, 2, -13,
    18, 22, -39, 16, -9, -2, 16, -4,
    7, -17, 0, 11, 11, 0, -4, 0,
    -10, 11, 6, 5, 8, 19, 42, -8,
    17, -6, -11, -49, -9, 4, -5, -24,
    38, 1, -3, -23, -44, -9, -19, -34,
    -4, 23, 41, -28, 17, 5, 35, 22,
    2, -4, 37, 4, -35, 6, -3, -17,
    8, 10, 19, 41, 15, 12, 7, -19,
    -106, -60, -51, 0, -70, -4, -59, 3,
    50, -35, 5, -7, -38, -39, 22, 6,
    -18, 27, 7, 15, -1, -7, -27, -5,
    -4, -11, 17, 12, 6, -8, -20, -4,
    9, -6, -8, -16, -7, 0, 21, -35,
    -8, 10, -43, -9, -21, 22, 11, 17,
    8, -2, -24, 1, 89, 4, -8, 24,
    8, -26, 6, -10, 18, -12, 8, 48,
    -22, 31, 16, -3, -5, 7, -42, 4,
    -8, 7, -25, -10, -8, 8, -10, -19,
    8, 15, 11, -4, -26, 0, 15, -7,
    12, 7, -59, 26, 2, -20, 4, -12,
    -25, 3, -18, -30, -19, 3, -14, -19,
    8, 24, -16, 27, 17, -9, 7, 12,
    -58, -5, 44, -36, -41, 4, 13, 26,
    -2, -4, 18, 21, -26, 22, 21, 4,
    -12, -79, -3, -24, -64, -7, 1, 5,
    -24, -2, 9, -20, -67, 8, -2, -11,
    -4, 8, -45, -10, 1, -13, 29, -7,
    -5, 24, 5, -22, -24, -17, -65, -11,
    35, 5, 14, -4, -8, -5, -2, 9,
    -10, 18, -51, -26, 11, -4, 19, 13,
    -5, -43, -8, -19, 50, -7, 5, 20,
    -7, -14, -1, -1, 7, -13, 5, 0,
    34, 16, 0, -5, -28, 0, -22, 20,
    -30, 20, -30, -31, -3, 17, 3, -49,
    7, 7, -13, -31, -16, -10, -18, 14,
    -66, 10, -13, -16, 10, 19, 14, -21,
    4, -12, -7, 31, -30, 27, 0, -12,
    2, 22, 11, -2, 9, -29, -19, -7,
    -29, -1, 30, -35, 5, 28, 4, 16,
    7, 13, -4, -83, -37, 37, -31, -15,
    -34, -49, -5, 24, -13, -28, 96, -13,
    10, -13, 4, -18, -9, -6, 18, -7,
    7, 5, 36, 9, 18, 17, -19, -9,
    -32, 24, -41, -28, 3, -28, 6, 25,
    3, 4, 3, 5, -7, -2, 3, -5,
    -13, 1, -25, -2, 17, -78, 8, -10,
    -5, -13, 3, 16, 23, -12, 9, -23,
    5, 12, 0, -30, 2, -80, 9, 32,
    22, -5, -5, 14, 17, 8, 45, 11,
    20, 7, -24, -17, 6, 27, -44, 12,
    -16, 10, -6, 13, -16, 11, -57, 8,
    3, 5, -23, 1, 0, -14, -4, -4,
    7, 0, -2, -3, -82, 13, 9, -26,
    4, 20, 38, 14, 18, 27, 12, 34,
    -47, 9, 39, -3, -14, 18, -24, -2,
    6, 8, 1, -37, 10, 9, -10, -1,
    -67, -111, -28, 6, -29, 22, -34, -7,
    22, -11, 12, 8, -51, -15, 5, -12,
    10, -13, 45, 11, 9, -9, 5, -3,
    -17, -4, -14, 5, -7, -13, -8, 15,
    -8, 11, -21, -18, -14, -11, 21, -38,
    -9, -13, -60, 14, -17, 14, -18, 37,
    31, -2, -10, -6, 40, 10, 28, 22,
    0, -40, -9, -54, 3, -14, 8, 3,
    6, 28, -28, 12, 7, -3, -37, 38,
    -24, 7, -35, 25, -27, -1, 11, -12,
    -25, 16, -7, 21, -4, -18, 9, 9,
    -54, -6, 39, -33, -43, 3, 23, -12,
    -13, -8, 6, -20, -36, 17, 9, -38,
    -10, -11, 88, -28, 18, -9, 31, -7,
    11, 0, 9, -54, -15, 1, -31, 8,
    12, -1, 2, 2, 4, 8, 25, 27,
    8, -107, -22, -12, 1, -21, -42, -27,
    -32, -5, 1, -2, -33, -10, -13, -3,
    -10, 1, 18, -3, 7, -6, 26, -5,
    16, -3, 5, -24, -35, -10, -26, -25,
    18, 1, 4, -12, 9, 6, 41, 16,
    -9, -11, 6, 7, 6, -18, 7, 13,
    -6, -12, 29, -15, -21, -5, -12, -49,
    21, 6, 3, -80, 13, -41, -5, 34,
    26, -15, -33, 16, 54, -2, 9, -25,
    -10, 31, -25, 19, -24, -9, -34, 4,
    2, 14, -12, -75, -8, 3, -30, 3,
    -16, -14, -13, -56, 31, 6, -5, -37,
    39, -39, 2, -51, -33, -13, -24, 15,
    -21, 7, -20, 0, 12, 9, -20, -25,
    33, 5, 20, 54, -12, 20, 0, 2,
    15, -14, -8, 50, -15, 10, 27, -17,
    -75, -36, -8, -2, 14, 1, -39, 8,
    43, -2, 7, -16, -2, 20, 25, -21,
    -20, 13, -4, -6, -12, -37, -41, -3,
    -7, 27, -17, 10, -17, -15, 16, 11,
    34, 12, -19, -6, -13, 0, 38, 54,
    -2, 20, 4, -5, -11, -11, -8, 3,
    12, -8, -2, -13, 18, 23, 1, -17,
    1, 2, -8, -1, -3, -28, -2, 5,
    27, -4, -19, 8, 13, 2, 2, -14,
    -37, 19, 6, 10, 25, 13, 0, 21,
    28, -3, -11, -11, 13, 3, -72, 25,
    24, -20, 30, -29, 25, -10, 12, -12,
    16, -4, -15, -6, -55, 17, 12, 6,
    13, 21, -30, -17, 17, 7, -20, -29,
    24, -9, -12, 67, -46, -24, -13, 0,
    -4, 42, -11, -5, -7, -15, 31, 19,
    60, 5, -25, -2, -15, 4, 21, -13,
    -28, -5, 7, -2, -37, -1, 8, -5,
    33, 28, 43, -12, -24, 15, -16, -17,
    9, 31, 9, 5, -23, -8, 4, 2,
    27, 3, -15, -36, 4, -6, 1, -34,
    -8, 19, -31, 16, -2, -20, 0, 12,
    7, 23, 32, -36, -44, 9, 0, 5,
    13, 40, 0, -20, 27, -104, 7, -27,
    12, 15, -11, 15, 28, 6, 26, -79,
    -16, 9, 22, 24, 13, 12, -21, -44,
    6, 15, -21, 1, -17, 11, 43, 12,
    7, -12, -28, -29, -29, 15, -5, 45,
    20, 9, 13, 1, 5, -1, 6, -34,
    21, 10, 81, 31, -5, 14, 2, 10,
    -9, 35, 16, 61, -57, 16, -66, -15,
    4, 7, -16, 23, -25, 33, 11, 39,
    -23, -61, 3, -10, 40, -9, -65, 5,
    32, 62, 1, 12, -34, 23, 13, 9,
    6, 25, -67, 10, 18, -24, 45, -5,
    29, -4, -22, 12, 8, 3, 2, 1,
    -21, 7, 36, 12, 3, 12, -16, 56,
    7, 1, 10, 57, -2, 0, 5, -15,
    4, 33, 6, 18, -41, 28, -40, 20,
    19, 4, 21, -18, 38, 1, 3, 5,
    6, -7, 31, 17, -12, 3, 26, -68,
    -26, 17, 39, -29, 4, -22, -36, -21,
    -55, -9, 0, 42, 4, 7, -45, -20,
    0, 1, -13, -20, -23, -36, -4, -13,
    -4, 18, -10, -8, 2, -16, 11, -14,
    5, 3, 9, -35, -6, -12, 16, -3,
    -127, -17, 15, 41, -9, -13, -47, -3,
    -4, 12, 0, 30, -5, -6, -29, -84,
    -69, 4, -21, 10, -5, 15, 7, -1,
    -11, -16, -7, 17, 16, 23, 1, 6,
    -35, -28, -7, 5, 25, -11, -31, -8,
    15, -33, 0, 22, -18, 4, 40, -6,
    -49, 0, 5, 7, 13, -26, -3, -111,
    11, 17, -6, 17, 0, 24, -19, 28,
    3, 37, -7, 14, -21, -32, -9, 31,
    -1, 16, -18, -61, 36, -30, 8, 22,
    13, -5, 13, 10, -7, -10, -9, -12,
    9, -4, -1, -44, 29, -2, -12, 2,
    -10, 12, 10, 29, -26, -33, -31, -15,
    42, -28, -42, -8, -14, -51, 8, -42,
    6, -21, 4, 19, 9, -50, -2, -17,
    -26, 29, -57, 0, -2, 14, -29, 13,
    5, -15, -24, 21, -8, -2, -28, -8,
    -14, -8, 16, 18, 19, -49, -18, -34,
    -35, -55, -22, 12, 11, -27, -86, -6,
    -23, 14, -18, 12, -12, 11, 19, -19,
    39, 34, 29, 2, 17, 5, -45, 7,
    8, -27, -6, 28, 10, -20, -11, -14,
    -14, -12, -32, 18, 8, -7, 50, 17,
    12, 12, -18, 12, 14, 28, -13, 12,
    6, -10, -14, 10, -16, 4, 25, 8,
    -3, -92, 3, -46, 10, -23, 19, 3,
    -49, 15, -4, 3, 5, 21, -16, -114,
    -23, 11, 11, 34, -41, -7, -10, 10,
    -16, 0, 1, 6, 31, -38, 86, 28,
    -5, -4, -86, -49, -32, -35, 13, -10,
    0, -45, 23, -42, 5, -25, 0, -119,
    13, -14, -1, 35, 2, -4, 52, -5,
    25, 6, 16, -56, -127, -2, -43, 9,
    13, -2, -40, -5, -40, -121, 23, -33,
    60, -95, 28, -4, 7, 9, -18, 16,
    -5, 22, -12, 2, 10, 4, -50, -1,
    -23, -9, -102, 0, 12, -127, 21, 9,
    -36, -18, -30, 20, -26, 30, -57, -14,
    -23, -10, 27, 10, 19, -2, -3, 50,
    26, 2, -9, -34, 13, -18, 4, -5,
    23, -14, -47, 40, -15, -33, 11, 43,
    -13, -5, -4, 51, 8, -29, -20, -10,
    -39, -12, -49, 8, 8, -11, -36, -27,
    15, -8, -14, -7, -16, -2, 18, 15,
    1, -2, -21, 19, -1, 10, -21, -5,
    -2, 17, -2, -32, 4, -75, -17, 2,
    18, 18, 6, 18, 23, 28, -3, 1,
    13, 26, -33, 37, -7, 14, 14, -6,
    29, 20, 7, 8, 20, -51, -11, -36,
    5, -19, 2, 30, 15, 68, 24, 10,
    -14, -94, 37, 2, 13, 5, 23, 24,
    41, 33, 14, -11, -20, 7, 33, 1,
    1, 18, 7, 12, -20, -24, -80, 20,
    18, -42, 0, 24, 13, 17, 14, -6,
    -89, 9, 25, -4, -11, 3, 9, 3,
    1, 4, -4, 11, -17, 15, 7, -4,
    -2, 15, 21, 17, 25, 16, -12, 28,
    6, -39, -24, 16, 3, 27, 15, -6,
    13, 7, -27, -7, -5, 17, -13, -36,
    -9, 12, -21, -12, -9, 11, 9, 6,
    -13, -9, 11, -1, -2, -15, 57, 9,
    25, 11, -46, 23, -44, -27, -21, -32,
    -6, -9, 7, 40, 1, 25, 1, 16,
    46, 1, 23, 20, -1, 2, 47, -62,
    17, -8, -10, -33, 7, -17, 7, 0,
    -12, -13, 25, -9, 22, 27, 5, -8,
    41, -24, 25, -11, -5, 5, 9, 1,
    31, 16, 3, -20, 3, 1, -5, 9,
    -13, -25, 20, 11, -8, 32, 15, 9,
    -9, -4, 26, 14, 15, 0, -13, -22,
    -40, -3, -1, -3, -19, -2, 3, 22,
    -3, 19, 25, 11, 10, -19, -7, -14,
    -27, -27, -6, -2, -72, -13, 33, 14,
    -28, -3, 8, 8, 42, -1, 21, -23,
    13, -8, 7, 5, -35, 7, -37, -79,
    -18, -24, 6, -31, 19, -9, -8, 26,
    23, -10, 3, 37, 20, -27, 22, -15,
    -4, -5, 25, 42, -26, 26, 15, -30,
    28, 11, 22, 43, -16, -44, 19, -30,
    24, -19, 62, 56, 14, 12, -9, -78,
    -79, -5, -4, 20, 26, 24, 20, -4,
    -22, 28, -12, 7, -14, -16, -16, -20,
    -22, -80, 1, 30, -24, -7, 57, 9,
    -12, 42, 8, 10, -14, 7, 20, 6,
    15, 43, 18, -9, 36, -23, 22, 20,
    -1, 8, -18, -2, 32, 23, 55, 7,
    -12, 6, 17, 10, 4, -7, 10, -43,
    -6, 18, -14, 18, -31, 61, 18, 17,
    -1, -9, 13, -1, -127, -25, 8, 4,
    -7, 16, -10, -29, 12, 11, 5, -10,
    9, -9, -28, -5, -40, -3, -47, -8,
    -1, 20, -35, 10, 15, -2, 26, 5,
    17, 7, -28, -65, 4, -7, -21, 3,
    -7, 4, 35, -3, 24, -4, 0, -51,
    -11, 2, -12, 47, 7, 15, -11, 41,
    34, 19, -46, 64, 16, -52, -3, -41,
    40, -18, -8, -27, 38, 26, -25, -23,
    -22, 13, 28, -36, -7, -37, 0, 34,
    -9, -7, -29, -5, 9, 5, 62, 0,
    44, 35, 8, -16, 8, -12, -3, 18,
    -4, 27, 92, -6, 35, -9, 5, -7,
    -16, -14, -2, 32, 18, -2, -9, -4,
    -10, 18, 8, -35, -6, -4, 2, 23,
    -34, 6, 14, -6, 6, -6, -29, -35,
    -7, -13, 1, -18, -98, -2, 30, 20,
    1, 20, -9, -3, 19, 11, 3, 11,
    44, -17, 40, 2, 27, 1, -42, -54,
    12, 7, -34, -17, 26, 8, 13, 26,
    11, -11, 7, -68, -33, -44, 7, 2,
    -10, 0, -15, -47, 38, -1, -14, -35,
    16, 9, -3, 33, 1, -28, -31, -20,
    29, 17, 13, 25, -6, -4, -17, 12,
    22, -27, 0, -48, 10, 4, 15, -22,
    13, 16, 4, -29, -5, 13, 6, -39,
    -65, -30, -5, -10, -36, -11, 45, 24,
    -27, -6, 9, -6, 16, -3, 23, -13,
    -19, 18, 113, -7, -52, -26, -24, 1,
    6, -8, -3, 42, -6, -7, 35, 0,
    -42, 8, -3, -19, 6, 8, 12, 46,
    13, 3, -29, -53, -7, 6, -3, -6,
    -14, 12, -3, 14, -55, 34, 26, 24,
};

// Shape: (128,), dtype: float32
static const float net_0_bias[128] = {
    -0.49584758f, -0.15704325f, -0.03402457f, -0.16440710f, -0.39235798f, 0.03799586f, 0.12295227f, -0.06281745f,
    -0.26581395f, -0.27902371f, -0.11293619f, -0.28568298f, -0.27866748f, -0.32675159f, -0.07327249f, 0.04378905f,
    -0.42567292f, -0.03920529f, -0.39864814f, -0.23826991f, -0.44048095f, 0.03115562f, -0.24200502f, -0.13248089f,
    -0.22373350f, -0.26458448f, -0.20798381f, -0.05580980f, -0.39141926f, -0.20049319f, 0.00274944f, -0.24239904f,
    -0.29072538f, -0.33443022f, 0.06731803f, -0.13253577f, -0.00163937f, -0.00285356f, -0.41430002f, -0.35185602f,
    -0.30067593f, -0.35265759f, -0.01755178f, 0.05557452f, -0.36609253f, -0.21141060f, -0.34843358f, -0.41778988f,
    -0.46792257f, -0.21392696f, -0.47508794f, -0.03068846f, 0.00404643f, -0.03453232f, -0.19404277f, -0.37621123f,
    -0.16405705f, -0.44186684f, -0.49811825f, -0.57445735f, -0.22994824f, -0.10547011f, -0.00316464f, -0.25424248f,
    -0.09897389f, -0.25040936f, -0.33752486f, -0.47316775f, -0.07555714f, -0.32096019f, -0.38754040f, -0.20730148f,
    0.15299314f, -0.24429171f, -0.44888094f, 0.15159750f, -0.27588719f, -0.37611598f, 0.13355157f, -0.09676224f,
    -0.27325979f, 0.04092816f, 0.06234294f, -0.70596343f, -0.41913873f, -0.52123564f, -0.55161774f, -0.23727378f,
    -0.30432695f, -0.48771000f, 0.06706663f, -0.08691943f, -0.16621190f, -0.11252541f, 0.00046828f, -0.35095152f,
    -0.49598542f, -0.09290336f, -0.48353252f, -0.40704119f, -0.39674956f, -0.12883873f, -0.31430542f, -0.11995570f,
    0.11682178f, -0.12944286f, -0.41317469f, 0.17117438f, -0.30356014f, -0.02604133f, -0.09181163f, -0.26293889f,
    -0.58250982f, 0.07616559f, -0.32483497f, -0.60961145f, -0.15448074f, -0.03248532f, -0.30392948f, 0.13536225f,
    0.00336579f, -0.56440973f, -0.31191468f, -0.28541723f, -0.11176345f, -0.15441106f, -0.52105898f, -0.37593395f,
};

// Shape: (128, 128), dtype: int8
static const int8_t net_3_weight[16384] = {
    57, -21, -20, -71, -32, 39, 97, 37,
    1, -51, -42, -93, -74, -47, -14, -11,
    -65, -43, -35, -76, 40, 0, -66, 13,
    -127, 16, -99, -35, 15, -63, -61, 37,
    55, -26, -58, -20, -23, -28, 51, 13,
    -5, -48, -7, -92, 88, 29, 0, 45,
    -56, -90, 59, 40, -21, -53, -19, -82,
    -43, -56, -43, 30, 35, -9, -46, -33,
    -2, -66, -34, -28, -99, -74, 101, -19,
    -86, 6, -48, 33, -3, 24, -92, -5,
    -67, -37, 11, -42, -12, -68, -39, 42,
    -41, -36, 98, -11, 59, -4, -32, -60,
    -47, -34, 66, 7, 64, 11, 35, 39,
    43, 92, -13, 46, 44, -65, -95, -1,
    -26, 61, 21, -115, -8, -19, -54, -1,
    -94, 24, 1, 43, -38, 32, 64, 61,
    -59, 5, -22, -14, 28, 3, 38, -22,
    21, -46, 53, 15, -8, 45, 46, -17,
    28, -27, 4, 45, -32, -17, 34, 9,
    40, -8, -10, 79, 39, -22, -10, -47,
    -94, 36, -8, 14, -21, 41, -80, 20,
    -34, -21, -11, -32, -54, 19, -49, 56,
    -10, -7, -24, 15, 10, -25, 27, -13,
    18, 84, -6, -25, -30, -20, -17, 14,
    31, -34, -24, -18, 17, -8, 27, -56,
    16, 38, -4, -33, -50, -65, 16, 61,
    -4, -5, -30, -36, 9, 5, -42, -32,
    -58, 43, -66, -19, 24, 31, -14, 2,
    -58, 5, 4, 10, -54, 1, -40, -8,
    -23, -107, 12, -19, -49, -72, -5, 40,
    24, -4, -26, 5, 16, 14, -4, -11,
    -15, 34, -24, -21, 4, 14, 8, -49,
    -20, 8, -37, -21, -21, -3, 27, -4,
    -30, 3, -7, 27, -14, 35, 5, 74,
    24, -5, 24, 18, 0, -1, -18, -11,
    -63, 3, -96, 41, 31, 21, 6, 34,
    38, -47, 0, 32, -79, -30, -28, 2,
    -77, -8, -7, 6, -7, -1, 13, 19,
    -54, -29, 23, -1, -9, -8, 20, -51,
    11, 22, 12, 3, -27, 46, 5, -38,
    23, -37, 1, 12, 24, -50, 40, -68,
    15, 20, 6, -4, -15, 9, 24, -30,
    -93, -10, -6, 2, 12, -12, -28, 13,
    2, -35, 20, -31, 33, -32, -36, -7,
    32, -60, -20, -2, -46, -10, -33, 18,
    -18, 39, 9, 7, -41, -8, 9, -25,
    12, -10, -9, -16, 18, 16, 11, -12,
    -23, 24, 35, 9, -25, -1, 18, 12,
    59, -76, 12, 36, -4, -46, 48, 11,
    -104, -9, -7, -11, -21, -24, -49, 12,
    -11, 3, -106, -25, 33, 41, 17, -15,
    -111, 34, -57, -20, 14, -13, -14, 116,
    36, -7, 11, -8, -16, -9, -11, 3,
    -93, 46, -88, -87, 26, 19, -20, 4,
    -20, -15, 25, -7, -50, 19, 9, -26,
    -32, -57, -3, -66, 30, 29, 35, 52,
    -50, 7, 13, 9, -43, -77, -23, -71,
    -95, -47, -17, -18, -57, 81, -12, -11,
    -36, 37, 90, 8, 51, -13, 26, -9,
    -9, -44, -19, -6, 7, -33, 0, -32,
    2, -26, 35, 13, -19, 94, -10, 39,
    -47, 3, -30, -4, -63, 38, -24, -19,
    -16, 35, 19, -4, -127, 8, 9, -35,
    -29, 5, -13, -6, -35, -53, 82, 20,
    -52, 10, 78, 71, 56, -24, 47, -22,
    -42, 5, 41, -42, 61, 5, 14, 6,
    -16, -29, 19, -42, -34, -12, 20, -37,
    -42, -22, 27, -8, -72, 29, -36, -19,
    -3, 58, 52, -16, 28, -32, -101, 73,
    -32, 5, 9, -9, -121, -58, 35, -4,
    26, 63, -19, -73, -20, 6, -5, -11,
    -74, -18, -7, -85, -45, -109, 115, 38,
    -19, -21, 7, -10, -10, -37, -77, 30,
    -49, 12, -28, -49, -14, 13, 62, 0,
    23, -56, -17, -4, -43, 50, -29, -55,
    -10, -44, -107, -42, -7, 25, 0, 21,
    30, 13, -127, -49, 53, -17, 26, -73,
    -76, -5, -50, 1, 21, 4, -64, 100,
    -24, -8, 53, 29, -28, -32, -9, 32,
    -82, 12, -27, -46, 19, -21, -35, 0,
    17, 11, -9, -13, 17, -1, -31, 11,
    25, -20, 22, 13, 4, 41, 8, -28,
    10, 2, 12, 36, 10, -20, 14, 39,
    38, 0, -25, 35, 8, -127, 15, -5,
    -6, -32, 26, 19, -48, 24, 3, 27,
    21, 1, 11, -34, -5, 21, -67, 3,
    -70, 22, 25, 22, 8, 13, 9, 63,
    28, -1, -13, 23, 0, 7, -41, -90,
    -42, 15, 32, 0, 17, -4, -2, -33,
    12, -75, -17, 12, -16, -74, 15, 3,
    8, 7, -1, 11, 2, 5, -62, -1,
    18, 5, 38, 23, 19, -6, -8, 9,
    -127, -13, 28, 11, 17, 16, 29, 5,
    7, -20, 2, 13, 3, -25, 10, -2,
    72, 1, 19, 9, -41, 24, 17, 1,
    7, 14, 11, 126, 7, -8, 13, 13,
    3, 4, 81, -11, 27, -18, 46, 4,
    3, 1, 20, 30, -80, -15, 14, -12,
    -5, 22, 60, 5, -28, -52, 23, 11,
    27, 15, 38, -3, -4, 18, -1, -29,
    0, 11, 21, 27, 24, 25, 31, -3,
    30, -4, 15, 21, -86, -37, 11, -15,
    -48, 8, -109, -3, 38, 4, 62, 34,
    -42, -8, 12, 29, 12, -29, 33, 19,
    1, 19, 97, 18, -33, -28, 65, 30,
    -21, -5, 61, 17, 13, -9, 3, -19,
    26, 37, -28, 7, 10, 12, 34, 40,
    -27, -25, -22, 63, -1, -6, 23, 86,
    62, -3, 16, -21, 21, 29, 1, -44,
    9, -56, 0, 6, 19, 3, -2, 38,
    2, 28, 16, 4, -10, 16, 12, -34,
    43, -3, -18, -71, 24, 7, -8, -106,
    -26, -39, -81, -31, 26, -51, -28, 7,
    2, 4, 0, 43, 21, 37, -8, -24,
    19, 16, 1, 51, 27, 0, -22, -56,
    -10, -2, 20, 57, 16, 1, 0, 49,
    -24, 0, 16, -12, 51, 16, -48, 9,
    -21, -1, -28, 25, -6, -10, -70, -13,
    -23, -32, -3, -65, 2, 18, 46, 60,
    12, 6, -7, -44, 2, 2, -39, -14,
    54, 37, 33, 11, -3, 21, -36, -16,
    41, -52, 40, 15, 15, -55, -19, 14,
    -29, -16, 80, 0, 16, -42, 20, -7,
    -8, 6, -91, 18, -13, -28, 23, 3,
    -58, -23, -73, -41, -64, 26, -17, 0,
    -30, -45, 25, -23, -18, 0, 11, -12,
    32, -7, 4, 1, -1, 8, 25, -23,
    13, -10, -35, -51, -4, -44, -5, -39,
    26, 17, 7, -17, 3, 4, 20, 72,
    44, -21, -49, -52, -30, -88, 32, -17,
    -22, -27, -11, -79, -49, -90, -7, 10,
    -48, 37, -5, -53, -24, -49, -11, -29,
    36, -5, -34, -36, -25, 10, 15, -18,
    52, -26, 22, -97, 14, -8, -20, 5,
    -18, -10, -18, 3, 13, -15, -9, 18,
    -62, -81, 47, -6, 11, -14, -48, -20,
    8, -15, 31, 7, -118, -80, 29, 50,
    -55, -21, -17, 31, 25, -78, -77, 2,
    2, -18, -8, 35, -22, -4, 71, -8,
    31, -54, 32, 45, 11, -5, 19, 31,
    -46, -68, 34, 19, 17, 39, 11, -22,
    22, 60, -80, -21, 59, 42, -24, -12,
    12, 51, 16, -38, -73, -18, -18, -14,
    -16, -25, 36, -44, 8, -2, 8, -33,
    -11, -9, 16, 3, -34, -5, -5, 50,
    36, -35, -52, 7, -29, -5, -29, -17,
    4, 26, -9, 26, 58, 41, -40, -13,
    -30, 45, 30, -10, 45, -16, 38, 30,
    53, -22, -48, -65, -79, 22, 28, -2,
    -14, 23, -27, -21, 73, 22, -16, 12,
    39, -53, 7, -8, 9, 4, -14, 8,
    -40, -50, 28, 67, 13, -15, -37, -29,
    12, -11, 30, 45, -45, 24, 48, -36,
    8, 28, -21, 45, 9, -2, -17, -8,
    -64, 32, 61, -11, 57, -41, 58, 27,
    -11, 9, -21, 60, 60, 10, 12, -1,
    4, -36, 57, 13, 28, 43, -9, 6,
    67, 39, 49, 8, 26, 23, -59, -40,
    6, -13, 3, -36, 15, 65, -20, 3,
    -42, 1, -2, -6, -32, -6, 2, 29,
    34, -52, -10, -57, -107, 2, -3, 63,
    41, 59, -53, 17, -5, 6, -40, 54,
    -12, 70, -39, -5, 19, 55, -57, 1,
    5, 47, -29, -20, 42, 12, 15, -10,
    69, -30, -54, -81, 25, 25, 43, -4,
    18, 44, -27, 27, 34, 15, 3, 23,
    4, 1, 5, 15, 10, -1, -20, 5,
    11, -1, 31, -10, 54, 2, -109, -7,
    -43, 7, 24, -1, 8, 16, 37, 1,
    25, -1, -20, 34, 47, 13, -34, -37,
    0, 15, 18, 59, 25, -44, 11, 19,
    97, -16, 31, 22, 61, 13, 3, -5,
    31, 19, -58, -43, 47, 18, -33, -3,
    -4, 28, 16, 15, 42, 2, 37, -87,
    -19, 7, -16, -42, 5, 29, 0, -24,
    3, -34, 104, -11, -2, 37, -7, 34,
    5, 41, -25, -60, -11, 0, -5, 62,
    -42, -8, 1, -42, -70, -19, -16, 29,
    3, -3, -78, -25, -61, -62, -31, -12,
    -96, 40, 10, 20, -51, -10, 14, -82,
    68, -12, -25, -10, -30, -14, 42, -20,
    -3, -14, 36, -51, 62, -23, 6, -30,
    11, -39, 43, -16, -2, -35, -13, -12,
    -43, -115, 50, -4, -22, -2, -76, -40,
    -33, -24, 1, 15, -16, -53, 39, -7,
    -68, 42, -14, 25, -9, -51, -28, 19,
    -77, -6, -35, 58, -19, -41, -21, 34,
    40, -116, -12, -5, 68, -1, 10, -21,
    -54, -71, 22, -68, -1, -49, -66, 12,
    -42, 76, -32, -5, 41, 43, -48, -15,
    -10, -35, 6, -27, -19, 4, -15, 7,
    -78, 3, 78, 30, 14, -2, -68, 57,
    -13, 2, 3, -14, 20, 36, 9, 10,
    64, 34, 20, -26, -19, 22, 23, -10,
    0, 23, 15, -12, -71, -50, 4, -3,
    72, 1, -12, 1, -32, 24, -33, -91,
    -15, 20, 10, 4, -70, 12, 25, -7,
    2, -6, 22, 9, -50, -50, 5, -21,
    -23, 35, -98, 2, 66, -48, -9, 33,
    29, 30, -10, 26, -10, -86, -19, -43,
    3, -10, -15, -69, -13, -11, 11, 80,
    -3, 0, -8, -36, 52, -3, -13, -11,
    60, -72, -69, -4, -33, -42, -31, -26,
    6, 122, -37, 38, 18, 48, -59, 23,
    73, 36, -69, -9, 52, -17, -8, -91,
    44, -34, -43, 6, 14, -13, 58, 24,
    -35, 15, -21, 3, 26, -21, -32, -13,
    22, -5, -4, -41, 10, 46, -75, -20,
    67, -50, 55, 91, 22, -7, 92, -7,
    -73, 16, 5, -92, 60, -24, 9, 55,
    -42, -34, -5, -10, 18, 60, 92, 9,
    10, 41, -1, -57, 35, 4, 21, 6,
    -23, 66, -24, -15, 56, 3, -100, 13,
    5, 34, -42, 12, -21, 5, 37, 127,
    22, 26, 0, -27, -15, -63, -12, 0,
    -33, -2, -41, -126, -19, -5, 70, 27,
    31, 14, -3, -7, 11, 25, 36, 38,
    -52, 49, -102, -57, -34, 15, 36, 55,
    69, -43, 11, -11, -80, 69, -1, 0,
    -42, 17, 8, -54, 55, 60, -2, -16,
    -17, -1, -58, -7, 24, 8, -7, 1,
    -48, -18, 37, 73, 13, 6, -61, 38,
    -3, 55, 65, 11, 51, 69, 22, -24,
    -66, -1, 12, -51, -6, 49, 19, 22,
    -62, -8, 25, -76, 6, 17, -33, -11,
    -32, 3, -13, 67, 9, 58, -50, -26,
    1, 7, 16, -2, 64, -6, -21, -23,
    27, -63, 16, -22, 21, -10, -38, 39,
    -14, 8, 39, 29, -6, -8, -51, -7,
    -37, 3, 13, 64, -95, -26, -4, -2,
    -52, -30, -18, 45, -31, 10, -17, 11,
    29, 39, -66, 49, 17, 35, -47, 64,
    -5, -26, -8, -9, -10, -22, -46, -14,
    19, -58, 37, -72, 26, 38, -14, -52,
    -19, 3, 58, -39, 39, -74, -6, -62,
    6, 36, 9, -18, -38, -28, -9, -21,
    28, 56, -49, 71, 7, 8, 35, 8,
    41, -57, 27, -1, -88, -4, 27, -37,
    -3, 2, -8, -23, -64, -56, 7, -24,
    70, 1, -62, -18, 1, -14, -40, -36,
    26, -27, 18, -8, 1, -22, -9, -16,
    -6, -27, 19, -12, 47, 37, 25, -16,
    30, -14, -1, 42, 66, 35, 34, -6,
    14, 15, -44, 48, 47, -96, -16, 81,
    3, -7, -33, 27, 24, 11, -48, -54,
    -19, -5, -72, -2, -8, 39, -50, 12,
    29, -24, 33, 17, 44, 5, 26, -21,
    41, -2, -22, -23, -12, 36, 80, -76,
    13, 14, 15, 10, 9, 0, 25, -74,
    32, 44, 5, -8, -59, -76, 22, 8,
    -17, -17, 32, -37, 11, 36, -50, -34,
    -44, 18, -66, -11, 20, -39, -16, 25,
    -80, -58, -33, 2, -92, 12, -35, 38,
    -11, -8, 41, -24, -34, 43, -97, 5,
    35, -11, -29, -1, -2, 93, 16, -20,
    -36, -3, 5, 29, -12, -38, 16, 43,
    14, 31, -56, -74, -33, 52, -91, -12,
    -111, 22, -66, 10, 62, 20, -53, 55,
    4, -44, 17, -30, -56, -4, -100, 13,
    8, -1, -53, -28, 15, -13, 29, -73,
    23, -75, 8, 32, -5, -9, 38, 29,
    -43, -27, 25, 9, 36, -29, -6, -35,
    -16, 20, 18, 127, -33, -17, -103, -32,
    127, -15, -49, 63, 20, 25, -79, 28,
    46, -90, -29, -36, 56, -25, -60, -121,
    67, -56, -8, -70, 35, 0, 19, -86,
    -22, -53, -39, 41, -46, -62, -113, -44,
    50, -15, 84, -122, 0, -19, -72, -50,
    -9, 15, 48, 75, 33, -70, 39, 6,
    -11, 29, 15, 49, -69, -40, 59, -58,
    29, -30, -12, -5, -36, -47, 3, 6,
    -72, 4, 23, 44, -20, 66, -46, 21,
    49, 56, -65, -30, -3, 36, -20, -5,
    -33, 1, -42, 2, 46, -56, -15, -24,
    -6, 13, -40, -32, 93, -49, -1, 40,
    15, -15, 86, -23, -52, 23, 17, 24,
    -58, 20, 18, -10, 91, 27, 49, 5,
    33, 49, 36, 4, -13, -71, -29, -35,
    -26, 16, -52, 29, -20, -7, -36, 47,
    36, 7, -12, -2, 48, -5, 34, 53,
    4, 11, -16, -7, -4, 15, -33, 40,
    11, -116, 47, 33, 10, 31, -23, -20,
    21, 26, 93, 53, -3, 44, -11, -28,
    42, -24, 33, -20, -24, 5, 23, -42,
    -25, 36, 45, 0, -5, -2, 49, -13,
    -41, -51, -65, -24, 20, -12, 56, 5,
    64, 3, 6, 10, -57, -27, 90, 11,
    31, 14, 22, 30, 51, -17, 49, -65,
    31, 15, 6, 28, -1, 41, 10, -30,
    12, -30, -12, -41, 0, -55, 59, -107,
    -12, -65, -23, -6, -19, -2, -5, 61,
    50, -5, -37, -24, -43, -50, -25, 19,
    -35, -29, -21, 9, 90, 77, 7, 55,
    29, -6, 19, -75, -36, -23, -35, 31,
    -15, 49, -82, 17, 8, -48, -39, -36,
    -25, 7, -91, -29, 43, -34, 68, 69,
    43, -41, -38, -71, 2, -30, 23, -26,
    -10, -28, -15, -21, 31, -2, 75, -13,
    74, -33, 2, -61, -110, -2, -105, 18,
    -66, 127, 91, -83, -25, 50, -28, -37,
    46, 26, -62, 6, 6, 55, 14, -39,
    -12, -28, -45, 16, 13, -30, -46, 27,
    -12, 1, 10, -1, 13, -30, -1, 32,
    -127, -19, -33, -64, -7, 61, -4, -127,
    -54, 21, 12, -13, 44, -8, 23, 5,
    14, -12, 11, 17, -40, 41, 49, 13,
    6, -42, 34, -36, -71, -5, 1, -26,
    -64, -7, 10, 4, -3, 27, -20, -60,
    23, -13, 40, 17, -38, -68, 15, 54,
    28, -29, 32, 13, -14, -13, 30, -14,
    -36, -29, -20, -39, 51, 0, 10, -53,
    -21, -38, 30, 37, -70, -32, -95, -99,
    12, -38, 62, 10, 31, -35, 37, 32,
    -34, 2, -10, 22, 13, -41, -41, 3,
    -61, -31, -80, 13, -29, -26, 17, 48,
    6, -53, 13, 3, 19, 9, -12, 58,
    71, -59, -29, 26, -15, -28, 46, -33,
    17, 15, 29, -2, 6, 58, 14, 12,
    -79, -7, -1, -1, 21, -10, -72, 25,
    -14, 17, 20, -31, -47, -11, -60, 7,
    61, -78, -43, -23, -66, -92, 30, 93,
    -20, 51, -78, 15, 64, -52, -119, 34,
    7, 50, -89, -43, 62, 29, -24, -44,
    -46, 83, 98, -65, -52, 22, 95, 68,
    35, -27, -11, -127, 62, 4, -73, -39,
    13, 98, -95, 57, 9, -40, 16, -3,
    0, -47, -25, -41, -127, -13, -96, 1,
    -26, -34, -2, -53, 56, -8, -24, 58,
    -55, -14, -37, 6, -12, 52, -95, -7,
    -2, -6, 9, -37, 30, 20, -20, -19,
    -38, 24, 71, 82, 40, 48, 68, -71,
    102, -87, 80, 87, 40, -22, 3, -87,
    -12, 40, -73, -43, -33, 68, 11, -20,
    -36, 16, -2, -9, -19, 5, 10, -126,
    0, 28, 12, 4, -14, 12, 18, -26,
    15, -23, 103, 0, -34, -54, 33, -5,
    19, -69, 14, -12, 31, -35, 71, 46,
    35, -29, 22, -10, -17, 0, 30, 32,
    19, -23, -19, 2, -65, -33, 53, -1,
    -30, 67, 14, 42, 2, -49, 12, -38,
    49, 4, 1, -36, -28, -12, 6, -35,
    12, 15, -22, -45, 80, 6, 7, 68,
    35, -22, 17, -18, 59, 28, 60, 9,
    -56, -44, 43, 10, -86, -6, -50, -68,
    -12, 13, 57, 27, -47, -2, 33, -17,
    -22, 58, -33, 5, 3, 25, -13, 19,
    19, -32, -46, -5, -6, 24, 21, 60,
    -23, -13, -5, 40, 90, 28, 14, 37,
    -54, -127, 0, -7, 17, 18, -49, 10,
    22, 90, -6, 11, 65, 71, -71, 9,
    -60, 14, 42, 4, 2, 38, -23, -4,
    -26, 15, -1, -7, -7, 19, 18, 79,
    -9, 47, -13, -72, 24, -22, 1, -19,
    -16, 0, -7, -35, -8, 83, 31, 26,
    14, -7, 19, 44, -13, 13, -20, -18,
    12, -29, -39, 59, -15, -8, -20, -2,
    -33, 25, 33, 12, 20, -20, -48, 86,
    -3, 11, -14, 16, 0, 42, 21, 74,
    -2, 49, 20, -53, 7, -9, -20, -30,
    -7, 0, -23, -93, -87, 8, -35, -14,
    66, 4, -66, -57, 25, 5, -11, 37,
    -36, -24, -16, -65, -30, 0, 101, 26,
    17, -53, -24, 7, -79, -7, -39, -8,
    -30, 23, -48, -42, 3, 62, -34, -35,
    4, -3, -35, 30, 1, -18, 20, 4,
    -15, -11, 31, 31, -36, -51, -60, 16,
    0, 9, 3, 35, 21, 7, -10, 36,
    -27, 21, -10, -28, -37, 52, 14, 3,
    59, -11, -31, -13, -1, -19, -3, 75,
    35, 11, 10, -78, -37, -22, 28, 15,
    -39, -20, -36, 77, -20, -14, 7, 20,
    -23, 63, -22, 14, -33, -34, 8, 76,
    -1, -20, -41, -6, -45, 13, 22, 27,
    17, 16, -3, -12, 65, 42, -34, 106,
    -55, -51, 20, -10, 28, 31, -4, -42,
    17, -57, 5, -45, -18, 37, 13, -59,
    -22, 48, -5, -6, -65, -63, 48, 18,
    -95, -15, -85, 6, -8, -63, 13, 26,
    10, -20, -22, 23, -35, 11, -18, -9,
    2, -25, -22, 41, 119, 37, 26, -7,
    -5, -66, 19, -18, -9, -20, -12, 31,
    28, 30, -13, 8, 51, 6, -71, 3,
    31, 9, 46, 5, 1, 9, 31, 5,
    -120, 6, 48, 45, 1, 6, 101, 32,
    4, 33, -32, -62, 15, -11, -15, -19,
    3, -34, 7, -86, 1, 48, 35, 12,
    -2, -39, 4, 49, -72, -4, -7, 16,
    -16, 15, -3, 30, -10, -39, -13, -79,
    -13, 0, -7, -25, -88, -17, 12, 118,
    0, 6, 10, -49, 17, 21, 1, 44,
    -18, -24, 27, -40, 4, 13, 33, -12,
    4, -4, -13, -45, -43, 3, -38, -66,
    11, 15, -7, -11, 22, -38, -15, -4,
    -9, 34, -31, -17, -32, -31, 62, 84,
    54, -70, -76, 4, -72, 7, -60, 27,
    -13, -1, 15, -34, 9, 80, -14, -24,
    -49, -65, 14, 33, 10, -56, 50, -3,
    25, 25, 64, 19, 2, 30, -95, 27,
    20, -28, 29, 46, 59, -29, -19, 61,
    -78, 8, -2, -6, -3, 34, 28, 34,
    6, 7, -25, -55, 47, 3, -52, -6,
    47, -4, 32, 6, -48, 33, 6, -23,
    6, 0, -56, 52, 64, -15, 10, 31,
    81, -21, 16, 70, -38, 5, 17, 39,
    -71, 33, 23, 10, 20, 33, -24, -45,
    18, 37, 15, 34, 1, -26, -60, -11,
    -54, 7, -58, 12, 18, -6, 53, 66,
    16, 60, -19, -31, -4, -14, 8, 41,
    89, 34, 6, -18, 18, 20, -45, 18,
    34, -67, 44, 8, -17, -25, -44, 30,
    -4, -1, 76, -7, -20, -8, -18, 8,
    -3, 68, -38, 13, -25, -1, 38, 11,
    7, 43, -56, 0, -76, 16, -3, -9,
    -73, -83, -26, -39, 1, -15, 26, 41,
    69, -7, 33, 40, -59, -15, 81, -32,
    31, -31, 2, -43, 63, -40, 3, -64,
    29, 28, -6, -64, -122, 3, 15, 7,
    -36, 76, -95, 19, 45, -1, -109, 90,
    -20, 77, -3, -10, 20, 34, -92, 3,
    -12, 59, 30, -86, 9, 7, 31, 30,
    18, -12, -39, -35, 13, 9, 62, -36,
    34, 18, 9, 53, 36, 2, 16, -12,
    10, -38, 4, 16, -69, 9, -122, 5,
    22, 20, 26, 26, 8, 19, -44, 23,
    -30, -7, -39, 9, 11, 78, -12, 7,
    -34, 1, -31, 15, 55, 37, -42, 10,
    -41, 53, 13, 93, 37, 21, 13, 11,
    61, 14, 49, -23, 37, 2, -17, -52,
    -8, 40, 61, 18, 12, 14, 12, 21,
    24, 35, 27, 13, -47, -5, 19, -116,
    11, 17, -28, -37, 32, 34, 37, -10,
    27, -7, 107, 0, -26, 40, 19, -10,
    24, 13, 82, 63, 31, 13, 11, -10,
    -80, -90, 26, -16, -5, -77, 33, -102,
    14, -35, -36, -31, 12, -26, -17, 14,
    -12, -20, -13, 23, -68, 19, -10, 6,
    -16, -13, 0, 39, 3, 9, 22, 19,
    -36, 22, 27, -123, -4, -50, 33, 9,
    30, 35, -15, -7, -18, 10, -51, -77,
    -42, 44, 26, 27, 2, -1, 49, 53,
    34, -34, -3, 34, -16, -78, 50, -65,
    -43, -18, -6, -12, -127, 57, 37, -72,
    -23, 34, 4, -35, -1, 22, 19, 48,
    -18, 14, -28, -54, -8, -15, 5, 2,
    63, -37, 15, 9, -32, -25, 24, 6,
    -35, 26, -70, -9, -2, -5, -38, 8,
    17, 3, -29, 6, -115, -72, 11, 29,
    -82, 24, -6, 23, -26, -29, 25, -41,
    -56, -49, 110, -53, -17, -17, 107, -26,
    -68, 14, -45, -36, -45, 49, 37, 71,
    -64, 15, 6, 10, -11, 120, 12, -3,
    -62, -27, -59, -69, 37, 17, -31, 54,
    112, -16, -4, 16, 28, -79, -15, -70,
    -94, 2, -50, 55, 1, 56, 13, 78,
    45, -80, 76, 12, 22, -16, 24, -113,
    3, -1, 2, -7, -45, 13, 30, -7,
    -6, -56, 28, -22, 10, 45, 70, -42,
    -28, 79, -79, -54, 18, 71, 8, 17,
    -49, -40, 17, -10, -11, 7, 7, 65,
    -36, -46, -3, -65, 48, 0, -82, 24,
    -4, -44, -29, 42, 65, -45, 3, 28,
    6, 96, 118, 112, -61, 37, -83, -3,
    -55, 10, 37, -91, 73, -36, -54, -60,
    -52, -50, 4, -127, -112, 45, -20, 96,
    -13, -24, -21, -23, -20, -16, -23, -31,
    25, 5, -15, 127, 61, 56, -41, 21,
    127, 32, 80, 1, -29, -16, -51, 0,
    1, 10, -27, 75, 98, 3, 29, -9,
    -12, -36, -1, 23, 14, 26, -127, 3,
    -64, 20, -21, 1, -17, -12, 12, -7,
    20, 14, -13, 4, -24, -15, -13, -1,
    17, 41, 15, 34, -4, -21, -15, 21,
    9, -3, -66, -4, 30, 31, -50, -7,
    87, 45, 31, -48, -2, -11, 36, 8,
    -22, 13, -9, 19, 37, 9, -7, -46,
    -30, -10, -32, -12, 29, 18, -20, -34,
    -4, 3, -40, 10, 3, -18, -53, -7,
    1, 19, 30, 16, -88, -35, 34, -38,
    -2, -36, -106, 7, 59, 108, -9, -34,
    54, -7, 8, -19, -9, 34, -10, 5,
    8, 33, 26, -18, 33, 4, 17, 0,
    -48, 29, 26, -1, -42, -1, 28, 41,
    -5, 18, 12, 24, 16, -2, 16, -54,
    -36, -5, -14, 11, -15, -15, -53, 36,
    3, -9, 24, 5, -6, 12, -42, 27,
    -67, -6, 22, 16, 6, -6, -29, -13,
    -12, 2, 11, -64, 1, 13, 14, 11,
    22, -63, -40, -33, 19, 19, 16, -37,
    -35, 12, 38, -13, 15, 13, -18, -10,
    19, -6, 38, -18, -4, -23, 14, -28,
    -51, -34, 16, 54, -4, -23, -27, -37,
    30, -85, -59, -5, -23, -7, 25, 23,
    -5, -48, -52, -21, 0, 5, 10, 5,
    -82, 18, -10, -3, 5, 26, -2, 41,
    22, 11, 0, 10, -48, -3, 20, 29,
    -5, 22, 1, 14, 17, -24, 24, 8,
    41, -60, 11, -91, -31, 26, 4, 15,
    80, -21, -12, 22, -8, -46, -3, -38,
    -2, 21, 14, -41, 2, -18, -12, 21,
    7, 28, -47, -6, 23, -11, 9, -2,
    29, -9, -48, -8, 15, 98, 15, -65,
    18, 6, -37, -9, 39, -15, 4, 35,
    -41, -42, -93, 41, 16, -15, 21, 40,
    27, 46, -2, 68, 75, -24, 11, 48,
    21, 29, 30, -3, -55, -32, 108, -50,
    14, 10, -4, 2, 42, 14, -64, -27,
    25, 24, -28, -32, 42, -3, 12, 42,
    -3, 34, 18, 99, 39, -5, 6, 13,
    -42, 49, 69, -15, 23, 59, -43, -18,
    51, -23, -32, 34, 10, -61, 6, -25,
    -1, 82, -13, -51, -8, 18, 16, -41,
    36, 16, -5, -3, 5, 9, 67, -46,
    -74, -61, 4, -11, 18, -102, 1, 28,
    -19, 57, -8, 14, 12, 126, -19, 45,
    -3, 70, 37, 11, -30, 127, 5, -32,
    -59, 11, -38, 24, 50, 7, -28, -51,
    75, -18, 11, -36, -11, -15, -56, -5,
    -127, -55, -57, 96, 2, 38, 9, -4,
    12, -30, 33, -41, -72, 6, 14, -13,
    -15, -21, -4, 7, -24, -5, -123, -11,
    51, -42, 17, -1, 21, 48, -33, -44,
    -15, 38, -50, -61, 52, 15, 45, 14,
    -88, 24, -34, 6, 55, 6, 2, -38,
    38, -55, -88, -8, 26, -16, -75, 6,
    -35, -17, 33, 9, 23, -14, 21, 19,
    -1, 46, 105, 49, 1, 41, -68, -7,
    -58, -8, 26, -56, 41, 14, -119, -6,
    32, -8, 16, -27, -57, -25, -22, 50,
    -8, -28, -25, -7, -70, -42, -23, 4,
    -2, 64, -27, 65, 111, 55, -28, 109,
    100, 99, 11, -12, 19, 50, -79, -9,
    7, 74, 118, 16, 59, 20, 108, 7,
    37, 8, -14, -31, 15, -33, 4, -75,
    -2, 62, -86, 127, -2, 3, 5, -74,
    2, 4, 7, 4, 3, 1, -5, 14,
    36, 22, 9, -101, 7, 19, -119, 2,
    -10, 4, -17, -4, 45, 127, -30, 14,
    67, 14, 29, -40, 26, 2, 1, -16,
    -22, 1, 16, 101, 31, 44, 23, -2,
    105, -23, -49, -8, 38, 10, -11, -5,
    0, 3, 14, -44, 13, -19, -15, 7,
    -22, -16, 64, 13, -43, -18, 16, -60,
    -7, -17, -64, 2, 90, 125, 25, -9,
    30, -13, 67, 16, -9, 23, 1, 3,
    3, 3, -35, 16, -6, -7, -16, 11,
    61, -30, 16, 35, 16, -48, 33, -71,
    32, 1, 31, -20, -93, -52, -22, 8,
    16, 17, 14, 28, 0, -54, 22, -71,
    -13, 4, -24, 24, -127, 37, 24, 16,
    30, -3, 12, -42, 0, -70, 33, 1,
    -12, 10, -118, 27, 62, -7, 7, 50,
    -16, 60, -7, 36, 22, -39, -51, -127,
    -12, 7, -5, 8, -23, 0, 29, 46,
    36, -11, 25, -4, 19, -65, 33, -18,
    14, -1, -75, -3, 19, 2, 10, 1,
    17, 52, 2, 68, 14, 26, -11, 10,
    -54, 25, 64, -18, 31, 21, -29, -75,
    21, -18, 11, -10, 6, -24, 43, -10,
    -10, 20, -10, 7, 18, 5, 5, 12,
    22, 1, 25, -2, 23, 46, -71, -80,
    119, -61, 75, 4, -38, 17, 46, 45,
    32, -23, -48, 15, -42, -110, 39, -53,
    -3, 28, -99, -53, 69, 11, 8, -10,
    24, 21, -16, -33, -24, -80, -16, 99,
    73, 6, -65, 7, 52, 78, 12, 16,
    31, 3, -10, -92, 57, -30, -24, 33,
    -123, -40, -35, 1, 12, 8, -50, 6,
    -33, -17, 24, -20, 51, 30, -1, -2,
    -57, 45, 17, 9, -104, -106, 81, -5,
    -120, -82, -12, 22, -15, -9, 5, -64,
    27, 16, 91, -26, 11, 8, 5, 20,
    -4, 9, 15, 49, -15, 14, 9, 7,
    -26, 28, -9, 2, 25, 87, 14, 21,
    -23, 10, -74, 13, 37, 39, 1, -31,
    -4, 85, 23, -39, -46, 12, 24, 3,
    37, -11, 12, 34, -6, 13, 47, -29,
    -35, -44, 91, 59, 30, -85, 58, 47,
    -30, 4, 39, -6, -11, 15, 25, -5,
    39, 2, -54, -5, -7, 50, 29, -54,
    -36, -2, 54, 56, 48, -15, 15, 39,
    92, 16, -6, -7, -4, -62, -29, -45,
    -68, 35, -97, 38, -7, 31, 2, 21,
    21, -3, 50, 1, 16, 11, 75, -43,
    11, -18, 48, -15, -3, 24, -37, -19,
    -10, -19, 25, -8, 2, -15, 27, -22,
    4, 65, -3, -32, -28, 68, -6, 53,
    -70, -15, -6, 26, 34, -36, 40, 10,
    -5, -54, -106, 6, 5, -30, 1, 13,
    -24, -53, -48, 35, -69, 5, -18, -3,
    -63, 8, 13, 12, -28, 84, -44, 21,
    -29, 18, 20, -22, 20, 41, -12, -12,
    -23, 10, -14, -45, -4, -22, -10, 113,
    63, -17, 75, -27, -4, -38, 76, -4,
    127, 1, 15, 24, -101, -57, -6, -55,
    7, 1, 21, -50, -12, 3, 25, 24,
    -7, 39, -38, 3, 66, 15, 14, -17,
    -39, 16, 6, -9, 44, 75, 17, -61,
    -2, 23, -31, 10, -28, -14, 5, 7,
    -6, -31, -105, -25, 46, -10, 54, 3,
    -69, 104, 11, 10, 9, -16, 17, 61,
    3, 0, 12, 34, -27, 29, 71, 33,
    7, -3, -15, 36, 12, 51, -91, 5,
    -19, 32, -19, -58, 13, -33, 31, 26,
    -44, 9, -28, 112, 14, -10, 11, 38,
    -5, 76, 21, 1, -19, 71, -27, -7,
    -11, -92, 39, 0, 30, -19, 49, 15,
    -8, 119, 23, -33, 2, 27, 5, -24,
    87, -4, -33, 4, 23, -16, 15, -99,
    -29, -6, 47, 94, 17, 7, 106, -29,
    27, -2, -2, -99, 101, -28, 45, 11,
    -27, -40, 20, -14, -53, 54, 40, -15,
    30, -29, -44, -61, 14, -1, -38, -48,
    -86, 127, 1, -11, 20, 3, -43, -10,
    -2, -14, -63, 8, -79, 18, 28, 75,
    0, 121, -42, -45, -19, -54, -19, -5,
    -21, -21, -27, -97, -90, -51, 79, 33,
    46, -19, -65, -21, 34, 6, -62, 87,
    -37, 37, -99, -70, -27, 40, 88, 64,
    93, -36, -74, -19, -127, 87, -9, -106,
    1, 74, -43, 11, 21, 23, -49, -18,
    37, 44, -93, -6, 21, -36, -56, -28,
    16, 15, 48, 34, 5, -34, -31, 72,
    -30, 26, 45, 26, 71, 5, -14, -19,
    -27, -16, -32, -5, 2, 43, -29, -26,
    127, 20, -48, -57, -73, 4, 23, 5,
    -59, -2, -51, -52, 9, -112, -38, 4,
    -27, -18, -96, -73, 62, -21, -51, 41,
    -60, 2, -35, -59, -16, -17, -11, 104,
    0, -53, -36, 0, -19, 32, 10, 23,
    88, 8, -23, -22, 60, -6, -21, 41,
    -29, -41, 46, 0, -62, -6, -89, 1,
    -2, -57, -8, -48, 63, 39, 81, 3,
    -29, 0, -65, -30, -17, -32, 32, -86,
    -32, -72, -39, 38, 7, 0, -24, -52,
    -18, -6, 45, -16, -44, 14, -39, 3,
    -20, -1, 71, -48, 15, -8, 1, -82,
    17, 25, 7, -10, -3, 90, 23, 55,
    3, 66, -69, 12, 15, -10, -50, -61,
    54, 51, 4, -28, -66, -22, 29, 7,
    -98, -12, 89, 12, -5, -12, 61, -19,
    -11, -70, 40, 39, -39, -90, 49, 70,
    -73, 41, -40, -28, -16, -10, -30, 48,
    4, 44, 1, -15, 17, 38, 47, -27,
    -34, 13, 33, -6, 6, 24, 26, 34,
    25, -7, -22, -40, 6, -44, -79, -71,
    -22, 59, -92, 59, 17, 26, 3, -36,
    12, -28, -5, 6, -29, -18, -14, -27,
    3, -14, 23, -85, 29, 16, 23, 2,
    -31, -22, 26, 16, 6, 70, -26, -4,
    -21, 26, -24, -55, 44, 52, -24, -1,
    -35, 1, 21, 54, 51, 14, 19, -30,
    84, -60, -2, -32, 21, -32, -26, 14,
    -16, 4, -54, -20, -14, 31, -9, 8,
    -26, -13, 20, -6, -45, -21, -8, -40,
    2, 20, -1, -44, -23, 29, -33, -38,
    27, -18, 49, 0, -54, -35, 5, 43,
    -12, -46, 72, -29, -51, 3, 61, -6,
    -49, -29, -46, -12, -32, -11, -33, 22,
    -30, -6, -8, -127, -7, 60, -19, 7,
    -99, -54, -63, -51, 58, 30, -69, 13,
    84, -1, -26, 26, -5, -20, 58, -56,
    -69, -12, 10, 0, -39, -36, 31, -10,
    -28, -127, -21, 41, -14, -54, -49, -66,
    -9, -15, 16, 11, 43, 14, 0, 37,
    -23, -78, -4, -14, -30, -65, 83, -6,
    -22, 13, -28, -13, 67, 112, -107, -23,
    -81, -11, 37, -1, 16, -41, -4, 10,
    14, -35, 38, 37, -28, -36, -52, 3,
    74, 2, 96, 27, 45, 28, -5, 26,
    -12, 72, 43, 72, 10, -57, -14, -64,
    -108, 56, 5, -93, 28, -28, -54, -75,
    -9, -127, -1, -62, -71, 48, -57, 48,
    43, -9, 8, 37, -24, 19, 16, -11,
    65, -13, -1, 9, 22, -127, -34, -25,
    -9, -14, -33, -75, 56, -9, -41, 33,
    -36, 35, 12, -30, 4, 45, 19, -8,
    -53, 22, -25, 23, 23, 39, -4, -11,
    43, 40, 20, 10, -20, -90, 39, -20,
    41, -7, -83, 1, 36, -5, -29, -40,
    -26, 66, 76, -13, 63, -48, 48, 48,
    18, -23, -16, 22, -59, 17, 16, 33,
    32, -39, 52, 48, 29, 75, -65, -66,
    5, 31, 54, -3, 7, 8, 49, 10,
    -1, -4, 25, 49, -23, -10, 39, 34,
    49, 67, 23, -8, 44, 61, -27, -18,
    -3, -74, -57, -2, 47, -36, 25, -5,
    12, 74, -5, -21, -56, -39, 14, -21,
    29, -53, 25, -19, 32, 12, -31, -68,
    39, -52, 70, 49, -11, -54, 77, 16,
    -18, -7, -13, -46, 8, -9, -17, 26,
    -5, -14, -84, 1, 13, 39, 31, -32,
    -41, 38, 32, -26, 6, -15, -2, 127,
    18, 34, 15, -14, 4, -8, 27, -13,
    -11, 27, -40, -16, 45, -3, -15, -4,
    2, 31, -8, -8, -12, 10, -39, -36,
    -25, -37, 14, -13, 5, -5, 84, 29,
    -59, 2, -10, 34, -20, -46, 12, -34,
    -36, 14, -50, 26, -29, 83, 5, -8,
    -9, -11, -22, -9, 3, 67, 53, -2,
    16, -37, 11, 36, 16, -11, 19, -40,
    19, -3, 27, -9, -6, 34, -26, -15,
    -41, 25, -13, -2, 3, 39, -51, 22,
    8, 32, -1, -9, -24, 31, 19, 15,
    -39, 21, -18, 53, 12, -17, 54, 39,
    38, 1, -100, -120, -56, 48, -71, 19,
    -15, -43, -26, 15, 7, -27, -50, -46,
    0, 29, -58, 14, 44, -35, -78, 42,
    -1, -4, -17, -22, -82, -68, -7, 47,
    -8, -49, -39, 28, -56, 63, 37, 6,
    -43, -29, 46, -66, 66, 0, -74, -46,
    -29, -30, 26, 79, 1, 2, -42, 43,
    54, -53, 19, 25, 38, 24, -102, -46,
    -30, -4, -27, -1, -8, -22, 37, -25,
    -35, -67, 6, 38, 0, -76, -19, -29,
    -31, 30, 35, 19, -8, -63, -48, 14,
    42, -2, 22, 14, 14, -4, -13, -79,
    -81, -52, 59, 9, 27, 52, -14, 22,
    49, 6, -85, 4, 7, -86, 20, -45,
    73, -39, -17, -24, -103, -15, 5, -16,
    -53, 4, -14, 119, -1, -3, -19, -19,
    55, -11, -7, 42, -28, -119, -16, 59,
    28, 49, -27, -19, 38, -18, -36, 56,
    56, 68, 14, -8, 15, 36, -15, 2,
    -11, 127, 11, 40, 32, 18, 91, 37,
    -3, 1, -80, -14, -9, 17, 4, -39,
    33, 116, -90, 33, 29, -8, 19, -12,
    1, 13, 8, 5, -19, 11, -46, 4,
    -3, 14, 10, -81, 32, 21, 19, 9,
    -66, 19, -17, 0, 24, 66, 19, 31,
    11, 16, -1, -16, 18, 1, -5, -37,
    3, 21, 19, 26, -18, 74, 10, 16,
    10, -16, 0, 6, 61, 4, -2, -27,
    8, 21, 31, 12, 17, 24, -20, 11,
    -6, -14, 31, 3, -5, -12, 16, -6,
    -1, 1, -69, -4, 52, 127, 42, -11,
    24, 6, 117, 22, -7, 28, 30, 25,
    28, 6, -16, -36, -43, 22, 23, -38,
    -35, 24, -8, -35, 62, 9, -10, 49,
    9, 6, -38, -17, 40, 58, -27, 1,
    44, 19, -10, 12, 11, -11, 63, 15,
    -36, 57, -29, -13, 24, -5, -47, -15,
    14, 41, -29, 49, -32, 7, -15, 34,
    -9, 54, -29, 5, -3, -75, -55, -15,
    13, 29, -19, -115, -14, 6, 35, 34,
    9, -25, -85, -57, -8, 31, -22, 6,
    9, 4, -30, -39, 25, 22, 13, 28,
    83, -44, 28, -1, -76, 108, -48, -21,
    -7, 55, 60, -25, -11, 14, 4, -67,
    30, 57, -85, -14, 23, -12, -24, -21,
    -26, -12, 33, 44, -31, -48, 48, 10,
    44, 18, 11, -9, 40, 64, 25, -21,
    25, -30, -9, -26, 48, 66, 6, -44,
    68, -50, 35, -69, -14, -22, -20, 75,
    60, 6, -7, -75, -14, 39, 13, 8,
    -16, -37, 13, 36, -42, 55, 18, 14,
    13, 36, -70, -24, 59, -16, -36, -22,
    5, 36, 5, -45, 45, 33, -7, 78,
    25, -11, -25, 23, 16, 35, 8, 17,
    -45, -14, -13, 4, -4, -62, -5, 38,
    28, 21, -30, -37, 0, -14, -5, 4,
    -53, 24, -4, -44, -27, -12, -26, 56,
    -52, -84, -74, -20, 25, -18, 1, 34,
    60, -42, -6, -13, -26, 45, -26, -45,
    -1, -11, 21, 64, 51, 39, -24, -5,
    -46, 24, -8, 17, 64, 24, 29, -42,
    13, -43, 57, 47, 21, -67, -32, 1,
    12, 40, 76, 22, 61, -25, 23, -18,
    34, -48, 17, 26, 6, 29, 40, -14,
    4, -89, 6, 60, -30, -59, 73, 4,
    -4, -4, -16, -89, -7, 6, -33, -53,
    4, -10, -1, -29, 3, 89, 20, -6,
    -31, 26, 39, -12, 6, -7, -2, 35,
    -36, 108, -31, -27, 56, -27, -71, -10,
    -12, 76, -82, 32, -20, 34, 22, 55,
    43, -29, 5, -50, -12, -29, 15, -127,
    -25, 33, -25, -127, -3, -26, 90, 48,
    46, -9, -78, -36, -39, -3, -28, 40,
    -67, 16, -104, -64, 24, 93, 37, 29,
    9, -54, -2, -11, -33, 15, -49, -96,
    5, 33, -15, -7, 12, 9, 10, -48,
    -3, 59, -30, -46, -10, -38, -127, -7,
    4, -44, 5, 46, -11, -70, -55, 16,
    -37, 64, -3, -23, 8, 14, -8, -69,
    -72, -24, -24, -101, -73, -8, 68, 46,
    60, -71, -8, 16, -2, -5, 33, 54,
    56, -40, -29, -22, -73, 3, -30, -100,
    -20, -1, -36, -37, 23, -16, 36, 36,
    21, 7, 19, -25, -6, 14, 2, 72,
    -2, 40, 8, -11, 1, 88, -2, 11,
    -8, -17, -27, -16, 9, 33, 2, 38,
    -20, -19, -74, 11, -23, -44, 6, 66,
    -53, 40, -68, 27, 54, -42, -7, -2,
    43, -10, -5, -46, -60, -16, 27, 77,
    -46, -9, -32, -41, -10, -1, -19, 11,
    21, -64, 79, -17, -14, -7, -33, -15,
    -9, -5, 50, 70, 15, -4, 0, -13,
    -22, 53, -16, 23, 27, 118, 15, -4,
    41, -86, -17, -9, 61, -19, -69, -4,
    25, 87, 59, -46, -12, -42, 19, -24,
    9, -5, -19, 30, -17, -27, 19, -12,
    51, -62, 70, -7, -30, -30, 113, 25,
    59, -27, 2, -41, -42, -100, 23, -62,
    -20, -3, 26, -67, 11, 68, 16, 7,
    -68, -8, -20, -66, 32, -10, -3, -45,
    10, 74, -46, -52, 19, -18, -5, -59,
    -13, 36, -67, -17, -18, -21, 56, 37,
    11, -6, -97, 1, 3, -75, -45, -88,
    -67, 74, -53, -28, -40, -41, 19, 62,
    5, -12, -37, -36, -84, -12, 81, 85,
    -79, 10, -82, 11, -49, 88, -80, 22,
    79, -36, 11, -33, 5, 13, -8, -3,
    -43, 72, -3, 77, 9, -11, -5, -15,
    -22, 32, 42, -30, 20, 13, -21, -28,
    21, -32, 31, 27, 32, -33, -37, 35,
    -21, 117, 8, -34, 33, 15, -1, -56,
    -27, -66, -29, -78, -19, 4, 22, -32,
    33, -13, -28, -30, -4, -21, -23, 8,
    -36, -27, -18, 27, 12, 24, -50, -47,
    -19, 25, 33, 36, 60, 15, 29, -13,
    -33, -17, -13, 11, 26, 14, 30, 103,
    -11, -19, 30, 17, 41, 35, -20, 4,
    -56, 25, -49, 28, 14, 61, -33, 12,
    14, -32, 45, 1, -50, 32, -7, -20,
    53, -60, -36, 30, 41, 84, 54, 9,
    65, 14, -4, -23, -35, 7, -11, -17,
    13, 10, -4, -6, 0, 7, -6, 15,
    -63, 3, 79, 18, 0, -37, -50, -23,
    8, -41, -89, -5, -23, -24, 21, -39,
    -54, -11, 14, -19, -18, 19, -31, 57,
    -31, -12, 0, -11, -16, 5, -19, -4,
    36, -6, -24, 9, -5, 7, 84, -30,
    -13, 21, -22, 45, 5, -26, 68, 40,
    -11, 23, -54, -38, 15, 15, 8, 24,
    31, -7, 21, -1, 6, -59, 24, -33,
    11, 31, -72, 13, -10, -97, -19, 16,
    9, 20, 14, 18, -62, -37, 14, -19,
    24, -9, 3, -9, -1, -35, 44, 12,
    7, -4, 9, -62, 24, 27, -19, -16,
    -36, -1, -14, -1, 11, 32, 6, 3,
    -18, -36, 38, 2, -13, 13, -39, 6,
    -53, 11, 49, 21, -35, -27, 0, -19,
    -78, -24, 2, 8, -7, -79, 22, 13,
    10, 15, -55, 34, 23, -9, 4, 36,
    35, -8, 1, 32, 57, 11, -2, -35,
    -60, -44, 38, -49, 10, -40, 7, 0,
    4, 30, -61, -2, 0, 63, 18, -8,
    3, -30, 0, 24, -15, 18, 12, 5,
    -11, 39, 12, 3, 29, 2, -12, -29,
    15, 30, -77, -55, 2, 20, -10, 8,
    28, -34, 25, -8, 23, 47, 35, -46,
    8, -10, 9, 32, -57, -38, -31, 46,
    19, 5, -9, -12, 3, -35, 18, -43,
    -10, -60, 10, -4, -23, 30, 32, 50,
    17, -17, 3, -19, 55, 24, -71, 26,
    -58, 20, -20, 17, 87, 10, 20, 74,
    39, -14, -5, 47, 25, -46, -55, -93,
    49, -17, 28, 22, 8, -53, 13, -26,
    18, -8, 22, 38, 0, -127, 0, -15,
    24, -43, -47, -2, 3, -80, -14, 6,
    -23, 26, 52, 7, 29, 34, 6, -7,
    -60, -15, 20, 4, 2, 21, 28, -38,
    15, -15, 8, -16, 39, -19, 25, 10,
    38, -3, -3, 14, -33, -5, 12, 12,
    -20, 34, 8, 111, 31, -18, -10, -46,
    0, 46, -24, 95, 1, 41, -17, -4,
    -51, 36, -17, 13, 60, -41, 4, 43,
    2, 10, -28, -47, 38, -30, -17, -10,
    -35, -29, 118, -45, -97, 16, 12, 3,
    -1, -30, 17, -14, 1, -60, -7, 89,
    -7, -23, 55, 24, 37, -22, -30, 3,
    18, 18, 37, -18, -24, 34, 15, -10,
    -3, -76, -4, -8, -10, -9, -49, -48,
    25, -46, 6, -11, 31, -61, -57, -9,
    -8, -15, 72, -21, -13, -6, 13, -2,
    -20, -33, 6, 127, -29, -72, 16, -6,
    96, -70, 49, -65, -28, 19, 24, 21,
    26, -59, -41, -30, 7, -31, 55, -10,
    -26, 17, -60, 8, 19, 90, -49, 5,
    20, -5, 10, 17, -80, -50, 3, 73,
    -39, 1, 14, 49, 3, 23, -32, 44,
    0, 22, -67, -61, 1, 68, -111, -10,
    -64, 17, -34, 25, 33, -46, -49, -12,
    5, -4, -6, -74, 2, -82, -84, 48,
    -1, -11, -29, 0, -8, 12, 0, -37,
    -6, -55, -12, 52, -33, 17, 12, 12,
    -29, -26, 54, -4, 14, -64, -28, -77,
    -49, -8, 14, 85, -26, 1, -28, 54,
    103, 14, -9, 20, -1, 34, -76, 16,
    69, -48, -27, -27, 24, -4, -18, -103,
    58, -40, 7, -64, 30, -14, -44, -93,
    -56, -1, 5, 35, -18, -44, -50, 14,
    44, 1, 51, -72, 11, -3, -41, -19,
    -10, 40, 24, 21, 18, -23, -12, 40,
    3, 32, -67, -11, -40, -37, 48, -35,
    78, -24, -12, -60, -103, -47, -15, 3,
    -28, -14, 22, 62, -20, 8, -56, -37,
    -10, 22, -14, 92, 50, 2, 18, 17,
    -24, 15, 9, -42, -30, 22, -12, 42,
    -4, -18, 14, 44, -25, 12, 33, -36,
    -30, 0, 12, 6, -19, 2, -36, 35,
    21, -5, 30, -8, -58, -46, -52, 42,
    -93, -34, 24, 6, 12, -14, -19, -4,
    4, 44, 22, -44, 23, 11, 63, -32,
    30, -20, -40, -22, -8, 8, 38, -75,
    51, -23, 22, -34, 10, -22, -78, -27,
    -16, 0, -18, -57, -6, -29, 14, 30,
    -45, -78, -36, 41, -46, -15, -39, -84,
    10, -3, -17, -21, 2, 45, -21, 29,
    13, -96, -40, 8, 36, 8, 6, 11,
    -20, -13, 29, 25, -26, 21, -33, 36,
    15, 5, 39, 23, 22, -13, -17, 17,
    -55, 17, -19, 13, -19, 19, 41, 27,
    -5, 19, 54, -8, 3, 57, -26, -30,
    -21, 18, 9, -27, 100, -30, 36, 37,
    11, -24, 41, -20, -12, 32, -62, 2,
    9, -22, -19, -23, 57, 34, 10, -53,
    -74, -12, -26, 5, -9, -16, -82, 68,
    -18, -34, 51, 66, -41, -18, 45, 12,
    32, 101, -10, -12, 6, -50, -68, -19,
    -17, 67, 14, -49, -28, -33, -49, 49,
    47, -24, -46, -35, 75, 70, 54, 23,
    8, 30, -37, -127, 1, -1, -4, 31,
    31, -37, -36, -6, -98, 21, -16, -29,
    -16, 66, -61, -60, -5, 50, -87, -12,
    43, 21, -51, 2, 33, -37, -73, -9,
    13, -40, 62, 31, -36, -102, 47, 13,
    9, -4, -25, -19, 81, -8, -13, -36,
    -1, -41, 9, -55, -26, 100, -8, -28,
    3, 26, 17, -50, 34, 10, -37, 0,
    -8, 3, -14, -39, -99, 53, -3, -5,
    -71, 1, 66, 76, 0, -2, 16, -32,
    -29, -18, -71, -35, -23, -17, -101, -10,
    9, -26, 29, -5, -10, -47, 59, 95,
    -95, -81, 63, 4, -24, 44, 25, -41,
    -66, -16, -1, -4, -10, -30, -10, 59,
    -23, -51, -100, 67, 25, -33, -50, 3,
    84, -7, 89, -94, -5, -40, -77, -2,
    -20, -39, 27, -49, 28, -38, 29, 13,
    -26, -82, 20, -9, -23, -119, -31, -5,
    29, 7, 29, -7, -14, -3, -43, 36,
    -24, 0, 113, 30, 54, 12, 55, -60,
    37, 36, -17, 32, -4, -29, -127, 28,
    -42, -1, 12, 23, -14, -44, -67, 26,
    11, 10, -22, 9, -37, -11, -38, -8,
    -38, 1, 127, 59, 77, 3, -18, 13,
    59, -2, 8, -48, -58, 65, -1, -36,
    -30, 1, 50, -5, -41, -1, 54, 7,
    85, -59, -46, -38, -12, 44, -90, -120,
    -5, 50, 83, -20, -8, -11, -41, 126,
    9, -34, 43, 12, -74, -25, 59, -6,
    -24, 57, -118, -17, 11, -127, 19, 43,
    -8, 40, -78, 16, 10, -127, 6, 31,
    -25, 22, 6, -100, 15, -17, -46, 127,
    10, -19, -54, -74, 15, 56, 30, 27,
    127, -118, -45, -64, -61, -6, -11, -13,
    30, -4, 12, 7, -23, 71, -49, 80,
    75, 30, -72, 28, 100, 48, 83, -127,
    37, -57, -8, 39, 36, -56, 2, 7,
    -21, 18, 70, -11, 5, -53, -57, -22,
    62, -16, -37, -56, -5, 62, -110, -32,
    63, -10, 10, -41, 18, -4, -20, 55,
    23, -33, -21, 18, -1, 50, -10, -67,
    -2, -6, 16, 37, 15, -88, 67, 41,
    21, -1, -1, 9, 14, -23, -15, 74,
    18, 17, 34, -3, -21, 78, -15, 52,
    10, 5, 15, -12, 0, -24, -20, 31,
    -84, -25, -70, 9, -4, -14, 8, 38,
    11, -46, -50, 38, 49, -42, -10, -84,
    -15, 26, -9, -21, -34, -66, -19, 17,
    12, -87, 7, -17, 34, -27, -4, 20,
    34, -13, 58, -39, 19, -23, -25, 0,
    0, -27, 11, 69, 14, 18, 16, 0,
    -42, -4, 11, 50, 20, 66, 48, -52,
    10, -68, -14, 2, 3, 6, -5, -16,
    13, 4, 39, -10, -39, -1, -3, -13,
    54, 11, -44, 33, 18, 2, 30, -19,
    29, 26, -25, 25, 36, 7, -50, 22,
    34, -48, 0, 25, -5, 10, -23, -37,
    -3, -23, -15, -30, 24, -33, 32, -16,
    -84, -6, 17, -7, -38, 4, -23, 36,
    11, -13, 13, -9, -24, 20, 48, 24,
    -11, -7, 27, -43, 77, -6, -22, -5,
    -38, -35, 38, 30, 19, 27, 40, 2,
    -13, -54, 10, 72, -8, -15, -46, -48,
    11, -21, 55, 18, -40, -23, -19, -14,
    -31, -23, 35, 26, -40, -25, -25, 0,
    -44, 13, -26, 16, -1, -53, 2, 4,
    -1, -98, 13, 21, 13, -16, 12, 28,
    -6, -61, 49, 23, -3, 23, 24, 18,
    -25, 2, -50, 17, 11, 42, -62, 14,
    -28, -10, 48, 2, -54, -45, -30, 6,
    -40, 0, -18, 62, -11, -23, 37, 39,
    16, -4, -48, 40, 26, 25, -11, 18,
    -29, -26, -22, -4, -54, 20, -25, -36,
    -46, -13, -52, 23, 20, 20, -16, -7,
    -54, -34, -16, -28, -17, -22, -43, 10,
    -5, -26, 1, 6, 41, 43, 76, 7,
    -54, -42, 24, -53, 38, 51, -56, 16,
    -69, -33, 3, 47, -10, 18, -7, 38,
    33, -82, -2, 28, 48, 21, -17, -18,
    51, -23, 8, 31, -27, -28, 42, -6,
    -36, -26, 14, 8, -35, -62, -39, 7,
    -98, 15, 41, -11, -4, -28, 3, 27,
    8, -51, -10, -5, 11, -13, -6, -4,
    -46, -46, 76, 23, -4, 40, 19, 6,
    7, 4, 1, -7, -26, 3, -46, 17,
    31, -22, 5, -10, -62, -47, 6, 11,
    -33, 9, 9, 57, 28, -20, -7, 12,
    16, -75, 14, -26, -78, -57, -25, -20,
    -18, 47, -27, 12, 109, -25, -57, 84,
    78, 24, 4, -7, 12, 62, -52, 2,
    11, 107, 84, 21, 55, 21, 104, -9,
    -18, -16, -39, 8, 26, 17, -85, -63,
    16, 127, -121, 73, -15, -5, 6, -28,
    19, -1, 9, 4, -15, 9, -36, 2,
    -6, 20, 26, -73, -2, 17, -46, 18,
    -19, 4, -18, -2, 17, 65, 4, 15,
    33, 7, 21, 22, -10, 2, -11, -38,
    -5, 17, -1, 45, 13, 26, -4, -23,
    11, -8, -89, -22, 25, -30, 41, 3,
    12, 23, -25, -44, 6, 5, -117, 20,
    -36, -6, 39, -4, -34, -61, 15, -49,
    -8, -16, -88, -27, 30, 98, 28, -62,
    -1, -56, 77, -51, 15, 6, 3, 22,
    28, 25, -65, 39, -19, -30, 22, 57,
    46, 13, 37, -54, -12, -62, 18, 35,
    -7, -6, -42, 37, -29, -25, -40, 16,
    -10, 121, 18, -6, 10, -20, 50, -68,
    -19, 4, -127, -25, -29, 9, 5, -31,
    68, 59, -19, -5, 45, 49, -4, 31,
    26, -14, 19, -10, 30, -1, 5, -6,
    25, -32, 10, -34, 0, -3, -20, -3,
    -86, 20, 32, 13, 4, 25, 4, -17,
    -16, 1, -20, 93, -2, 3, -34, 44,
    12, 16, -57, 1, -3, -9, 5, 15,
    -2, -28, -20, 57, 127, 10, 19, -23,
    -17, 26, 6, -74, -38, 14, -76, 0,
    -1, 45, -5, -14, 89, 24, 3, 21,
    -10, 18, -23, 5, 43, 76, 34, 22,
    -23, -13, 92, 3, 31, -9, 41, -26,
    -83, 0, 28, -30, 13, 16, 10, 39,
    50, 39, -8, -27, -106, -16, 7, 46,
    -48, 35, -11, -37, -52, -16, 4, -2,
    9, -3, 0, -11, -12, 17, -58, -92,
    30, -18, 23, -31, -15, -27, 33, 18,
    14, -30, 4, 29, -47, -17, 28, -30,
    -14, -38, -5, 25, 50, -37, -10, -4,
    -40, -2, -1, 6, -48, -55, -61, 19,
    14, -46, 38, -32, -26, -28, 13, 60,
    -64, -14, -18, -28, 31, 2, -106, 0,
    -10, -8, -62, 38, -11, -16, 35, -3,
    40, 33, 49, 10, -10, 32, -73, 50,
    -6, -25, 16, 26, 29, -38, 27, -32,
    20, 40, -20, 16, -12, 13, 20, -7,
    -78, -1, 3, -87, 13, -57, -62, 11,
    20, -1, 2, -25, -67, 31, -127, 9,
    7, -92, -2, -110, -25, -27, 16, 35,
    62, 18, -98, 16, -64, 26, -45, -9,
    -22, 41, -32, -11, 60, 72, -33, -14,
    6, 16, -63, -26, 79, -15, 10, 80,
    -3, -23, -6, -46, 27, 44, 3, -31,
    -3, 10, -43, 19, -31, 38, 4, 25,
    -12, -43, 20, 15, 41, -27, 11, 1,
    29, -31, -22, 39, 62, 24, -50, 14,
    0, -11, -1, -39, 1, 63, 84, 29,
    16, 29, -32, -44, 69, -17, -62, 2,
    -50, 33, 94, -36, 79, -39, -14, 22,
    -18, 7, -1, 97, 7, 19, -51, 5,
    -18, 10, -8, 26, 75, 28, -77, 23,
    23, 1, 56, 44, -5, -38, 22, -44,
    -40, 25, 4, -83, 72, 16, -60, -102,
    45, -49, 31, -114, -26, 64, -18, 0,
    -38, 27, 29, 75, 46, 23, -24, 0,
    54, -3, 27, -7, 56, 21, 63, -67,
    13, -43, 60, -36, -68, -85, -10, 14,
    17, -39, 46, -26, -40, 2, -8, -112,
    -30, 44, 5, 1, -31, -19, 0, 117,
    0, -6, 14, 15, -42, -127, 39, -24,
    4, 58, -93, 33, 29, -54, 42, 10,
    -23, 75, -119, 27, -22, -101, 40, -4,
    -13, -28, -45, -70, 12, -11, -63, 89,
    39, -59, -2, -79, -10, 42, 43, -72,
    80, -84, -72, -9, -71, -27, -59, -47,
    -11, 41, 63, 4, -35, 74, -15, 6,
    -37, 21, -1, -26, 79, 12, 39, -116,
    33, -26, -51, 35, 23, -48, 20, 46,
    -16, 5, 17, 4, -71, -89, 9, 20,
    37, -18, -17, 10, 24, 69, -107, -108,
    40, -112, 14, 33, -8, -42, 48, 58,
    72, -12, 33, 4, 31, -28, -18, -17,
    26, 25, 6, 5, -30, -47, 15, 11,
    27, 70, 32, 2, -8, -8, 48, 7,
    -19, 40, -7, -13, 9, 32, 0, -35,
    27, 28, -78, 3, 56, -49, 29, 28,
    -5, 28, -95, 16, -31, -33, -31, -2,
    -16, 24, -3, 2, -1, -19, 7, 11,
    -64, 9, 1, -3, -26, -5, -3, 46,
    -62, 11, -90, 14, -10, -12, -13, 21,
    45, 12, -58, 1, -3, 38, -7, -39,
    -36, 0, -22, 127, 54, 12, 10, -59,
    6, -3, -30, -11, 24, -1, 6, -52,
    29, -9, 6, 22, 40, -5, 6, -12,
    -20, 45, 32, 35, 45, 86, -8, -14,
    22, -10, 16, 3, 2, 29, 34, -123,
    -13, -12, 38, -27, 20, 32, 49, 2,
    -9, -27, 35, 13, -56, 13, 26, -1,
    -11, 0, 41, -57, -7, -2, 30, -34,
    -85, -27, -33, 20, 0, 12, -81, -43,
    42, -5, 33, 13, -83, -11, 17, -44,
    0, -62, 27, -18, -58, -36, 68, -34,
    5, -39, -57, -20, 45, -2, 59, 13,
    -76, 3, -8, -7, 51, -62, -64, -81,
    21, -51, 127, -6, -17, -54, 39, 55,
    30, 2, 33, 36, 26, 6, -54, 0,
    -60, -10, -24, 3, 61, -23, 31, 50,
    6, -88, 11, 73, -21, -32, 2, 127,
    17, -53, 22, 49, -25, 69, 41, -83,
    -7, -13, 28, -30, 17, 35, -3, 35,
    -127, 13, 15, -42, -9, -27, -127, 9,
    54, -21, -8, -62, -9, -1, -102, -27,
    -46, -5, 31, 98, 51, -46, -16, 0,
    -17, -16, 49, 51, 38, -59, -6, -30,
    28, -16, 71, -102, -56, -28, -2, -18,
    -31, 22, 106, 61, -1, 55, 77, -90,
    -9, 26, 4, 12, 21, -47, -43, -35,
    19, 8, -40, -4, -20, -58, 56, -68,
    23, 39, -59, -52, 21, 13, 17, 19,
    -94, 79, 39, -4, -23, -69, 15, 28,
    20, -23, 77, 37, -13, 13, -47, 32,
    9, 16, 36, 35, -22, -18, -2, -19,
    -7, 29, -69, 69, 11, 10, 34, 12,
    24, -18, -127, 45, -18, 4, 67, 22,
    36, -13, 1, -27, -85, -17, -25, -57,
    -56, 29, -7, -44, 9, 61, 5, 14,
    -16, 10, 15, 10, 2, -6, -39, 18,
    14, 3, 19, -19, 55, -47, -79, 0,
    -26, -16, 21, 9, 40, 26, 51, -24,
    -31, 20, 25, -27, -51, 63, -3, 37,
    -6, -24, -1, 56, -33, 21, 10, -5,
    3, -1, -50, -14, 21, 12, -41, 27,
    3, -3, -15, -1, 2, -12, -44, 30,
    -32, 26, -2, 5, 31, 41, -14, 80,
    40, 4, 68, -13, -2, -19, 8, -56,
    2, -10, 4, -46, -61, 28, -12, -12,
    4, -14, -11, -39, 33, 42, 35, -50,
    4, 22, -33, -68, -29, 17, 18, 34,
    8, -15, -39, -52, -40, 29, -40, -25,
    -29, 35, -40, -36, 1, 43, -30, -13,
    -6, -41, -48, 36, 15, -23, 25, 51,
    -19, 28, 45, 53, -40, -55, -72, 44,
    -21, -11, 18, -25, 17, 14, -54, 30,
    -73, 23, -4, 26, -25, 51, 54, 55,
    -6, 14, 30, 9, 46, 30, 40, -13,
    -4, -3, 27, -2, 23, 5, 41, 23,
    15, -50, 35, 62, -25, 35, 21, 20,
    24, 20, -23, 45, 45, 4, 16, 36,
    -10, 19, -12, 2, 36, 12, -78, 10,
    -24, 20, 8, 38, 32, -1, 10, 62,
    21, 32, 30, -10, 8, 17, 0, 0,
    -19, 25, 5, 10, -28, -14, 72, 18,
    9, 15, -10, 16, 31, 1, 20, -32,
    27, 49, -18, -8, 5, 10, 52, 15,
    78, -27, -6, -35, -14, 63, -12, 27,
    -63, 48, 5, -41, 19, 11, 10, 11,
    12, 18, -50, 26, 0, -3, 20, 4,
    15, 39, 40, 6, -12, 64, 15, 39,
    54, 1, 4, 48, 23, 45, 25, 48,
    -21, 36, 0, 21, 10, 33, 35, 11,
    -48, -18, 7, -127, 3, 5, -46, -30,
    -17, -13, -1, 97, -44, 86, -53, -42,
    19, 24, 82, 78, 19, 76, -26, 15,
    44, -24, -91, 35, 49, 4, -44, 43,
    -25, 6, 48, 40, -26, 11, -66, 26,
    -40, 3, -14, 31, -67, 8, -24, -30,
    -6, -16, -18, 14, -28, 13, 42, -16,
    11, 51, -51, 51, 29, -1, -60, 41,
    58, 9, -31, 16, 7, -11, -16, -45,
    26, 4, 9, -47, 24, 28, -11, 36,
    24, 33, 36, -103, 64, -40, 2, -24,
    -37, 42, 3, 8, -15, -32, -26, 16,
    -2, 34, 49, 65, 14, 9, 38, 0,
    35, -77, 39, 1, -69, -28, 10, -5,
    40, 5, -56, 18, 11, 33, -5, -23,
    64, 25, -71, 25, 12, -13, 45, 6,
    36, 6, -101, -41, -45, -7, -127, 61,
    75, -22, 2, -18, -26, -96, -5, -47,
    -13, 25, -127, -32, -41, -67, -41, 29,
    -8, 66, -13, -12, -127, -52, 0, -29,
    -27, 15, -40, -36, -12, 106, 22, 21,
    36, -7, 1, -4, 20, -118, -44, -16,
    -51, -5, -84, -15, 8, -6, -59, 78,
    -15, -22, 24, -13, 35, -32, -35, -20,
    -88, 48, -34, -3, -42, -51, 48, 41,
    -77, -118, -16, 18, -14, -26, 14, -54,
    32, 44, 1, 29, 34, 0, 41, -10,
    21, -25, 10, 78, 69, 9, 29, -11,
    -31, 35, 19, -127, 9, 57, -6, -23,
    -1, 13, -125, -7, 33, -10, -14, -42,
    22, 78, 1, 33, -96, 32, -17, -1,
    34, -22, 48, 19, 14, -6, 3, -113,
    14, 0, -14, -46, 3, -18, 0, 0,
    5, -14, 11, 16, 58, -18, 8, 11,
    17, -12, 23, 51, 14, 10, 13, 61,
    35, -18, 11, 73, 6, -30, 3, 28,
    -4, -12, -11, 47, 31, 40, -52, -35,
    4, 6, -40, -1, -6, 36, -78, 28,
    -41, 19, -1, 10, 5, -5, 37, 52,
    20, 58, -17, -6, -13, 57, -5, -13,
    45, 33, -18, 10, 24, -9, 27, -33,
    18, -1, 8, -41, -34, -63, -6, 21,
    21, 1, 26, -22, -1, 19, -51, 11,
    -13, 23, -57, -10, -11, 0, 20, -2,
    -60, 15, 25, 33, -68, 12, -79, 11,
    -31, -83, 13, -22, -32, -41, 1, 17,
    110, -10, -16, 15, 9, 25, 69, -21,
    35, 12, -6, 31, 36, -10, 34, -14,
    -1, 15, 15, 56, 28, 36, 18, -4,
    -3, 6, 6, -48, 51, -24, 25, -43,
    16, -56, -4, 6, -113, -50, 0, -2,
    19, 6, 26, 25, -11, -22, 31, -18,
    4, -7, 17, -17, -21, 3, -16, 107,
    28, -4, 23, -34, 18, 3, -4, 48,
    12, 89, 0, -28, 23, -66, -47, -26,
    -3, -4, -13, 19, -39, -10, 16, -11,
    8, 2, -14, -38, 13, 5, -2, 9,
    26, 38, -16, -37, 7, -15, 102, 3,
    53, -95, -47, 29, -73, 37, -40, 20,
    -12, 48, 23, -28, 42, 127, -24, -33,
    0, 10, -67, -4, 64, -9, 29, -30,
    21, 42, 9, 44, 9, 21, -7, 9,
    -1, -5, 14, 29, -3, -12, -17, 60,
    -44, 15, 12, 7, -10, 76, 6, -11,
    19, -43, 42, -24, -10, -10, 75, 40,
    -2, 18, -17, -77, -34, 6, -16, 49,
    -53, -28, 11, 2, -31, 65, 3, 21,
    25, 74, -127, -66, 73, -1, -68, 0,
    -23, 33, -47, -28, 21, 6, 5, 14,
    26, 18, -31, 35, 2, 17, 15, 107,
    -4, 12, -2, 24, -26, -94, -79, -2,
    -20, 4, -48, 13, -49, -25, 37, 25,
    -13, -5, -70, -60, 30, 27, 51, 12,
    -32, 3, -101, -84, 24, 23, 14, 45,
    61, -18, -42, -31, -100, 45, -17, -34,
    9, 35, 95, -9, 102, 84, -80, -38,
    3, 23, 6, 9, 20, -44, -2, -28,
    7, 41, 50, 123, -47, -2, -24, -14,
    -1, 9, 7, 3, 81, 37, -39, 2,
    3, -11, 48, -17, -41, 124, 0, -16,
    31, 33, -26, 8, 0, -35, -59, 38,
    8, 15, 37, -14, 38, 17, 37, 15,
    63, -8, 46, 25, 5, 27, -22, 11,
    -7, 64, 118, 39, 55, -11, 91, 14,
    -36, -2, -24, -21, -46, 4, -45, 52,
