// Auto-generated weights file
// DO NOT EDIT

#ifndef WEIGHTS_H_
#define WEIGHTS_H_

#include <stddef.h>
#include <stdint.h>

// Shape: (1, 5, 1, 1), dtype: int8
static const int8_t wrapped_backbone_freq_stack_0_depthwise_weight[5] = {
    50, -115, -118, -59, -127,
};

// Shape: (1, 1, 1, 22), dtype: int8
static const int8_t wrapped_backbone_freq_stack_0_pointwise_weight[22] = {
    -127, -127, 127, 127, -127, -127, -127, -127,
    127, 127, -127, -127, 127, -127, -127, -127,
    -127, -127, -127, -127, 127, -127,
};

// Shape: (22,), dtype: float32
static const float wrapped_backbone_freq_stack_0_pointwise_bias[22] = {
    -0.34891525f, 0.15182894f, -0.19210884f, 0.19799165f, -0.39014998f, 0.12693194f, -0.22830923f, -0.28780991f,
    0.22962293f, -0.47525012f, -0.37751636f, -0.09428617f, -0.46210140f, -0.09867252f, -0.21683447f, -0.30801818f,
    0.15235859f, 0.26020172f, 0.04207379f, -0.28949505f, 0.28983834f, -0.37814531f,
};

// Shape: (22,), dtype: float32
static const float wrapped_backbone_freq_stack_0_bn_gamma[22] = {
    0.94684601f, 0.84033316f, 0.81626254f, 0.79098672f, 0.70185041f, 0.90837193f, 0.89875776f, 0.91347760f,
    0.85220373f, 0.77848226f, 0.89393932f, 0.88139606f, 0.70780408f, 0.76423889f, 0.88986754f, 0.86477339f,
    0.92953831f, 0.88385320f, 0.90840852f, 0.96881598f, 0.75442410f, 0.89022154f,
};

// Shape: (22,), dtype: float32
static const float wrapped_backbone_freq_stack_0_bn_beta[22] = {
    -0.37012732f, -0.37506777f, -0.29467991f, -0.13697654f, -0.45677173f, -0.43777245f, -0.44654042f, -0.24080831f,
    -0.09845875f, -0.24473076f, -0.35969394f, -0.31224307f, -0.35498428f, -0.40277696f, -0.35975894f, -0.41631922f,
    -0.38501567f, -0.28545812f, -0.33452874f, -0.30903581f, -0.09049232f, -0.27844205f,
};

// Shape: (22,), dtype: float32
static const float wrapped_backbone_freq_stack_0_bn_mean[22] = {
    -6.61330938f, -4.47385931f, 0.03506121f, 3.03475738f, -1.55373478f, -3.87392044f, -2.47464156f, -2.96582818f,
    5.77675533f, -0.15047833f, -2.96941805f, -2.01653576f, -0.46022281f, -0.93152440f, -4.95041656f, -3.78051829f,
    -5.68072033f, -2.92531300f, -1.16556966f, -2.61164999f, 4.18000793f, -5.94276571f,
};

// Shape: (22,), dtype: float32
static const float wrapped_backbone_freq_stack_0_bn_var[22] = {
    26.80668068f, 33.68825912f, 60.16131973f, 11.08466530f, 5.43840933f, 13.23882866f, 4.31907940f, 27.31914902f,
    18.19092941f, 27.35354614f, 12.60393333f, 12.10966492f, 3.76333332f, 7.25141954f, 8.28780556f, 18.66934967f,
    21.05624580f, 50.77957153f, 2.94690347f, 4.66931963f, 8.23609066f, 33.64442444f,
};

// Shape: (1, 3, 22), dtype: int8
static const int8_t wrapped_backbone_freq_stack_1_depthwise_weight[66] = {
    -94, 127, -33, -5, 107, 3, -127, -127,
    70, -127, -23, -127, -44, 33, 127, -90,
    -25, -63, -127, -111, 125, -19, 33, -9,
    -7, 127, 127, 127, 15, 53, 21, 76,
    127, 28, -127, 42, -9, -127, 127, 127,
    -110, 57, 127, 127, 127, 40, 127, 17,
    104, -24, -46, -54, -127, 109, 31, -53,
    -104, 127, 42, 84, 17, -17, 120, -127,
    -91, -89,
};

// Shape: (1, 1, 22, 32), dtype: int8
static const int8_t wrapped_backbone_freq_stack_1_pointwise_weight[704] = {
    -84, 106, -119, 62, 103, 21, 27, -56,
    122, 80, 75, 107, 3, -32, -32, 14,
    -34, 12, 107, -31, 3, 68, 17, 28,
    -94, -27, 53, -12, -18, -58, -40, -23,
    -10, 1, 18, 12, 30, 75, -3, -51,
    126, 127, 21, -62, -3, 43, -13, -74,
    82, -24, 27, 75, -51, -73, -29, 52,
    71, 105, -20, 77, -1, -7, 33, -40,
    -7, 47, 13, -59, -63, 44, 46, 48,
    -23, 0, 32, 77, -31, 52, 56, 31,
    127, 98, 11, -50, 16, -72, 4, 14,
    -13, 76, 58, 127, -42, -10, 62, 23,
    18, -7, -23, -33, 105, 74, -69, -36,
    17, 66, -3, -26, 57, -20, 3, 127,
    69, -31, -38, 61, -50, 90, 108, 22,
    -15, 85, 65, -86, 42, -16, 119, 36,
    -9, 20, 16, -35, -10, -69, 53, 57,
    -12, -69, 75, 127, -8, 28, 12, -72,
    28, -13, 107, 108, 98, -101, 45, 57,
    21, 35, 24, 111, 35, 69, 27, -8,
    -35, 64, -8, -13, 32, -29, -57, 86,
    -36, -29, -40, -57, -17, -49, 39, 125,
    75, 127, -14, 93, -5, 127, 127, 73,
    40, 87, 16, 81, 114, -13, 59, -8,
    27, -11, 64, -127, -117, -67, -127, -41,
    28, 44, 40, 101, -46, -127, 77, 30,
    85, -123, -56, 3, -54, -41, -99, -17,
    -50, -34, -127, 52, -29, -8, -3, -119,
    58, -44, 37, 8, 49, 61, -95, -63,
    13, -5, 31, 86, 7, 35, 19, -75,
    12, 15, 102, 61, -14, -113, -37, 64,
    67, -44, -112, -42, -12, -54, -56, -52,
    -13, -59, 38, 6, -7, 1, -10, 30,
    8, 16, -22, -28, -14, -5, -80, 0,
    28, 3, -91, -20, -38, -96, 4, 38,
    74, -21, -60, -88, 30, -37, -6, 14,
    -49, -40, 53, -33, 104, 29, -43, 65,
    50, 13, -19, 84, 14, 61, 23, 63,
    -6, -65, 86, 47, 32, -47, 39, -22,
    -35, -44, -7, -37, -4, 75, -26, 0,
    0, 44, 83, -9, 13, -37, 83, -45,
    -9, 53, 55, -108, -18, 105, 106, 3,
    35, -54, 105, -14, -22, 85, -42, -37,
    36, -6, 23, -71, 47, 127, -84, 103,
    -79, 38, -81, -22, -95, 9, 23, 86,
    46, -60, -43, 56, 17, 38, 48, -112,
    46, 58, -127, 85, -4, 68, 2, -59,
    64, -127, -48, -104, -13, -42, -80, -2,
    -115, -31, 15, 31, -26, -46, -44, -34,
    58, 10, -84, 101, -69, 42, 56, 62,
    -36, -79, -84, -127, -19, -40, -50, -70,
    -74, -33, -51, -68, -77, 31, -96, 50,
    44, 127, 26, 69, 127, -4, 79, 100,
    127, 76, 42, 16, 41, 49, 6, -55,
    63, 6, 58, -94, -8, 27, 70, 52,
    63, 36, 85, 34, -32, 50, 127, -38,
    20, 60, 73, -36, 63, 9, 26, 35,
    127, 37, 77, 3, -3, -41, 1, -18,
    64, 16, 97, 96, 86, -23, -39, -18,
    6, -16, -29, -22, -21, 23, 102, -9,
    43, 3, -21, 39, -110, 37, -32, -75,
    -17, -14, -127, 2, -7, -23, -39, 30,
    -47, -108, -125, -59, 50, 93, -1, -6,
    24, 54, 45, -38, 30, -12, 43, -41,
    127, -62, 127, -45, 102, -2, 8, -26,
    -34, 19, -26, 100, 127, 75, -16, -12,
    -61, -67, -65, -7, -54, 25, -28, -17,
    2, 9, 74, 48, 20, 6, 76, 127,
    17, -53, -53, 7, 11, -36, -7, -47,
    110, 30, 2, -55, 3, -11, -55, 10,
    78, 106, 14, 24, 127, -77, 27, -52,
    37, 80, -50, -11, -44, 30, -15, 55,
    -117, 22, 34, -60, 17, -32, -21, 6,
    69, -66, 5, -8, -20, -57, -62, 68,
    31, 38, -120, -54, -25, -21, -111, -127,
    -19, -46, 73, -36, -127, -10, 58, 55,
    -4, -2, 88, -21, -19, -127, -99, -53,
    21, 37, -28, 27, -1, -58, -127, -32,
    -73, 16, -42, -14, 106, -99, -16, -3,
    63, -36, 0, -84, 33, -1, 106, 84,
    -21, -44, -31, 33, 33, -60, 120, 49,
    -30, -63, -97, 77, 27, 73, 86, 50,
    53, -33, -9, -2, -6, 27, 45, -47,
    102, -4, 12, 4, 14, 15, 34, -50,
    14, 84, 2, 31, 81, 10, -63, -127,
    10, -55, 6, -39, -9, 47, -25, -42,
    38, 9, -82, -91, 7, 51, 23, 13,
    -127, 31, 20, -89, -46, 7, 65, -3,
};

// Shape: (32,), dtype: float32
static const float wrapped_backbone_freq_stack_1_pointwise_bias[32] = {
    0.06070061f, -0.15979590f, -0.11553428f, -0.16015610f, -0.06822421f, 0.18454826f, -0.07016978f, 0.22425596f,
    -0.01895786f, 0.13330074f, 0.11343100f, -0.17988747f, 0.11256964f, 0.11678848f, 0.17305961f, 0.11388199f,
    -0.10902774f, 0.17120922f, 0.14361818f, 0.14779729f, 0.04009731f, 0.13582420f, 0.00081064f, -0.10763808f,
    0.19328506f, -0.01199420f, 0.14559463f, 0.20884441f, -0.05526732f, -0.11687226f, 0.08017404f, -0.04342411f,
};

// Shape: (32,), dtype: float32
static const float wrapped_backbone_freq_stack_1_bn_gamma[32] = {
    0.91168332f, 0.89506251f, 0.92437243f, 0.89982182f, 0.93807197f, 0.88405818f, 0.95213211f, 0.94288331f,
    0.96424925f, 1.04168129f, 0.87026703f, 0.97698975f, 0.93181640f, 0.92749310f, 0.97660553f, 0.93246251f,
    0.88013697f, 0.93593276f, 0.93452954f, 0.89722341f, 0.90990740f, 0.90273821f, 0.94412923f, 1.02880192f,
    0.96406555f, 0.88980806f, 0.87460291f, 0.98332047f, 0.87808597f, 0.84808511f, 0.92067581f, 0.92897511f,
};

// Shape: (32,), dtype: float32
static const float wrapped_backbone_freq_stack_1_bn_beta[32] = {
    -0.23273596f, -0.22041960f, -0.20080087f, -0.22282186f, -0.18830922f, -0.26904741f, -0.20569946f, -0.23410229f,
    -0.24060190f, -0.11918740f, -0.31753969f, -0.12036672f, -0.32103872f, -0.20942345f, -0.24720287f, -0.16536193f,
    -0.21204406f, -0.20620441f, -0.26733372f, -0.27735168f, -0.19050680f, -0.24590628f, -0.31006801f, -0.23923331f,
    -0.12638159f, -0.26275504f, -0.31100583f, -0.18963346f, -0.27228409f, -0.28376591f, -0.15937187f, -0.24545549f,
};

// Shape: (32,), dtype: float32
static const float wrapped_backbone_freq_stack_1_bn_mean[32] = {
    0.06692514f, -0.14522012f, -0.11671001f, -0.15515400f, 0.00700829f, 0.21771337f, -0.04891754f, 0.23933338f,
    0.00156663f, 0.17448135f, 0.13085186f, -0.18118040f, 0.15629545f, 0.16002952f, 0.19912452f, 0.13699839f,
    -0.08399217f, 0.19632332f, 0.18747951f, 0.18671252f, 0.02217702f, 0.18020715f, 0.04884548f, -0.09253415f,
    0.19544339f, 0.01441827f, 0.18410172f, 0.22412424f, -0.03056714f, -0.10137998f, 0.09540973f, -0.00377244f,
};

// Shape: (32,), dtype: float32
static const float wrapped_backbone_freq_stack_1_bn_var[32] = {
    0.01187530f, 0.01704809f, 0.02248987f, 0.01979592f, 0.02972382f, 0.02670361f, 0.01643675f, 0.02355355f,
    0.00961425f, 0.01469509f, 0.02283060f, 0.02657802f, 0.00892991f, 0.01623854f, 0.00928315f, 0.00568663f,
    0.01153590f, 0.02443010f, 0.02174362f, 0.02312324f, 0.01017819f, 0.01562572f, 0.01277063f, 0.01099595f,
    0.04622874f, 0.00638486f, 0.01435574f, 0.01215331f, 0.01258849f, 0.01136388f, 0.01055486f, 0.02086605f,
};

// Shape: (1, 3, 32), dtype: int8
static const int8_t wrapped_backbone_freq_stack_2_depthwise_weight[96] = {
    -80, -57, 127, 39, 127, 127, 12, 127,
    127, 7, 41, -9, -91, 103, 38, 127,
    -75, 127, 127, -23, 127, -7, -24, -12,
    -84, 127, 84, -127, -79, -127, 37, -24,
    -46, -127, -98, 80, -119, -110, 76, 13,
    -98, -1, 111, -127, -50, -127, -127, 67,
    -127, 73, -34, 4, -78, -127, -127, -32,
    61, -84, 102, -28, -105, -94, -102, 127,
    -127, 61, -94, -127, 94, 118, -127, -36,
    4, -127, 127, 114, 127, -56, -26, -100,
    -45, -64, 50, 127, -118, -17, -97, -127,
    127, 87, 127, 113, -127, -74, -127, -45,
};

// Shape: (1, 1, 32, 43), dtype: int8
static const int8_t wrapped_backbone_freq_stack_2_pointwise_weight[1376] = {
    22, -12, -107, -63, -107, 3, 64, -87,
    98, -78, -31, 44, -10, -127, 14, -88,
    59, -30, 28, 57, -113, 117, 48, -24,
    79, -64, 21, -55, 72, -20, -70, 10,
    -45, -98, -38, -48, -80, 24, 44, 106,
    36, 56, 19, -47, 61, 15, 27, 7,
    31, 30, -66, 11, 9, -54, 65, -48,
    -38, 27, 24, -100, 91, -40, -42, -71,
    30, -103, -68, 92, -82, 37, 38, -61,
    19, 14, 31, -31, -87, -103, 81, -57,
    -64, -31, -2, -3, -13, -50, 88, -83,
    51, 72, 22, -5, 113, -1, 80, -57,
    68, -93, 57, 46, 22, 30, 65, -114,
    42, -5, 54, 44, -83, 17, 46, 107,
    19, -62, -39, 41, -12, -33, -69, 102,
    -123, 4, 1, -126, -57, -68, -22, 19,
    -99, 0, 63, 127, -64, 96, 14, 54,
    45, -5, 52, -42, -39, -14, 50, 18,
    65, 26, 59, -22, -64, -81, 88, 88,
    -9, 26, -54, 34, -77, -108, 15, -54,
    122, 18, 104, -62, -13, -103, -54, 127,
    62, 63, -8, -35, -51, 96, 47, 85,
    -53, 33, 24, 87, -12, 66, -127, 43,
    -12, -70, 117, -102, -77, 83, 77, 26,
    123, -102, -25, -127, -45, -84, 33, -71,
    36, -30, -51, 84, 111, 104, 32, -88,
    61, 94, -45, 55, -9, -69, 29, 92,
    -91, -109, 16, 14, -81, -5, -73, -27,
    -45, -58, -38, 66, 99, -29, 45, -5,
    -6, -8, 57, 33, -94, -18, -27, 41,
    -50, 51, -79, 53, 27, 55, 44, 25,
    -34, 68, 19, 100, -56, -2, 12, 89,
    -107, 78, -66, 51, -95, -25, -32, 80,
    -112, -71, 127, 64, -24, 77, -10, -34,
    -59, 23, 98, 47, 26, 71, -71, -64,
    91, -36, -9, -27, 47, 25, -43, -121,
    31, -81, -46, 102, -42, 95, -123, -74,
    25, -113, 24, 23, -68, -116, 40, 63,
    -57, 96, -71, -100, -84, 73, 71, 80,
    -34, 87, -90, 46, 52, -8, -14, 112,
    104, 76, 42, 10, 92, -26, 123, -53,
    73, -95, 101, 44, 16, 94, 3, 39,
    15, -10, -15, -54, 66, 47, -85, 81,
    16, 124, -7, -127, -18, -35, -38, -114,
    -43, -51, 90, 46, -85, 126, -38, 127,
    88, -62, 78, -29, 92, 119, 72, -71,
    35, 96, 74, -84, -103, -78, 16, 32,
    -80, 17, 102, 1, -21, 80, -43, 87,
    -52, 57, -33, -69, -127, -94, -28, 3,
    0, 90, 13, -31, -105, 53, 84, -28,
    -24, 44, -47, 31, -28, 102, -125, -82,
    -127, -51, 68, 7, 0, 50, -33, 7,
    4, 31, -89, -119, -78, -15, -114, -109,
    -34, 44, -65, -127, -120, -65, -3, 102,
    50, 39, 87, -42, -29, -6, 82, 48,
    43, 91, 15, 71, 68, 69, 7, 73,
    71, 127, -52, 118, -33, 11, 58, 17,
    -20, 34, -53, -59, -11, -55, -5, -41,
    0, -34, -56, 39, 57, 97, 18, 104,
    25, 17, 48, -23, -16, -18, 6, -53,
    71, 49, -26, -26, -79, -14, -44, 47,
    76, 46, 3, -74, 96, -127, -34, -76,
    28, -5, 91, 61, 71, 70, 78, -56,
    -45, -27, 26, 101, -127, 59, 14, -62,
    18, 46, -98, -127, 54, -77, 89, -18,
    0, 77, -51, -72, 95, -54, 71, -127,
    -63, -75, -73, -83, -8, 71, -70, -3,
    -82, -109, 125, 106, -44, 93, 66, 48,
    -32, -1, 65, -127, 75, 109, -127, 61,
    -34, -123, -111, 3, -90, -37, 47, 84,
    81, -64, 59, -100, 40, -46, 45, 26,
    -85, -33, 12, 10, 99, -57, 38, 37,
    79, 71, 82, 36, -30, 17, -56, -33,
    -27, 72, 75, -46, -58, 3, 21, -56,
    -88, -31, -82, -52, 65, 5, 0, -67,
    57, -15, -3, -74, -82, 52, -100, -39,
    -107, -127, 58, -110, 0, -60, 41, -28,
    114, 30, -34, -43, 29, -80, 25, 98,
    -16, 28, 3, -82, -112, 6, 18, -127,
    -34, -66, -7, -109, 40, 45, -87, -93,
    -58, 106, -28, -29, 24, -22, 61, -89,
    -96, -74, -54, 69, 57, 76, 90, 3,
    45, -62, 98, -8, 50, 8, -96, 98,
    58, -82, -39, 6, -89, -50, -2, -23,
    51, -13, 55, 20, 83, 30, 30, -36,
    -22, -96, -48, 121, -66, 60, 24, -31,
    22, 48, 26, -94, 74, -82, -68, 68,
    92, 7, 0, 20, -79, 9, -56, -19,
    -63, -45, -112, 113, -43, -84, -45, 57,
    -75, -61, -5, -52, -32, 34, 41, -40,
    -47, -52, -41, -58, 35, 69, -12, -37,
    -38, -14, 81, 49, -8, 67, 108, 81,
    -6, 127, -45, 71, 57, 74, 3, -86,
    108, -46, 26, 18, 90, 101, -29, -72,
    -94, -64, -77, -89, -105, -8, -45, -35,
    -107, -21, 31, 47, 34, 13, 77, -49,
    -10, -17, -34, -31, 127, 40, 43, -34,
    7, 52, 75, 96, 124, 98, 21, 5,
    106, 117, 0, 32, 45, -68, 44, 24,
    -118, 22, -2, -62, -31, 68, 10, 60,
    -87, 80, -39, 105, 105, 28, 1, 67,
    -10, 51, 120, -34, 106, -42, 7, 89,
    31, 27, 107, 62, -69, -10, 14, 14,
    28, 19, 76, -23, 107, 121, 60, 45,
    -5, 65, 59, -79, 112, -59, 55, -57,
    56, 31, -32, -92, -51, -3, -83, 42,
    -25, -10, -107, 58, 57, 55, 10, -33,
    36, -28, 94, 8, -59, -82, -65, 87,
    -88, -127, -75, -64, -60, 54, -107, -91,
    22, 34, 77, 64, -34, -41, 24, -14,
    18, -55, 18, -61, 61, 33, -50, 52,
    -93, 106, -3, -58, -113, 12, -70, -23,
    12, -71, 68, -127, -15, -37, -37, -37,
    -12, -90, -83, -59, -76, -53, 52, 39,
    48, 27, -83, -59, 0, -52, -1, 47,
    -31, 18, 3, 0, -13, -76, 94, -45,
    5, 3, 16, 8, 82, -38, -21, -14,
    -55, -86, -69, 38, 34, 6, -54, -27,
    -47, 75, -39, 34, -26, -24, -127, 88,
    13, 52, -70, -127, -22, 6, -12, 45,
    -8, -63, 34, -80, -87, -30, -60, 83,
    5, 42, 19, 51, 29, 19, -112, -62,
    -127, -117, 127, 91, -85, -13, 64, 70,
    -123, 83, 9, 67, -5, -127, -53, 21,
    -25, 58, -86, 42, -77, 42, -4, -42,
    75, -47, -99, -93, -58, -73, -127, 36,
    -43, -107, -84, -127, -127, -127, 65, -93,
    -127, -6, 40, 43, -107, 9, -77, 16,
    -80, -127, -57, -78, 82, 16, -12, -18,
    -53, 72, 23, -86, 42, 83, -89, 75,
    -45, 68, 113, 105, 101, 103, -70, 21,
    11, -39, -13, 81, 66, 114, -95, 82,
    23, 74, 97, -92, 127, 4, 80, -76,
    68, -97, 68, 9, -70, -97, 34, -125,
    61, 124, -3, -37, 0, 15, 34, -33,
    -40, 19, -54, -44, 33, 100, 112, 5,
    3, 84, 30, -84, 53, 87, 43, 86,
    63, 68, 10, 54, -14, 15, -23, -64,
    -46, -23, 15, 64, -36, 26, 31, -43,
    -49, -76, 126, 42, 92, -82, -18, 60,
    105, 37, -60, -56, 65, 73, 98, -48,
    -84, -50, -25, 40, -121, -86, -43, 39,
    69, 34, 59, -51, -59, -25, 18, -17,
    61, 108, 48, 80, -58, 51, 87, -3,
    114, 45, 41, 17, 2, 99, -96, -85,
    81, -22, -48, -92, -19, -5, -81, 55,
    -76, 80, -52, 63, -36, 73, -43, 40,
    -33, 127, -121, -127, -64, -2, 25, 75,
    -62, -52, -127, 49, 18, 120, 89, -14,
    -57, 87, -32, -23, 50, -3, -127, 76,
    -120, 46, 64, 59, -82, 0, 68, -57,
    2, -37, 15, -19, -108, -33, -45, -15,
    33, -41, 51, 84, -36, -88, 80, 103,
    -36, -33, 26, -41, -31, -55, -49, 62,
    24, -73, -4, 29, 8, -86, 86, -56,
    -9, -64, 77, -89, 37, -41, -54, -104,
    -35, 103, -15, 27, -67, -82, -63, -87,
    10, -72, 28, -67, -3, 127, -99, 101,
    -48, 74, 91, 79, -79, -55, -86, -39,
    44, 52, -6, 89, 101, -47, 105, -40,
    -28, 66, -36, -20, -73, -84, -67, -81,
    9, -66, 56, 92, 40, 38, 33, 59,
    -7, -80, 66, 44, -111, -24, -127, 27,
    -52, 41, -35, 42, -47, -45, -19, -119,
    -25, 41, -79, 53, -103, 24, 63, 96,
    16, -102, -39, -127, 11, 35, 40, -18,
    40, 90, -17, -48, -5, -19, 119, 121,
    -34, 43, 78, 113, 59, 83, 41, -94,
    70, 93, 71, 107, -6, 15, 3, 64,
    53, -23, -94, 103, 72, 62, 10, 127,
    -5, -70, 10, -33, 44, 44, 46, -60,
    -21, -43, -34, 31, -76, -88, 25, -66,
};

// Shape: (43,), dtype: float32
static const float wrapped_backbone_freq_stack_2_pointwise_bias[43] = {
    -0.11860900f, -0.01676574f, 0.11970156f, 0.08291493f, -0.01249510f, -0.07276765f, -0.13420913f, 0.01121692f,
    0.07934742f, -0.01837701f, -0.06852482f, -0.07314299f, 0.15241717f, -0.07484794f, -0.08702588f, -0.01566126f,
    -0.17372800f, 0.06046096f, -0.01790129f, 0.01474895f, -0.11685815f, -0.06644566f, -0.07796228f, -0.00536909f,
    -0.14279647f, -0.14114991f, 0.03649041f, 0.09949395f, -0.00091216f, 0.01374455f, -0.14502598f, -0.08878508f,
    0.10575343f, -0.00922676f, 0.08780411f, 0.15120926f, -0.01603677f, -0.01871368f, -0.12057241f, -0.02686553f,
    0.13684647f, -0.06682038f, -0.04722681f,
};

// Shape: (43,), dtype: float32
static const float wrapped_backbone_freq_stack_2_bn_gamma[43] = {
    0.91892147f, 0.96786308f, 0.94621408f, 0.93394113f, 0.93893760f, 0.90953618f, 0.93984526f, 0.93488616f,
    0.97363633f, 0.98104650f, 1.02002859f, 0.92258167f, 0.91047633f, 0.97084326f, 0.90494317f, 0.95951951f,
    0.96257651f, 1.03287435f, 1.01176083f, 0.97829872f, 0.88294679f, 0.98868883f, 0.99118000f, 0.96808499f,
    0.95144898f, 0.96752501f, 0.98892558f, 1.02522969f, 0.92291635f, 0.91320503f, 0.96816581f, 0.97021681f,
    0.88579273f, 1.01939929f, 0.96256614f, 0.96110791f, 0.88135570f, 0.98950398f, 0.95279825f, 0.98484236f,
    0.95273232f, 0.94107699f, 0.95669079f,
};

// Shape: (43,), dtype: float32
static const float wrapped_backbone_freq_stack_2_bn_beta[43] = {
    -0.14224753f, -0.06643925f, -0.19842508f, -0.12124038f, -0.13947207f, -0.13443863f, -0.13282643f, -0.10448816f,
    -0.04640196f, -0.12580270f, -0.06720871f, -0.19042355f, -0.14145228f, -0.02217890f, -0.14488167f, -0.05827195f,
    -0.03096581f, -0.03744471f, -0.07279100f, -0.11169072f, -0.19160369f, -0.11116565f, -0.04659829f, -0.09088580f,
    -0.06971285f, -0.07171027f, -0.08362166f, 0.00253431f, -0.08497731f, -0.12791502f, -0.15389191f, -0.13349429f,
    -0.22772285f, -0.12156812f, -0.08955383f, -0.12288573f, -0.22388621f, -0.05841326f, -0.12213976f, -0.06375023f,
    -0.09344341f, -0.16396338f, -0.15329735f,
};

// Shape: (43,), dtype: float32
static const float wrapped_backbone_freq_stack_2_bn_mean[43] = {
    -0.09492926f, 0.03062439f, 0.17146230f, 0.13451749f, 0.04929520f, -0.07544116f, -0.08720229f, 0.07675143f,
    0.11078636f, 0.08560497f, -0.01172552f, -0.03941918f, 0.22564161f, -0.01827114f, -0.09134421f, 0.00717517f,
    -0.20146748f, 0.15628894f, 0.04045405f, 0.03879144f, -0.05194771f, -0.05522444f, -0.06132512f, -0.00634942f,
    -0.11245155f, -0.13356484f, 0.04802058f, 0.11979501f, -0.02534100f, 0.00082966f, -0.10950928f, -0.02282499f,
    0.17991172f, 0.07125597f, 0.15222684f, 0.21871686f, 0.01164330f, 0.00734646f, -0.08626463f, 0.00558656f,
    0.16256917f, -0.04063699f, 0.00825652f,
};

// Shape: (43,), dtype: float32
static const float wrapped_backbone_freq_stack_2_bn_var[43] = {
    0.03420237f, 0.04846136f, 0.03711851f, 0.05076823f, 0.04602861f, 0.03529677f, 0.04119354f, 0.06175447f,
    0.05618880f, 0.06487516f, 0.04398340f, 0.03294637f, 0.06174234f, 0.03696568f, 0.03021390f, 0.04060040f,
    0.04043347f, 0.08055685f, 0.06392252f, 0.02733000f, 0.05008774f, 0.03526080f, 0.04397879f, 0.03441596f,
    0.03652242f, 0.04440847f, 0.03748072f, 0.04416105f, 0.05397046f, 0.03444262f, 0.01866709f, 0.03938642f,
    0.04751820f, 0.06324139f, 0.04823327f, 0.04783629f, 0.04162495f, 0.03875244f, 0.04688771f, 0.05194417f,
    0.03586496f, 0.03066507f, 0.06338532f,
};

// Shape: (1, 3, 43), dtype: int8
static const int8_t wrapped_backbone_freq_stack_3_depthwise_weight[129] = {
    -53, -90, 107, 18, 35, 127, -127, 117,
    114, 54, 127, 85, -122, 127, 127, -6,
    85, 70, -127, 127, -127, 87, 118, -111,
    127, 113, 55, -127, -99, -27, -76, 127,
    -94, -61, 127, 127, -16, -127, -29, 102,
    36, -46, -127, -70, 127, -115, 127, -18,
    46, 80, 90, -127, -90, -84, 127, -69,
    -105, 127, -15, 51, 107, 20, -2, -126,
    5, -127, 66, -104, 102, 99, 69, 127,
    70, 105, -45, -127, -127, -92, -44, 84,
    7, -127, 127, -79, -127, -109, -127, -7,
    127, -19, 127, 125, 82, 127, 54, -127,
    -120, 20, -127, -37, 123, 127, -127, -127,
    14, -4, 126, 127, -10, 127, 108, -127,
    -127, 17, 89, 127, 127, 81, 0, 113,
    101, 77, 127, -38, 26, -85, -127, -16,
    68,
};

// Shape: (1, 1, 43, 43), dtype: int8
static const int8_t wrapped_backbone_freq_stack_3_pointwise_weight[1849] = {
    1, 25, 57, 43, -50, 32, -56, -16,
    -106, -57, 97, -41, 40, 65, 5, 54,
    61, -59, -127, 95, -127, 90, 7, -83,
    -22, -55, -39, 34, 14, -81, -74, -32,
    -22, -33, 54, -70, -112, 35, -58, 15,
    99, 39, 25, 35, 117, 19, 57, -57,
    66, 101, 52, 30, 51, -36, 44, -29,
    -65, -34, 59, 8, 63, 103, -24, 78,
    4, -38, -72, -107, -109, -16, 38, 16,
    -66, -42, -49, 7, -124, -127, 45, -28,
    24, 86, 37, 38, 85, -90, -69, -61,
    -5, 46, -122, 30, 28, 94, -65, 33,
    22, -18, 57, -34, -28, 5, 118, 62,
    37, -65, -110, 55, -7, 81, 81, 79,
    -91, 80, 2, 50, 28, 61, 65, 70,
    -73, -44, -102, 42, -37, 25, 94, 9,
    55, 39, -67, -65, -34, 21, -24, 1,
    36, 91, 18, -89, 91, 36, 47, -32,
    5, 67, 41, -85, 100, -10, 94, 20,
    127, 58, 17, 65, 64, -69, -43, -32,
    0, -17, -88, -101, 41, -56, -6, 111,
    -48, 104, -37, 64, -21, -70, 58, 59,
    67, 0, 89, -26, -14, 53, -57, -51,
    -28, -49, 28, -51, 36, -11, -77, 51,
    30, 120, -5, -26, 49, 78, 50, -42,
    -115, 109, -6, 71, 32, -34, 23, -81,
    0, -45, -65, 125, -31, 101, -11, -48,
    120, 18, 55, -32, 63, 39, 4, -39,
    -7, -60, 28, -43, 81, -50, 14, 15,
    -61, 102, 25, 32, 105, 38, -60, 87,
    13, -68, -8, -36, -53, 12, -79, 60,
    -21, -25, 48, 7, -23, -64, -54, -62,
    -33, 72, 8, 30, -1, 79, -51, -14,
    75, -58, -50, 48, -99, 49, -32, -47,
    -48, 101, -63, 87, 29, -108, 47, -58,
    31, 29, -48, 67, -41, 91, 35, -7,
    -73, -84, 89, -73, -12, 33, 118, 13,
    67, -33, 110, -75, 92, 65, 1, -40,
    -57, -43, 51, 0, 59, -67, -2, -63,
    -92, -32, -121, 3, -37, -21, 28, 80,
    -18, -57, -25, -30, 23, 107, 37, 23,
    17, -31, -3, 5, -47, -79, 10, -64,
    80, -62, 67, -12, -64, -58, 90, 96,
    39, 88, 59, -54, 40, -54, -74, 19,
    -51, -46, -15, -33, 17, 94, -67, 127,
    -82, 84, 40, -90, 7, -9, 9, -100,
    127, 12, 81, 80, -96, 99, 75, -32,
    -63, 64, 24, -41, 26, 66, 83, 101,
    -23, 75, 106, -3, 127, -38, 76, -81,
    44, -66, -26, -36, 50, 73, 83, -37,
    24, -12, -75, -127, 80, 41, -48, -110,
    9, 49, 76, -64, -125, -23, 52, 12,
    79, 94, 98, -9, -112, 75, -82, -127,
    13, 38, 61, -94, 70, -23, 3, -89,
    -1, -22, -127, -81, -79, 16, 47, 16,
    64, -36, -68, -14, -29, 51, 71, 4,
    10, 41, 11, 56, 7, 39, 50, -11,
    -127, -8, -44, -102, -127, 92, -86, -74,
    40, -19, -114, -91, -121, -74, -97, -118,
    63, -15, 44, -6, 72, 9, 15, 116,
    64, 23, -37, 99, 84, 41, -58, 16,
    -42, 76, 27, -53, -56, 2, -32, 42,
    -50, 75, 79, -53, -8, -28, -18, 71,
    30, -88, 95, -6, -29, -75, 60, 30,
    -109, 17, -56, -11, 13, 112, -38, 8,
    -26, -12, -24, -38, -89, -31, 13, 26,
    -43, 32, 22, -34, -17, 106, 34, -53,
    -81, -75, 75, -77, 79, 93, -66, 32,
    -33, 14, 45, 35, -31, -120, -31, 13,
    -60, 68, 5, 85, -89, 5, -27, -3,
    61, -9, 36, -45, 22, 60, 14, 104,
    67, -52, -54, 4, 50, 66, 58, -67,
    38, 50, 66, -118, 53, -4, -30, 109,
    86, 17, -33, -45, -116, -50, 66, -11,
    -118, 31, 75, 48, -113, 16, -5, -40,
    56, -94, 65, 18, -52, -48, 72, -69,
    -22, -30, 3, 71, -7, 4, 29, -68,
    -15, -44, 66, 52, 96, -31, 94, -86,
    78, -62, 61, -50, -69, -57, 4, 6,
    75, 1, 67, 38, 13, -55, 6, 30,
    65, -12, 16, 74, 97, -11, 93, 58,
    62, 114, 33, -6, -18, -24, 71, -115,
    -13, -80, 38, 39, 124, -9, -62, -15,
    59, 19, 81, 112, 96, -103, -117, 72,
    -55, 25, -36, 42, 98, -22, -80, -67,
    -12, -63, 112, -32, -92, -54, 11, 43,
    -17, -93, 14, 71, -48, -127, -56, 27,
    -26, 84, -127, 66, 83, 74, 22, 56,
    -55, 41, 43, -74, -67, 79, 24, 41,
    38, -11, -31, -91, 127, 35, 63, 56,
    -34, 19, -64, -88, 58, -45, -30, 91,
    104, 76, 69, -15, -83, 127, 42, -53,
    -54, 67, 43, 127, 67, -79, -70, 10,
    -95, -43, 27, 43, -88, -64, -87, 90,
    -106, -9, -38, 49, -71, 25, -10, 57,
    -42, 115, 83, 127, 20, 13, 120, -99,
    -22, 27, -105, 18, -43, 11, 36, 77,
    91, -35, 10, -110, 13, -127, 13, 0,
    123, 27, -11, 127, -81, -79, -60, -33,
    -60, 57, 13, -95, 4, 33, -85, -72,
    43, -56, -18, -43, 86, 26, 18, -6,
    -85, -79, -78, 10, 94, 102, 94, 28,
    7, -71, 113, 123, -20, -16, 33, -17,
    35, 85, -38, 20, 28, 83, -7, -48,
    -67, 42, 23, -16, -13, -17, 93, -48,
    21, 121, 54, 15, -28, -116, 95, 32,
    -61, 83, 9, -88, -28, -47, 14, 112,
    38, 55, 115, -69, -84, -122, -73, -42,
    17, 50, -48, 49, -79, -15, -85, 38,
    -80, -12, -21, -73, 42, 43, -48, -47,
    -2, 25, -9, 41, -100, 19, 4, -37,
    72, -48, -90, 20, 59, -33, -26, -67,
    12, 29, 38, -36, 5, -99, 33, -31,
    55, -38, 5, -16, 63, 13, 40, 66,
    67, -101, 127, -75, -88, 127, 48, -34,
    -83, -31, 69, 48, -11, -33, 114, 121,
    127, -40, -16, -59, -50, -73, -3, 34,
    -65, 98, 107, -51, 78, 80, -125, 62,
    103, 2, -50, 24, 14, 30, 54, 43,
    59, 72, -78, 45, 26, -48, -40, 83,
    -32, -19, 116, -52, -26, 85, 49, 126,
    -89, 4, 121, 59, 62, 19, 77, 107,
    66, 62, 101, -78, -12, -93, -122, 61,
    -56, 120, 27, -30, -86, 101, 6, 9,
    -70, -62, -7, -40, -16, 98, -53, 31,
    -43, -22, -49, 67, 97, 33, -20, 48,
    45, -106, -60, -53, 95, 55, -100, 58,
    25, -65, 95, 82, -54, 54, -21, -97,
    50, 33, 43, 127, 72, -36, 54, -52,
    -35, -92, 24, 72, 70, 7, 44, -23,
    -19, -2, -8, 3, -14, 54, -67, 65,
    -89, -54, 50, -75, 120, 34, -40, -34,
    0, 98, -77, 55, -111, 56, -76, 105,
    -9, 3, -1, 7, -26, 127, -7, -111,
    103, 24, -71, -11, 84, -7, -90, -28,
    -62, 127, 76, -100, -2, -86, 15, -12,
    -11, 97, -33, 87, -11, 81, -28, -18,
    -80, -30, -42, -16, 70, 75, 31, -110,
    -18, -76, -117, -13, 78, -45, -81, -103,
    -16, 20, 67, -81, 21, -6, 57, -70,
    41, -37, -11, 35, -6, -36, -49, 26,
    29, -56, 4, 74, 39, -92, -105, 50,
    -56, 28, 65, -75, 5, 10, -33, 68,
    4, -52, 18, 75, -12, 77, 71, -50,
    -71, -26, 97, 64, 67, -61, -78, 14,
    -60, 58, 53, -16, 3, -4, -34, -4,
    -91, -85, 88, -17, 25, -30, 41, 2,
    42, 4, -59, 5, 43, 79, 13, 77,
    10, -62, 62, -64, 127, 50, 8, 11,
    116, -88, 113, -21, -57, -26, 29, 116,
    -59, 51, 45, 52, -63, -58, 5, -78,
    -84, -22, 62, -25, -64, 22, 14, -99,
    -48, -49, 63, 81, 83, -106, -13, 20,
    -46, -107, 62, -32, 31, 39, -65, 47,
    75, 98, 17, -96, -33, -32, 28, 86,
    -27, -17, 26, 39, 54, 109, 52, -23,
    58, 26, -43, -9, 19, -68, 37, -41,
    -39, -45, 10, -8, -112, -17, 95, -26,
    72, -8, 71, 93, 127, -57, -65, 66,
    95, 64, -16, 24, -24, -41, 104, -38,
    -17, 40, -31, 55, -57, 113, 8, 24,
    30, 1, -7, -26, 15, 110, 79, 66,
    -86, -94, 27, 55, 86, 114, -3, -46,
    35, -22, 76, 50, 20, -19, 33, -86,
    -80, 48, 23, -39, -21, 100, -51, -127,
    -65, -22, 7, 93, 115, 52, 68, 71,
    -57, -127, 35, -71, 48, 69, -88, 45,
    -13, -77, 78, 106, 19, -11, -54, -11,
    83, -47, -11, -52, -28, -100, -42, 26,
    9, 11, 120, 23, -55, -70, 8, -27,
    26, -51, 106, 23, -97, 46, -6, 51,
    75, 56, -92, 39, -55, 17, -108, -79,
    -19, 13, -63, -76, 40, 67, -12, 60,
    84, -77, 40, 13, 57, -104, 4, -75,
    -125, -101, -32, -85, -37, -79, -27, -43,
    -68, -87, -85, -60, 90, 73, -23, -87,
    38, -26, 20, 52, -25, 57, -17, 19,
    -14, -66, 49, 90, -70, 73, -48, -118,
    56, 27, 56, -36, -127, -5, 68, -127,
    47, 67, -30, -8, -127, -34, -127, 52,
    60, -127, -2, 22, -48, 37, -51, -56,
    73, -52, 36, -29, -127, -5, 40, 37,
    9, 36, -112, -127, 58, 61, -49, 48,
    -22, -15, -66, 65, -19, -86, -74, 47,
    61, 43, -27, 96, 30, 87, -30, 27,
    20, 0, -111, -57, -67, -72, 11, -36,
    3, -28, -81, -92, 30, 127, 69, -35,
    27, 96, 70, 95, 26, -83, 3, 47,
    103, 127, -9, -36, 60, 29, 47, -96,
    80, -45, 21, 95, 68, -17, -47, 101,
    -31, 46, -100, 37, 24, -38, 69, -24,
    -24, 74, 65, -46, -49, -86, 90, -61,
    -5, 24, 22, -58, 88, -45, 38, -22,
    -10, 15, -101, 87, -55, 42, 54, 64,
    22, -62, 61, 73, -14, 16, 13, 93,
    14, -66, 26, -27, -42, -57, 43, 52,
    -24, 68, -73, 77, -58, -28, -65, 28,
    55, 64, 91, 55, 83, -12, -65, 47,
    18, -19, 2, -59, 21, 14, 82, -39,
    66, -68, -127, -32, 15, -72, 9, -93,
    -86, 72, -79, -38, 16, -74, 29, -20,
    -73, -7, 80, 0, -97, 33, 71, 72,
    -71, -97, -74, 92, -126, -89, 68, -15,
    -99, 45, 10, 113, -21, 33, 121, 29,
    55, 42, -78, -56, -79, 42, -68, -29,
    -57, 53, -18, 6, 9, -43, -38, -21,
    -54, 27, -68, 68, -18, -45, -73, -15,
    -39, -81, 101, -14, -3, -20, -37, 26,
    -120, -65, -65, 101, -86, 79, 82, 29,
    -36, 43, 69, 18, 81, -2, 86, -29,
    0, 76, 86, 35, 13, -3, 67, 126,
    12, -65, 28, -43, 69, -44, -42, -73,
    77, -47, 91, -96, -36, -7, -68, -97,
    63, -62, 28, 4, 59, -45, -88, -8,
    -82, -77, -67, 101, -103, -33, 72, 127,
    -25, 14, -23, 3, -44, -88, 53, -88,
    51, 20, -77, 73, -77, -33, -30, 68,
    62, 51, -15, 40, 103, -47, 14, 27,
    61, 17, -75, -87, 69, 49, -123, -16,
    -53, 63, 55, 57, -66, -78, -99, -116,
    -26, 45, -37, -79, 105, -13, -92, 65,
    32, 1, 19, 26, 46, -25, 80, -60,
    -66, 15, -29, 38, -57, -26, -71, 5,
    -40, -7, 2, -103, 63, 22, -99, 19,
    -106, -82, 52, -43, -22, -12, -127, -125,
    -38, 50, -32, 8, -127, -92, 51, 41,
    93, -15, -66, -82, -18, 28, 30, -61,
    -88, -112, 0, -32, -82, 13, -84, 18,
    71, -44, -85, -77, -116, 62, 74, 62,
    -22, 5, 36, -87, -73, 103, -66, 92,
    -116, 44, -37, -44, -49, -64, 36, -38,
    60,
};

// Shape: (43,), dtype: float32
static const float wrapped_backbone_freq_stack_3_pointwise_bias[43] = {
    -0.00804567f, 0.06329880f, -0.03145526f, -0.05918712f, -0.04239966f, -0.10696626f, 0.02088957f, 0.03056692f,
    -0.12306251f, 0.11910481f, 0.09728065f, 0.13151649f, -0.06398492f, -0.13998160f, 0.09138935f, -0.11956566f,
    0.09061907f, 0.05613657f, 0.01162176f, -0.04085428f, 0.06974503f, 0.14785232f, -0.05314210f, -0.05605285f,
    -0.00631420f, -0.08152847f, 0.06344181f, 0.09284419f, 0.10021912f, -0.07795474f, -0.01172389f, -0.11458274f,
    0.10879352f, 0.13855280f, 0.11587907f, -0.13021459f, -0.07296059f, -0.05517903f, -0.12916157f, -0.11908276f,
    -0.08369850f, -0.07690815f, -0.05369727f,
};

// Shape: (43,), dtype: float32
static const float wrapped_backbone_freq_stack_3_bn_gamma[43] = {
    0.98486716f, 0.96037316f, 1.03638732f, 1.04260242f, 1.01368546f, 0.95681345f, 0.95573664f, 0.91871572f,
    0.92456710f, 0.94146085f, 0.98375177f, 0.90907007f, 0.96486437f, 0.96653235f, 0.98653203f, 0.95464194f,
    0.99184132f, 0.95610386f, 0.96437228f, 1.03094316f, 0.94775581f, 1.01045156f, 1.01777697f, 0.95309663f,
    0.95877492f, 0.99375802f, 0.94915241f, 0.89350641f, 0.92936695f, 0.96227401f, 1.01777589f, 0.98841834f,
    0.94552499f, 0.92754650f, 0.93346113f, 0.95339876f, 1.01306880f, 0.98105317f, 0.97405660f, 1.03713048f,
    0.96080530f, 0.99071598f, 0.99636304f,
};

// Shape: (43,), dtype: float32
static const float wrapped_backbone_freq_stack_3_bn_beta[43] = {
    0.02012691f, -0.05402129f, 0.00105318f, 0.02390224f, 0.06993460f, -0.03940844f, -0.00461674f, -0.03778516f,
    -0.09440150f, -0.04665436f, 0.02344789f, -0.08067591f, -0.01930920f, 0.00009186f, -0.01828614f, -0.03916186f,
    -0.02482022f, -0.06523767f, -0.05364086f, -0.05595780f, -0.05694344f, 0.00808920f, -0.00942497f, -0.02513477f,
    0.01212670f, -0.00719238f, -0.02465351f, -0.06647350f, -0.15827578f, -0.00391425f, 0.01589522f, 0.02420777f,
    -0.03900797f, -0.06243808f, -0.10517490f, -0.01256264f, 0.03494637f, -0.02300478f, -0.02791751f, 0.00801035f,
    -0.01977065f, 0.00353876f, -0.02745861f,
};

// Shape: (43,), dtype: float32
static const float wrapped_backbone_freq_stack_3_bn_mean[43] = {
    0.04249059f, 0.03965492f, 0.00838718f, -0.02018171f, 0.01957570f, -0.03735345f, 0.11212759f, 0.08968961f,
    -0.12072189f, 0.20935537f, 0.04505034f, 0.16000517f, -0.05124213f, -0.21752702f, 0.12959377f, -0.07323708f,
    0.14138104f, 0.01897758f, 0.08861873f, 0.00001260f, 0.13625774f, 0.23199542f, -0.08757240f, -0.05857078f,
    0.07499586f, -0.03317886f, 0.08510077f, 0.14098062f, -0.02986371f, -0.04589431f, 0.05375473f, -0.14138643f,
    0.18899594f, 0.17296228f, 0.06961568f, -0.04876589f, -0.03237776f, -0.00259295f, -0.05603138f, -0.23467292f,
    -0.03664987f, -0.02325781f, 0.05145726f,
};

// Shape: (43,), dtype: float32
static const float wrapped_backbone_freq_stack_3_bn_var[43] = {
    0.05273426f, 0.05012596f, 0.03925632f, 0.05844225f, 0.08422126f, 0.06168506f, 0.08350933f, 0.08405302f,
    0.06303427f, 0.10102315f, 0.04903813f, 0.03892639f, 0.04988663f, 0.07537247f, 0.04782829f, 0.05418231f,
    0.05946767f, 0.05522112f, 0.05273466f, 0.05435887f, 0.06818236f, 0.09645307f, 0.05724252f, 0.05743134f,
    0.11097305f, 0.06952222f, 0.06073528f, 0.07182551f, 0.13617752f, 0.05175239f, 0.06319302f, 0.07453288f,
    0.08196794f, 0.05663905f, 0.06126277f, 0.08611914f, 0.08649854f, 0.07682360f, 0.06117890f, 0.11673030f,
    0.08526083f, 0.06006786f, 0.09050353f,
};

// Shape: (1, 3, 43), dtype: int8
static const int8_t wrapped_backbone_freq_stack_4_depthwise_weight[129] = {
    127, 36, 102, 18, -127, 44, -118, -127,
    -125, -127, -117, 97, 127, -70, -127, 127,
    53, 127, 0, -58, 127, -91, 55, -14,
    -85, -125, 111, -127, -127, -98, 31, 28,
    -127, 86, -120, 127, 94, -127, -127, 22,
    31, 7, 104, -47, 69, 127, 32, 30,
    -55, -127, -78, -127, -40, -56, 127, -61,
    -33, -10, -7, -127, 72, -61, 127, 26,
    -98, -127, -25, 49, 55, -115, -107, -14,
    -127, 23, -127, -72, 127, -57, 82, -127,
    37, 86, 50, 30, -1, 127, -35, 127,
    -72, -127, 31, -127, -66, -72, -51, -101,
    127, -10, -13, 127, 38, -81, 27, 9,
    -127, 64, -50, 127, 1, -127, -127, -127,
    127, -91, -27, 115, -127, 54, -48, 41,
    -127, -73, -17, 18, -97, -127, -127, -127,
    -36,
};

// Shape: (1, 1, 43, 43), dtype: int8
static const int8_t wrapped_backbone_freq_stack_4_pointwise_weight[1849] = {
    -22, -2, 92, -119, 87, 66, 38, -89,
    101, -52, -93, -53, 70, -24, -43, 117,
    -43, -127, -20, 66, -117, -17, 47, -81,
    34, 80, -53, 66, -44, 6, 22, -99,
    63, -51, -46, 84, 17, 19, 116, -44,
    43, 98, -41, 33, -86, 74, 121, -30,
    63, 5, -22, 49, -42, -72, 115, -83,
    -87, 69, -87, 77, -36, -28, 77, 46,
    127, 111, 70, -65, -51, -37, -41, 49,
    -40, -13, -47, -51, -35, 4, -1, 110,
    85, -74, -86, -17, 127, -8, -71, 93,
    41, -9, 35, -48, -50, 22, 25, -32,
    -9, -71, 59, -95, -68, -78, -63, 92,
    -12, 127, 90, 46, 6, 12, 100, 91,
    -21, -11, -23, 99, 62, -24, -4, -85,
    91, 107, -54, -95, 16, 122, 12, 36,
    -84, 88, -19, 33, 18, -119, -127, -78,
    -42, -48, -110, -126, 110, 127, -6, -16,
    58, 70, -95, -93, 97, -79, -6, -44,
    -30, -7, 0, 13, 90, -118, -76, -58,
    -26, -60, -66, -121, -45, 76, 46, 114,
    17, 20, -50, 38, -52, -124, 104, -30,
    -42, 61, -70, 7, -84, -82, 60, -27,
    -52, -17, -69, 86, -97, -88, -56, -4,
    -1, -5, -127, 55, -76, 74, -22, -126,
    96, 59, -35, 122, -16, 76, -71, -45,
    -105, 19, 29, -39, -121, 19, -64, -42,
    -84, 18, 79, 6, 88, 44, 49, -116,
    -59, 50, 12, -25, 23, -51, -87, 83,
    35, -39, -18, -25, -68, 63, -64, 41,
    27, 87, -31, -103, 127, -87, -57, 57,
    -70, -4, -15, -103, 127, -45, 33, -41,
    -43, 19, 96, 81, -18, -88, -79, -49,
    38, -51, -75, -96, 88, 87, 12, -115,
    18, 17, -40, 27, 20, 51, -104, 42,
    -38, -3, 59, 99, 107, -23, -77, 1,
    42, 37, 77, 60, -71, -17, -20, 91,
    -70, 1, 37, 26, 127, 127, 53, -70,
    9, -44, -87, 25, -77, 56, 84, -31,
    -9, 49, -6, -39, 55, 1, 26, 66,
    -61, 35, 10, -75, 13, -43, 96, 60,
    110, -33, -38, -60, -68, 53, -73, 95,
    -31, -73, 22, -80, 69, 66, 37, 65,
    100, 7, -33, 49, 93, -28, -27, -58,
    -98, -28, -83, -70, 7, 44, 56, -92,
    -3, 67, 31, -63, -12, 67, 61, 7,
    17, -59, 77, -96, -34, -88, -21, -69,
    28, 58, 18, 40, -127, 74, 113, -10,
    92, -32, 78, -47, -50, -26, -69, 34,
    75, -55, -101, 11, -6, 75, -16, -67,
    14, 58, -97, -28, 58, -43, 57, -73,
    42, 0, -11, 18, -58, 123, -39, 94,
    76, -75, -1, -81, -28, -58, 16, -2,
    81, -24, 42, -62, 3, 91, 12, -71,
    12, 35, 127, 110, 96, -30, 49, -61,
    94, -127, -61, 89, -27, 84, -37, 34,
    -4, 67, 74, -9, 5, -36, -76, -19,
    -24, 111, 17, -20, -27, -111, -43, -63,
    24, 62, 73, -77, -46, 48, 42, 70,
    -57, -91, 101, -21, -112, -74, -40, 53,
    78, -116, 76, 69, -96, -41, -40, 11,
    110, 110, 81, 115, 68, -93, 52, -40,
    -87, -16, -77, 14, 37, 40, 22, -32,
    48, 32, 17, 3, -38, -77, 33, 53,
    -72, -12, 78, -94, -42, -45, -100, 75,
    81, 54, 3, 108, -1, 42, 48, -103,
    95, 22, -18, -34, 51, 96, -102, 38,
    -32, -48, -55, 86, 52, -89, -5, 99,
    -76, -86, -73, 94, -21, -44, -127, -72,
    -74, -15, -59, -97, 113, 2, -7, 71,
    38, -100, -8, 21, -50, 38, -32, -103,
    59, 44, -33, -45, 62, 14, -68, 96,
    -44, 91, 84, -38, 87, -83, -37, 50,
    64, 19, -84, -90, 92, -74, -84, -46,
    -54, 110, 34, 28, -9, 38, 26, -28,
    124, 30, 11, -50, -14, 37, 41, 42,
    92, -86, -116, 69, -113, -48, 27, 55,
    83, -4, 10, -15, -90, -39, 3, 2,
    -63, -59, 1, 64, 77, 64, -14, -96,
    -97, 68, 73, 88, -34, 67, 37, 29,
    -83, -37, 60, -31, 81, -77, 19, -58,
    66, 50, 28, -36, 1, 26, 38, 35,
    117, -81, -65, 28, -99, -79, -68, -15,
    22, -56, -25, 77, 55, 74, 90, 28,
    68, -7, 51, -70, 59, 84, 29, 94,
    -58, 94, -6, -7, 44, -60, -50, -29,
    -48, -32, -40, 103, 2, 108, -127, 45,
    113, -95, -48, -11, 15, -94, -71, 64,
    38, 105, 89, 7, 0, -63, -21, -94,
    77, 70, -10, -52, -106, -58, -105, 114,
    -43, -32, -45, -19, -61, 59, 104, -92,
    -102, 99, -18, 44, 125, 95, 97, 33,
    53, 62, -89, 24, 59, 89, -74, 41,
    77, -49, -127, 55, 82, -46, -28, -76,
    59, 16, -59, -58, -93, 56, 90, 114,
    -52, -25, -88, 106, -33, 51, -53, -78,
    30, 49, -13, 69, 20, 82, 94, -118,
    55, -42, -34, 34, -18, 56, 69, 42,
    -24, -69, -8, -66, 23, 126, -94, -64,
    47, 82, 9, -22, -23, -21, -14, 121,
    53, -24, 74, -93, -87, -126, 44, 21,
    -9, -81, -82, 111, -64, 66, 53, 25,
    31, 97, 32, -56, -14, -34, 126, 91,
    -19, 90, 56, 57, 27, -15, 33, -98,
    -2, 102, -78, 28, 17, 110, 24, 87,
    68, -55, -112, -73, 65, -13, -56, -91,
    79, -86, 90, -6, 69, 59, -33, 127,
    56, 32, -3, -92, 72, 20, 18, -107,
    28, 19, 102, 5, -116, -6, 16, 72,
    73, 43, -40, 44, -25, 19, 6, 27,
    -17, 65, -27, 14, -63, 48, -72, 22,
    -111, 6, -1, 78, 29, -10, 69, 75,
    73, -46, 27, 97, 60, -44, 67, 46,
    -14, -66, -66, -98, 78, 94, -122, -113,
    -97, 54, -57, -37, -84, -15, 69, 11,
    -51, -48, 81, 87, -91, -70, 47, -78,
    -79, 38, 37, 41, 17, 81, 78, 56,
    -91, 19, -63, 82, -47, 2, 55, -61,
    -64, 34, -98, -103, 54, -120, 125, -58,
    109, 127, -20, 112, 46, -82, 14, -42,
    28, 22, -115, 16, 62, 86, -127, -55,
    -80, 43, -127, -16, -54, -18, -86, -89,
    -26, 127, -32, -19, -17, -51, -99, -62,
    124, -87, 14, -18, -45, -99, 39, -30,
    -127, 21, -45, -31, 24, -26, -24, 40,
    -22, -11, 13, -59, 4, 27, -102, 58,
    -44, -11, 49, 76, 77, -86, 20, 70,
    86, 38, 87, 56, -31, 111, -43, 86,
    -34, -13, 48, 113, -46, -23, 41, 52,
    40, -7, 61, 46, 41, -4, -40, -33,
    -43, 49, -80, -48, -38, 12, -83, 13,
    -26, 86, -69, -6, 83, 60, 90, -29,
    -85, 58, 30, -127, 32, -120, -35, 19,
    -9, 48, 43, 37, -73, 38, -70, -17,
    -92, 22, 34, 27, 99, -32, 65, 72,
    63, -125, -119, 66, 88, 62, 35, 50,
    67, 43, -74, -4, -73, -127, -5, 48,
    -33, -106, -30, -8, 47, 127, -92, 0,
    82, -93, -1, 58, -99, 103, -76, -107,
    -14, -90, -76, 98, -104, 84, 22, -72,
    -8, 29, 59, -34, 74, -1, 84, -75,
    -91, -60, -63, -1, 5, 116, -49, 59,
    53, 16, -56, 20, 48, 65, -59, 47,
    1, 92, -80, 42, 11, 57, -86, 2,
    -69, -54, -99, -19, -73, 67, 56, 71,
    37, -96, 46, -6, 96, 4, -46, -50,
    27, 49, 13, -78, 16, -75, -66, -45,
    -43, 45, -30, 49, -74, 35, 33, -51,
    -74, -33, 100, 46, 8, 27, -59, 55,
    66, 81, 12, -81, 48, 29, 41, 19,
    -106, 81, 35, 60, 21, 112, -104, 97,
    23, -19, 105, -21, 38, -58, -3, -58,
    7, 73, -24, 61, 91, -23, 58, 58,
    -58, -2, -36, 41, 70, -127, 42, -9,
    -127, 98, 5, -79, 43, 11, 18, 32,
    58, -20, 53, 100, 42, 98, -40, 33,
    64, 57, 57, -57, -48, -38, 90, -43,
    76, -81, -14, 51, 80, -87, -94, 116,
    -110, 44, 79, -71, -16, 34, -79, -80,
    -19, 7, 115, 112, -78, -30, -29, -64,
    35, -80, 34, 43, 66, 96, -49, 58,
    -110, -8, -43, -28, -127, -125, -14, -108,
    79, 33, 72, -22, -64, 53, -7, -127,
    -37, -107, 5, -12, 63, 78, -121, 68,
    -84, 4, -2, 124, -57, 62, -24, -19,
    55, -69, 115, -109, -84, 35, -96, 115,
    -19, 100, -127, -93, 55, -79, -101, 49,
    66, 57, 99, 9, 60, -61, 110, -127,
    7, 38, -38, 0, 114, 84, 15, 62,
    -16, -19, -49, -46, 2, -89, 59, 68,
    91, -58, -21, -127, -24, -34, 82, 57,
    63, -20, -12, 74, 75, 22, 24, -50,
    83, 41, -50, -92, -45, -91, -86, 23,
    79, -104, -41, -18, -16, -19, -38, -57,
    95, 43, 26, 37, 45, -72, -30, -105,
    -65, 101, 8, 67, 101, 85, 45, -92,
    82, -64, 84, 30, 27, 81, -96, 70,
    -91, 57, 1, -105, -1, -26, 56, 70,
    3, -79, -101, -32, -3, 80, 59, 14,
    -55, -22, 68, 20, 23, 87, 23, -53,
    -2, 21, -89, -54, -123, 5, -2, -77,
    -8, 37, 31, 80, 33, -2, -4, -27,
    -27, 66, 99, 12, -85, -52, -9, -47,
    -50, -107, 14, 17, -99, 12, 68, 79,
    -44, -31, 14, 37, 86, -112, -53, 52,
    -101, 9, -20, -24, 22, 16, -59, 62,
    -54, -39, 6, -121, -32, 97, -21, 47,
    -57, -11, 121, -32, 9, -3, 110, 15,
    14, -49, -53, 28, 107, -44, 80, -77,
    23, 3, -32, 15, -48, 83, -29, 20,
    -69, -112, 43, 31, -51, 105, 93, -121,
    70, 9, -108, -88, -22, 28, 22, -39,
    -77, 78, 20, -7, 39, 96, -71, -8,
    80, -24, 78, -11, -116, -69, -40, 90,
    -74, -16, 96, 49, 20, 2, 7, 99,
    27, -72, -54, -50, -29, 67, 19, -19,
    -36, -21, 67, 102, -49, 96, 14, -35,
    -12, -29, -27, -38, 127, -55, -13, -11,
    31, 4, -47, 22, -31, 74, 84, -46,
    -102, 63, -10, 4, 81, -112, -32, -78,
    80, -49, -92, -23, 68, -79, 50, 22,
    28, 19, -21, -10, -37, -56, -85, 79,
    19, 19, -108, -97, 45, -72, -3, 43,
    -105, -84, 62, 75, 29, -101, -98, -77,
    -85, -3, 120, 5, 69, -82, 31, -112,
    6, -76, 17, 77, 40, 5, 0, 65,
    -72, -20, 35, -66, 53, -89, -81, -29,
    -63, 47, -71, -47, -3, -105, 34, 12,
    4, -49, -72, 14, -97, -41, -98, 10,
    109, 127, 6, 47, 68, -41, -108, 69,
    -110, 30, 112, 28, 82, -77, 112, -43,
    -100, 34, -71, 127, -18, -12, 68, 102,
    -71, 88, -31, 31, 127, -88, -40, 38,
    -87, -80, -76, 21, -11, -93, 127, 73,
    127, -111, 48, 26, 31, -8, -54, 2,
    -4, -127, -26, -118, 84, -17, -58, 47,
    54, 10, -98, 90, 48, -106, 11, 29,
    127, -58, -47, -35, -70, -11, -38, -45,
    -51, 9, -48, -99, 63, -5, 50, 10,
    82, -78, -54, 3, 99, 25, -15, 107,
    -13, -51, -72, -17, 49, 77, 67, -23,
    -22, -96, -61, -64, -127, -47, 74, 49,
    36, 29, -87, 72, 69, 35, 64, 58,
    -101, 55, 7, -57, 25, 28, -14, -19,
    94, -76, -38, 85, 7, -34, -54, 45,
    97, 23, -44, -66, 1, 69, -98, 73,
    51, 83, 20, -82, 27, -63, 127, 44,
    -88, -75, 36, -64, 5, -87, 100, 100,
    -31, 58, -22, -52, 72, -54, 86, -89,
    -82, 9, 57, -82, -70, -43, 36, -64,
    120, 14, 34, -66, -90, 42, 43, 113,
    -67,
};

// Shape: (43,), dtype: float32
static const float wrapped_backbone_freq_stack_4_pointwise_bias[43] = {
    0.10048916f, -0.02422989f, -0.13784340f, -0.02520557f, -0.00929671f, -0.14177281f, 0.05927017f, -0.01525309f,
    0.12457626f, -0.05579255f, 0.09418340f, 0.01098806f, -0.02621482f, 0.12282275f, -0.13413756f, 0.08884109f,
    0.10803230f, 0.08282757f, 0.04752159f, 0.13738064f, 0.10553658f, -0.13469453f, -0.14327423f, -0.07889936f,
    0.02022665f, 0.02534022f, 0.14294134f, -0.06382082f, -0.02299963f, -0.06528100f, 0.00599946f, -0.04070623f,
    0.00465683f, 0.06825238f, 0.12315062f, 0.09885787f, 0.11953701f, -0.03746747f, -0.08486318f, 0.01693307f,
    -0.10061841f, 0.00753945f, -0.00092570f,
};

// Shape: (43,), dtype: float32
static const float wrapped_backbone_freq_stack_4_bn_gamma[43] = {
    0.98156148f, 0.94158888f, 0.97759181f, 0.96698749f, 0.98428315f, 0.98113978f, 0.97091585f, 0.99706793f,
    0.98193443f, 0.97770083f, 0.96115661f, 0.98273432f, 0.98085839f, 0.97019303f, 0.97355366f, 0.97969562f,
    0.96245134f, 0.98616451f, 0.96457958f, 0.99172312f, 0.98126090f, 0.97130859f, 0.97706485f, 0.97792369f,
    0.96559006f, 0.98625362f, 0.98511046f, 0.96590698f, 0.96801549f, 0.97090626f, 0.97928369f, 0.99902916f,
    1.00216985f, 0.98956287f, 0.95722061f, 0.97432578f, 0.97100163f, 1.00824773f, 0.96176505f, 0.97923744f,
    0.96792477f, 0.98703927f, 0.96351552f,
};

// Shape: (43,), dtype: float32
static const float wrapped_backbone_freq_stack_4_bn_beta[43] = {
    -0.04853990f, -0.04061767f, -0.01952282f, -0.02396509f, 0.03550186f, 0.03757768f, 0.08407154f, 0.05520104f,
    -0.00147256f, -0.01841255f, 0.01897081f, -0.00972162f, 0.05542025f, -0.01877054f, 0.05867741f, 0.05285337f,
    -0.02789717f, 0.02606972f, -0.01991639f, 0.03975468f, -0.01156515f, -0.01692744f, 0.00496043f, 0.02756825f,
    0.02434635f, -0.06490528f, -0.06362113f, 0.01671237f, -0.03975544f, 0.00216543f, 0.01383233f, 0.03234333f,
    -0.01167874f, 0.02998834f, 0.04035807f, -0.01368419f, 0.04514749f, -0.09832314f, 0.06796841f, 0.03846437f,
    0.00374359f, 0.00931505f, -0.10067250f,
};

// Shape: (43,), dtype: float32
static const float wrapped_backbone_freq_stack_4_bn_mean[43] = {
    0.02302030f, 0.00999359f, -0.10787170f, 0.04017756f, -0.00131802f, -0.09792884f, 0.12330197f, -0.00004453f,
    0.15383002f, -0.05268585f, 0.15881993f, 0.00487615f, -0.01087064f, 0.11683974f, -0.10796889f, 0.12476221f,
    0.09737447f, 0.11200537f, 0.05330057f, 0.17036507f, 0.12746567f, -0.07064830f, -0.08129761f, -0.05764602f,
    0.12026203f, -0.15230100f, -0.05685493f, -0.01215188f, -0.02084472f, -0.03663157f, 0.05933496f, -0.02600705f,
    -0.07196940f, 0.07615239f, 0.18392980f, 0.11695234f, 0.16883719f, -0.23142663f, -0.06386591f, 0.04349446f,
    -0.09951817f, 0.03551066f, -0.16899073f,
};

// Shape: (43,), dtype: float32
static const float wrapped_backbone_freq_stack_4_bn_var[43] = {
    0.13529214f, 0.04340468f, 0.03074117f, 0.06921846f, 0.04970772f, 0.06213655f, 0.09031849f, 0.06021320f,
    0.04796658f, 0.05811583f, 0.06821084f, 0.05600640f, 0.04927178f, 0.05492512f, 0.05761458f, 0.06757448f,
    0.04808410f, 0.05839437f, 0.05919734f, 0.06434543f, 0.05958035f, 0.04171620f, 0.07587074f, 0.07408188f,
    0.08641277f, 0.21499622f, 0.29215133f, 0.07455529f, 0.05127614f, 0.05879626f, 0.05419865f, 0.05589614f,
    0.10890507f, 0.06369364f, 0.07901997f, 0.04576587f, 0.08312263f, 0.30043030f, 0.07921547f, 0.08275349f,
    0.05649369f, 0.05604464f, 0.21724103f,
};

// Shape: (774, 42), dtype: int8
static const int8_t wrapped_backbone_spectrum_proj_weight[32508] = {
    -55, 22, 55, 13, -4, -24, -7, -84,
    39, -98, -76, -15, 61, -30, 76, 67,
    16, -19, -20, -34, 3, 59, -44, -46,
    -62, 38, 29, 68, -29, 63, -45, -11,
    -106, -49, -38, -38, -39, 12, -53, 104,
    -99, -59, -49, -16, 9, -89, 53, -8,
    6, 38, 4, -90, 26, -2, 1, -22,
    -37, -40, -62, 7, 45, 31, 50, 30,
    111, 73, 66, 24, 42, -53, -9, -15,
    34, -76, 95, -127, 22, 24, -46, -26,
    -85, 12, -31, 22, -56, -62, -21, 9,
    -36, -26, 38, 66, 64, -98, 60, -17,
    61, -12, -24, -4, -67, -5, 22, 13,
    -44, 49, 74, -23, 67, -19, 20, 13,
    -31, -32, 58, -33, 0, -79, 3, -28,
    -45, 65, 27, -25, -25, 33, -2, -42,
    71, -6, 75, 28, 36, 97, 70, -74,
    80, 28, 32, 5, -28, -44, -6, 105,
    8, -26, -15, 35, 49, 0, 3, 7,
    -48, -60, -69, -29, -30, -82, -28, 24,
    39, 21, -21, -34, -43, -127, 120, 41,
    -65, -82, 32, -3, 20, 18, 16, 45,
    79, 7, 6, 39, -46, -4, 2, -33,
    -34, 5, -4, -43, 6, -31, 16, 57,
    -49, -38, 40, 22, 13, 10, -8, -33,
    66, -93, 51, -85, 30, -13, 7, -47,
    7, 24, 32, 11, -23, -86, 19, -20,
    42, -5, -3, -5, 2, 0, -22, 28,
    2, -17, -8, 47, 25, 2, -8, 6,
    19, -55, 22, -32, -9, 8, 24, 24,
    -18, 6, 36, -83, -11, -5, -12, 14,
    -31, 10, -68, 19, 20, -13, -58, -52,
    -62, -88, 5, -12, 50, 18, -12, -35,
    -21, 24, 57, 30, -45, 7, 43, 53,
    18, -22, 93, -48, -12, 54, 56, 22,
    -39, 52, -9, -67, -15, 18, 60, 35,
    -15, 67, -37, 2, -45, 14, -61, 39,
    -24, -80, -22, 20, -6, -5, -12, 34,
    30, 67, -5, 76, 44, 45, -39, -16,
    47, 33, -10, -69, 35, -54, -6, 31,
    -19, 14, 2, -70, 45, -107, 62, 34,
    -4, 12, 26, 66, -51, 20, -11, -27,
    23, -38, 55, -81, -42, -69, -29, 27,
    -26, 62, -59, -31, 54, -45, -26, 9,
    51, -60, 22, 32, -61, 73, 46, -3,
    38, -4, 7, 7, -28, 38, -23, 31,
    6, -71, 26, -8, 14, 25, -56, 18,
    16, 6, -96, -43, 14, -21, -76, -71,
    -88, 21, 3, 71, -42, -17, -43, 5,
    59, 19, -23, 7, 0, 26, -21, -74,
    35, -20, 17, 75, 35, -3, 11, 51,
    1, -15, 90, -26, 15, -15, -93, 91,
    37, 45, 12, -44, 3, -27, 35, 55,
    -23, 36, 43, -4, 76, -15, 15, 37,
    -22, 7, -38, -16, -6, 17, 19, -1,
    -107, -56, 8, 31, -6, -57, 4, -38,
    7, 20, -48, -103, -31, -65, 1, -23,
    3, 51, -52, -41, 18, 30, -55, 45,
    36, 63, 2, 1, 14, 53, 35, 9,
    25, 35, 25, 86, -18, -47, -70, -56,
    36, 12, -49, 46, 19, 9, -24, 29,
    15, 6, -85, -38, 30, 5, 100, -70,
    -33, 41, -23, 13, 1, -14, -5, -64,
    37, -44, -33, 6, 53, -33, 32, 44,
    -23, -15, 62, 15, 26, -22, 13, 14,
    -33, 17, -52, 20, -18, 54, 48, -43,
    15, 74, 11, -3, -68, -38, -50, -41,
    -49, 27, -48, -4, -45, 22, -70, 55,
    43, -50, 38, -53, -41, -94, 75, -7,
    -22, 3, 44, 72, -6, -28, 29, 55,
    49, -9, -27, 16, -2, -29, -56, 14,
    -6, -25, 31, 76, -31, -3, 1, -15,
    -54, -15, -1, -23, 21, -74, -51, 21,
    -30, 64, 35, -35, 3, -36, 4, 61,
    -17, 10, 34, 43, -16, 46, -44, 10,
    29, -28, -39, -48, 12, 33, -35, 49,
    -84, 47, 30, -7, -25, -5, 5, 22,
    -15, 22, -58, -3, 60, -74, 44, 31,
    -34, 24, -76, 11, 53, -20, 33, 24,
    -10, 7, 25, -35, 44, 19, -13, 59,
    -51, 52, -47, 67, -7, -55, -53, 29,
    -20, -24, -50, -58, -8, -57, 38, 59,
    4, -22, 40, 17, -10, -10, 26, -8,
    -37, 39, -38, 39, -87, 11, -22, -64,
    28, -67, 40, 47, 19, 0, -45, 14,
    40, -67, -45, 18, -9, 24, -20, -41,
    5, -12, 15, 34, -34, 58, -23, -42,
    11, 42, 10, 50, -61, 44, -45, 54,
    62, 2, -6, -52, 11, 3, -6, -20,
    -51, -6, -57, -26, 59, 42, -71, 37,
    12, 10, 52, -6, 7, -35, 1, 0,
    31, -29, 18, -21, -33, 5, -22, 35,
    84, 36, 90, -8, -38, 12, 4, 34,
    -28, -65, -15, 0, -32, -16, -4, 9,
    2, -31, -56, -27, -77, 14, -7, -25,
    44, -19, -53, 22, -4, -3, -55, -66,
    49, -43, 61, 73, -19, 40, -44, 32,
    -52, 36, 23, -4, 0, -16, 20, 4,
    -39, 39, 30, 30, -68, 11, -20, -28,
    -87, 100, -39, 41, 11, -10, 4, -51,
    -13, 2, -27, -86, -12, 58, -17, 50,
    27, -46, 47, 50, -31, 6, -11, -16,
    -55, 3, 59, 51, 29, -18, -54, -43,
    -17, -40, 14, 3, 24, -36, -20, -72,
    19, 10, 56, 7, -31, 60, -40, 48,
    -82, 47, -11, 1, -54, -57, 22, 18,
    -29, -39, -4, 40, 69, 33, 13, 27,
    48, 45, -29, -20, -10, 96, 64, -33,
    -7, 20, 18, -5, -40, 16, -64, 51,
    12, 30, -33, -22, -50, -37, 20, -18,
    -88, -37, 37, 53, 21, -3, -49, -20,
    -53, 29, 27, -91, -34, -46, -24, 25,
    54, 40, 19, 25, 16, 24, 40, -18,
    12, -33, -25, -49, 42, 59, 40, -21,
    48, -7, 13, 14, -27, 31, 3, 54,
    44, -2, -74, 54, -54, 45, -51, 36,
    -78, -57, -6, 32, 40, 59, -14, -66,
    55, -3, 11, 63, -36, -19, 24, 23,
    55, -21, 88, -30, -58, -9, 20, 78,
    12, -3, -49, 36, -31, 59, -53, 51,
    -90, 89, 45, 110, 4, -5, 43, 19,
    10, -34, 61, 17, 37, 30, 67, 42,
    25, 59, 0, 15, -9, -1, -45, 59,
    -53, 13, -7, 33, -37, 20, -52, 21,
    24, -60, -13, -22, 12, 30, 43, 15,
    -29, 21, -17, -24, -10, -34, -50, -21,
    52, 35, 52, -9, -42, -5, -14, -7,
    18, 51, -11, 61, -3, -6, -26, 41,
    -16, 91, -52, 62, 63, -22, 12, -44,
    32, 69, 27, -8, 95, 5, 38, -26,
    51, 22, 14, -26, 0, -16, 2, 27,
    0, -6, -65, -34, -35, 15, 40, 13,
    -35, -16, -6, -35, -22, 4, 66, -35,
    15, 97, -5, 10, -34, -23, 21, -45,
    45, 24, 68, 12, -17, 32, -11, 46,
    58, -38, -33, -47, 2, -74, -14, 42,
    -15, 45, -9, -29, 9, -55, -20, -16,
    -44, -53, -39, -84, 40, 43, 0, 4,
    -22, 7, 19, 12, 9, -80, -75, -2,
    -48, 1, -20, -28, -59, -31, 23, 72,
    6, 64, 64, 81, -77, -10, -3, -21,
    -27, 29, -38, 0, -12, 27, -61, -61,
    46, -36, 10, -2, 23, -35, -45, -11,
    -46, -51, 18, 42, -11, 43, -39, -16,
    -62, -33, -43, -55, 1, 36, 32, -70,
    1, 33, -45, 45, 13, 34, 14, -34,
    -22, -8, -21, 12, -20, -2, 22, -19,
    -37, 37, -25, 23, 7, -4, 25, -6,
    25, 27, 37, -20, -31, 55, -17, -10,
    0, -70, -26, -6, -11, 19, 33, 19,
    47, -36, 53, 30, -22, -3, 46, -19,
    2, -56, 28, -44, -55, 56, -62, -11,
    3, -11, 40, -100, -20, -45, 37, 0,
    22, 69, 59, 81, 2, 38, -14, 64,
    51, 40, -28, -47, 35, -32, 21, -21,
    67, 13, -21, 16, -42, 14, -14, -15,
    -3, 60, -36, 30, 4, -34, 9, -61,
    -98, -59, -28, 78, -39, 17, 95, -72,
    20, -46, -8, -33, 55, 40, 6, 60,
    23, -34, 27, 50, -21, -28, -31, 16,
    47, -28, 11, -64, 17, 56, 35, -70,
    29, 30, -22, 43, 59, -16, -35, -49,
    17, -36, -30, 38, -63, 25, -32, 23,
    -7, 89, 8, -6, -56, -46, 39, 29,
    -4, 7, 62, -42, 10, 28, 60, 18,
    -46, -17, 51, 85, 38, -39, 4, -41,
    -12, 61, 31, 13, 15, 75, -15, -26,
    26, 48, 11, 43, 30, 33, 26, -10,
    68, 5, 21, 34, -49, -3, -17, 35,
    6, 81, -37, -52, -80, 57, -11, -43,
    -7, -72, -21, 44, -24, 85, 45, 8,
    -5, -27, 39, 60, 2, -62, -35, -25,
    20, 26, 41, 33, 33, 7, 8, -5,
    -55, 24, -39, 5, 2, 65, 2, 3,
    43, 33, 18, 96, -11, 13, 15, 66,
    59, 2, 59, 41, 51, 25, -20, 58,
    -29, 14, -29, -27, 24, -12, 23, 18,
    40, 70, 26, -39, 1, -25, 52, 65,
    -31, -15, -35, 36, -30, -1, 12, -25,
    -37, -10, -7, 12, 15, 37, 25, 22,
    21, 21, 12, 13, 20, 6, -10, 34,
    81, -46, 43, -17, -19, 9, 32, -16,
    21, 2, 3, 11, -63, 30, -2, 37,
    -71, -25, 2, 11, -2, -22, 56, 81,
    11, -19, -3, -5, -11, -35, 23, 81,
    -17, -61, 61, 27, 36, 58, -21, -60,
    59, 14, -25, -23, 42, -24, -11, -43,
    1, 0, 48, 54, 5, 46, -1, 20,
    18, 15, -86, 3, -30, 3, 18, -18,
    -50, -22, -86, 61, -19, -100, -31, -53,
    -12, 10, -61, -101, 33, 9, 30, 15,
    80, -11, 2, -35, -29, 36, 85, -127,
    -39, 21, -17, 5, 23, 79, 7, 102,
    -96, 25, -41, -53, -28, 86, 52, 106,
    -120, -83, -51, -27, -60, 7, -58, -88,
    -65, -51, 88, 82, -21, -72, 32, 27,
    41, 72, -50, -106, -83, -37, 0, -40,
    -20, -85, -34, 13, 73, -13, -18, -1,
    44, -41, -89, -18, -24, 58, -25, 18,
    -47, 72, -4, -38, 30, 47, -7, -61,
    -4, 3, -51, -21, 45, 95, 25, -71,
    44, 39, 48, 48, -9, -19, -44, 34,
    51, 54, 32, 3, 20, -19, 54, -13,
    -10, -30, -80, -23, -46, -65, -23, 2,
    -35, 9, -49, 81, -30, -51, -22, 24,
    36, 61, -1, -80, -19, -23, 127, 72,
    -24, -25, 2, -28, -79, 61, -45, -8,
    -66, 6, -80, 48, 5, -27, -32, -27,
    55, -7, 20, -17, 53, -89, 42, -11,
    -34, -10, -1, 32, 52, 47, 71, -30,
    4, 39, 33, -11, 69, 4, -5, 61,
    109, 23, 39, 28, -40, 71, 18, -41,
    4, -50, 32, -1, -37, 40, 45, 42,
    42, -57, 58, -22, -55, -11, 43, -13,
    1, -68, -24, -10, -15, 121, 39, -16,
    -72, 44, 4, -51, 14, -21, 8, -22,
    -3, 18, 92, 29, 14, 40, 52, -43,
    -3, 44, -52, -71, -39, 32, -31, 35,
    77, -21, 72, 18, 38, 0, 35, 65,
    55, 26, 26, -33, 6, 35, -16, 90,
    -87, 0, -2, -47, 49, 50, 2, -68,
    15, 9, -32, 9, 62, -26, 18, -6,
    -9, -14, 70, 34, 18, 23, 12, 15,
    65, 22, 15, -7, -30, 17, 36, 25,
    95, 30, -11, 23, 39, -33, 33, 31,
    -53, 27, -67, 47, 18, 19, 69, 38,
    7, 96, 42, -32, 34, -38, -30, -14,
    5, -18, 78, 2, 45, 39, -32, 26,
    -5, -37, -27, 83, 47, -16, 54, 28,
    27, 11, 37, 35, -10, 57, -15, -32,
    -49, -40, 64, 72, -104, -29, 61, 53,
    -85, 43, 29, 116, -11, -8, 9, 42,
    76, 10, -28, -46, 85, -52, -16, 41,
    14, 5, -27, 25, -24, -49, 20, -25,
    17, 65, 10, 5, -24, -6, 4, -5,
    23, 18, 27, -30, 13, 69, 63, -53,
    -48, 12, 27, -81, 21, -27, 74, -6,
    -34, -56, 70, 2, 5, -27, 71, -68,
    -14, 5, -22, -61, 15, -47, 6, 8,
    -30, -35, -34, -14, 19, 58, 8, 46,
    54, 19, -65, -4, -42, -30, -47, 55,
    41, 7, -13, 39, -64, -65, -65, 74,
    -10, 27, -2, 55, 32, -48, 25, -56,
    46, 40, 12, 22, -14, 29, 51, 18,
    -5, -6, 27, 42, -28, -8, 45, 30,
    -33, 14, 31, -24, -42, -70, -11, 4,
    9, -18, 65, -18, -45, 28, -48, -20,
    13, 50, 68, -3, 11, 45, 38, 31,
    -17, 13, 40, -14, -17, 32, -43, -45,
    -46, 22, 34, 30, -17, -29, -9, -40,
    -37, 2, 71, -32, 34, -7, -17, -3,
    44, 8, -40, 4, 7, -45, -53, -45,
    -45, -16, -62, -46, 24, 32, -12, 77,
    15, -49, -43, -10, -43, 18, 55, 9,
    -50, 3, -16, -31, 27, 29, -30, -41,
    10, 71, 32, -13, 36, 37, -55, 46,
    -19, -60, -68, 12, -39, 84, 70, 10,
    -16, 84, -50, -11, -13, 13, 43, -44,
    -51, -1, 106, 11, -13, -31, -5, 39,
    43, -23, -49, 29, -55, -32, -45, 35,
    -8, 12, -13, -55, 7, 89, -44, 51,
    -1, 55, -58, -20, -18, 36, -22, 12,
    55, 76, 6, 44, -77, -66, -30, 51,
    3, 46, 27, 15, 71, -60, 1, 3,
    -30, -32, -4, 37, 13, -46, 18, 22,
    -33, 49, 48, -13, -9, -8, -4, -22,
    14, -2, 49, -6, -61, -77, -23, 71,
    -7, 15, -19, -24, -39, 27, -23, -17,
    -18, -23, -30, -24, 36, 28, 39, -17,
    47, -53, -41, 28, 6, -19, 9, -38,
    -26, -23, 75, 12, -51, -34, -18, 22,
    39, 43, 49, 43, 3, 62, -59, -56,
    -25, 4, -19, 8, 4, -25, 20, 65,
    10, -46, 24, 10, 5, 33, 30, -54,
    44, -20, 2, 22, -37, -63, -14, 50,
    59, -35, -57, -25, -48, -40, 45, -61,
    -17, 10, 24, 54, -29, 63, 22, 70,
    -55, 22, 48, 8, 24, -14, -10, 32,
    -50, 26, 1, 24, 2, 51, 35, -24,
    -28, 40, 11, -4, 13, 17, 30, -30,
    45, -23, -29, -38, 31, -30, 23, 36,
    -29, 5, 62, -44, -17, -44, -53, 11,
    13, -11, 57, -40, -7, 53, -27, -2,
    52, -78, -51, -22, 22, -36, -35, 17,
    34, -88, -60, -19, 44, -1, -52, -48,
    27, 19, 29, 7, -11, -90, 10, 64,
    -39, -5, 14, -8, 79, 32, 112, 45,
    64, -10, -31, -5, 44, -26, -3, 18,
    -105, 66, 58, 96, -37, 17, -5, 9,
    -74, -85, 26, -71, -13, -30, 3, 21,
    -41, -75, 54, 32, -3, -13, -51, -53,
    -103, 28, 71, -53, -13, 4, 0, 68,
    58, 67, -9, 25, -55, 42, 16, -33,
    40, -9, 9, 73, 41, 16, -1, 40,
    4, 19, 9, -4, 10, -1, -16, -13,
    6, -79, 35, 0, 38, 18, -8, 43,
    -127, 37, -94, 17, 10, -3, 0, -6,
    -50, -76, 37, -29, -16, 27, 16, -67,
    -30, -26, -11, 10, 40, 70, -25, 1,
    -13, -30, -72, 23, -52, 34, 20, -80,
    26, 41, -9, -46, -38, 31, 100, 92,
    -11, 3, -13, -72, 11, 27, 4, -127,
    -48, -50, 16, -4, 51, -2, -72, 18,
    42, -51, -66, -61, 13, 63, -83, 59,
    -15, 27, -4, -22, 10, 50, -13, 75,
    14, 8, 0, -19, 5, -26, -53, 35,
    57, 1, -9, 82, -27, -15, -43, -19,
    35, 39, -81, -59, 3, -35, 85, 21,
    -55, 37, -15, 32, 27, 35, -15, -20,
    -45, 91, 14, 86, 0, 43, 49, -54,
    25, 20, 65, -74, 12, 7, -4, -45,
    45, -4, 46, 44, 41, 8, -13, -21,
    -10, 29, -52, -42, -43, -12, 42, -35,
    40, 33, 7, -31, 52, -85, -49, 7,
    -9, 33, -28, 108, 61, 24, -87, 50,
    -80, -9, -60, -61, -40, -51, 11, 44,
    -1, 33, -26, -42, -9, 95, 18, 61,
    25, -52, 6, 13, -51, 40, -84, -45,
    40, -1, 50, -61, -43, 41, 43, 61,
    5, -46, -11, 26, -16, 58, -18, 22,
    -42, 47, -90, 0, -32, -5, -79, 13,
    -56, 4, -30, 6, -46, -53, 66, 67,
    68, 0, -15, -97, -32, 19, 9, -33,
    70, -21, 19, 5, 37, -10, -25, 41,
    -22, -41, -114, 24, -17, -63, 0, -2,
    43, 4, -29, 71, -38, -51, -25, -7,
    86, 81, -8, 55, -76, -10, 14, 0,
    -22, 7, 11, 0, -63, -9, -15, -3,
    65, 68, 10, 53, -55, -47, -26, -64,
    16, -13, -32, -78, -42, 23, -19, -51,
    -10, -19, -27, -50, 1, -4, -48, 29,
    -83, -50, -58, -19, -58, -43, 64, -40,
    -1, -4, -36, -19, 83, -10, -43, 7,
    -48, 0, -53, -21, 67, -17, 27, 44,
    84, 13, -49, 44, -39, -96, 27, -51,
    -12, 37, -70, 12, -36, 13, -19, -17,
    -117, -25, 43, 73, 7, 43, -32, -40,
    -55, 66, -44, 9, 46, -25, 60, -27,
    -12, -24, -20, 61, -58, -26, -13, 7,
    -8, -48, 50, -1, -9, 43, -38, 8,
    14, -51, -52, -44, 26, 15, 20, 41,
    -64, 28, -52, -47, -21, -28, -22, -33,
    -23, 33, 13, 17, 34, -29, 73, 36,
    44, -21, -51, -2, -72, 8, 33, 64,
    27, -34, 9, -53, -28, -60, 17, -13,
    -42, 34, 62, -23, -10, -9, -41, 55,
    32, -26, -5, 48, -19, -8, -63, -18,
    23, -31, 14, 47, 24, -8, 17, 17,
    -13, 1, 79, 56, -22, -55, 55, 25,
    15, -49, 42, -32, -80, 25, 0, 1,
    -80, 18, -7, -63, 19, 42, 26, 17,
    26, -3, 83, -33, -28, 52, -94, -46,
    35, 1, -53, -85, -67, 10, -10, -24,
    18, -22, -36, 24, 3, -4, 6, -45,
    -31, 0, -56, 10, 81, -28, -25, -38,
    -12, -13, -86, 38, -38, 5, -56, 22,
    -48, 36, -33, 10, -13, 22, -78, -36,
    -16, -52, 2, 27, 4, 63, 43, 57,
    12, -50, -3, -12, -18, -34, 6, -15,
    -23, -30, -23, -22, -30, 23, 17, 9,
    -55, 6, 22, -1, -4, -40, -4, -108,
    66, 24, -27, -6, 15, -44, 8, 9,
    60, 0, 30, 22, -31, -53, 27, -67,
    5, 10, 33, -26, 7, -48, -17, 45,
    78, 1, -2, -23, 7, 15, 34, 39,
    -13, 51, -7, 15, 33, 66, -35, -16,
    13, -24, -47, -45, -41, 9, -23, 4,
    18, -12, -4, -33, 24, -28, -6, -51,
    7, -47, 7, -9, -30, 21, -63, 18,
    26, -52, 1, 21, -28, -24, -64, -4,
    35, 36, 3, -36, 6, -48, -22, 32,
    -12, -32, -16, 41, 30, -63, 35, -66,
    23, 25, 66, -35, 3, 5, -29, -73,
    -61, 6, 77, 23, 10, -56, 18, 24,
    3, -1, 80, 39, -43, 8, -54, -20,
    -97, 0, 32, -29, -46, 7, -17, -35,
    6, 63, -11, -13, 25, 16, -48, 32,
    -47, -10, -42, -1, 46, -50, 19, -19,
    12, -23, 11, 37, 4, 25, -45, -3,
    -34, -33, -13, 12, 26, -33, 26, -10,
    -26, 6, 32, -47, -55, 65, 50, -14,
    17, -82, -27, -24, 37, 66, 49, -50,
    -22, 14, 1, 8, -27, 13, -46, 23,
    -60, 16, -37, -10, -16, 46, -16, -93,
    -15, -108, -11, 43, -68, -47, 102, 13,
    107, 50, 40, -64, 8, 33, 21, 42,
    -9, -44, 15, -15, 71, 41, -40, 50,
    -48, -31, -127, 24, -42, 41, -81, -3,
    -43, 21, -23, -106, -22, -13, -105, -76,
    -61, 0, -60, -76, 36, 2, -65, 8,
    6, -21, 25, -7, -2, -63, -8, 47,
    -9, 70, 72, -59, -14, 60, 49, 57,
    25, 37, 40, 96, 11, -19, -64, 5,
    -27, 105, -46, 1, 27, -91, 10, 23,
    12, 55, -47, -67, -6, -73, -13, -25,
    -55, -55, 5, 5, 62, 50, 54, -53,
    -71, -37, -40, -44, 11, -44, -22, -2,
    13, 92, 49, 86, -3, -46, -127, -60,
    -76, 53, -18, 8, 47, 99, 36, 6,
    27, 60, -40, 62, -67, -103, -67, -4,
    77, -15, -92, -31, 43, -34, 10, 83,
    -7, -121, -119, 41, -17, -7, 60, -1,
    86, 73, 52, 7, -87, 57, -44, -28,
    -63, -11, -66, -59, -123, 57, 21, 102,
    3, 6, -46, -29, -41, 42, 33, -65,
    -12, -37, -31, -1, -46, 4, 83, 41,
    17, 47, -45, -15, -7, 27, -38, -53,
    -45, 16, 24, -78, 30, 96, 19, 106,
    10, 84, 15, 44, -9, 56, -73, 24,
    -49, 17, -32, -68, 55, -5, 3, 41,
    85, -53, 48, -35, 42, 15, 48, 20,
    -37, 33, 20, -53, -61, -56, -22, -46,
    89, 55, -52, 11, -33, 3, 18, -6,
    -52, 31, 2, 18, -97, -9, 15, 19,
    6, -38, 81, -42, -11, -7, -41, 26,
    -22, -27, -13, 1, -4, 0, -6, -85,
    -10, 26, 35, -10, 93, 10, -35, -68,
    -28, 34, 13, 84, -34, -5, -35, -74,
    61, 87, 13, 9, 34, -44, -22, 56,
    -31, -107, -13, -7, -26, -23, -17, 33,
    -31, -39, 28, 64, -33, -19, -11, -31,
    49, -95, -41, -4, -54, -72, 54, -15,
    56, -50, -40, 10, 21, -5, -62, 47,
    11, -15, 2, 43, -49, -31, -3, -51,
    1, -42, 27, 20, -3, 9, 9, -20,
    7, 21, -39, -23, 30, 29, 25, 4,
    -31, -32, 21, -96, 29, -32, 21, -31,
    0, 61, 43, -7, -15, -37, 57, 72,
    19, -17, 10, -20, 29, -22, 4, 23,
    48, 2, -18, 13, 10, 35, 52, 0,
    18, -3, -46, 2, 33, -74, 30, 42,
    0, -8, 21, -55, 47, 12, -43, -58,
    11, -21, 50, 40, 40, 54, -63, 57,
    50, -19, 46, -16, 40, 13, -19, -57,
    -15, 48, -24, 4, 13, -25, -58, -25,
    -17, 21, -67, -25, 48, 9, 48, -49,
    -56, 47, -63, -10, -32, -65, 10, -30,
    -43, -24, -77, -113, 15, 46, 44, -47,
    -35, 40, -20, -33, 15, 8, -63, -20,
    -8, 36, -89, 14, 22, -14, 9, 48,
    1, 21, -40, 18, 30, 55, 0, -28,
    -34, 4, -75, -3, -56, -11, -65, -95,
    17, -57, -21, -5, 7, 19, -24, 19,
    -44, -12, -27, -3, -14, -5, 36, 17,
    0, -27, 7, 66, -92, 33, 22, -30,
    -21, -27, -40, -42, -66, -12, -4, 22,
    26, -50, -41, 37, -25, 100, -9, -27,
    27, -54, -32, -14, -2, 60, 5, -17,
    86, 58, -15, 65, -12, -48, 28, 70,
    28, 0, -36, -14, 22, -37, 9, -37,
    -4, -28, -71, 25, -38, -18, 11, 9,
    60, 13, -3, 46, 73, 0, -46, 58,
    76, -24, -5, -1, -28, 37, 3, 39,
    -16, -19, 66, -48, 19, -56, -10, 9,
    16, 46, 15, 10, -3, 4, 27, -38,
    -48, 26, -42, 61, 15, 28, 2, -92,
    55, 19, 21, 0, -21, -6, 39, 31,
    -20, 36, -2, -45, 36, -16, -9, -40,
    -49, -41, 68, -60, 45, -25, 80, 31,
    5, -58, 34, 31, -75, 56, -53, 20,
    38, 79, -23, -14, -4, -42, 24, -13,
    11, 74, 33, -31, 31, 41, 40, -18,
    -24, -2, 2, 6, -50, -44, 24, -27,
    26, -14, 28, 59, -22, -20, 36, 50,
    59, -25, 29, -47, 51, 20, -29, 61,
    7, -53, -16, -3, -21, -21, 24, 22,
    -15, 39, 13, 49, -69, 0, 7, 18,
    19, -18, -52, -73, 70, 65, 26, -76,
    -4, -5, 32, -4, -8, 84, -16, 11,
    77, -31, -43, -17, -39, -15, 45, -15,
    30, 27, 19, -50, -47, -38, -41, 64,
    -24, 48, -39, -18, -10, -23, -46, -9,
    -37, -50, -5, -36, 37, -64, -62, -93,
    11, -33, -3, 23, -35, 36, -30, -90,
    -16, 8, 44, 87, -65, -84, 0, 36,
    42, 90, 9, -107, 61, -46, 55, 35,
    -16, 1, 4, -33, -72, 28, -38, 16,
    -28, 47, -20, -1, -87, -15, -14, 28,
    13, 16, -65, 35, 2, 21, -3, -68,
    -90, -93, 2, -66, 11, 21, 53, -28,
    -102, -50, 58, 61, -40, -56, -18, -10,
    27, 32, -34, 7, 36, 88, -125, 6,
    -13, -42, -32, -49, -13, 80, -80, -58,
    2, -19, -42, -75, 24, 24, -62, 29,
    -12, 8, -38, -34, 75, 47, 11, 7,
    -18, -31, 20, -36, -25, -86, -61, -47,
    60, 2, 0, -62, 11, -18, 33, -37,
    13, -52, -12, 24, -16, 59, 53, 42,
    16, -27, 33, -14, -16, 76, -23, -32,
    -80, 23, -10, 77, -55, -80, 45, -9,
    22, 16, -34, -8, -55, 44, -45, -10,
    -35, -60, 21, 10, 83, 73, -34, 22,
    62, 78, -68, -6, -67, -2, -45, 75,
    72, 67, 5, -34, 48, 70, -25, 40,
    11, -2, -67, -43, 6, -4, -60, 35,
    54, 50, 57, 61, -96, -31, -54, 15,
    -50, -50, -1, -31, 62, 32, 10, 11,
    -17, -8, -39, -41, -25, 55, -71, 7,
    -97, 83, 20, 38, 1, 36, 37, -9,
    8, -59, 26, -85, -23, -8, 17, 43,
    -9, -47, -63, 65, 32, 88, 14, 13,
    24, 32, -12, 32, -49, 1, 17, -7,
    28, 12, -40, 100, 62, 62, 1, 6,
    -16, 23, -102, 58, 33, 87, -98, -37,
    -45, 51, -35, 42, 28, 70, 56, -28,
    56, -24, -25, -20, 71, 34, -37, -40,
    -43, -35, -39, -78, 28, 25, -27, -33,
    -44, 33, 1, -70, 40, -20, 26, -4,
    -54, -45, 21, 76, -16, 39, -2, -3,
    15, 47, -50, 38, -46, 4, 13, 9,
    -4, 21, 55, 18, 11, -25, 44, 13,
    15, 17, -24, 43, -30, -62, 4, -67,
    46, -71, -38, 60, 0, 24, -58, -21,
    -19, 5, 55, -34, 1, 40, 1, -65,
    -75, -9, -56, 17, -47, 24, 54, 47,
    10, -34, 12, 40, -15, -36, 46, -10,
    50, -19, 3, 0, -49, 45, 78, -17,
    21, 47, -59, -50, 27, -51, 1, -17,
    -64, 6, -2, -98, -50, 24, -48, -14,
    -4, -7, 49, -8, 82, 36, 56, 21,
    34, 3, 5, -2, -11, 76, 11, 61,
    -30, 42, -18, 0, 60, -16, 34, 17,
    -54, -64, 77, -54, -25, -6, 5, -47,
    -32, 55, 18, -56, -20, 58, -123, -15,
    -53, 15, -7, 17, 32, 27, -34, 19,
    -87, -22, -68, -39, -5, -60, 1, -19,
    -4, 70, -21, -18, -31, -75, 74, 10,
    -21, -8, -7, -39, -19, 38, -73, -39,
    -38, 58, -7, 28, -26, 76, 65, -36,
    -2, 33, -39, -43, -54, 62, 46, 37,
    1, -5, 18, 31, -9, -34, -43, -64,
    -13, 1, -34, 12, -11, -58, 105, -68,
    4, 64, -53, -14, 39, 11, 8, -18,
    -104, 15, -51, -13, 57, -17, -42, 57,
    41, -4, 36, -50, -65, -36, -32, -20,
    20, 87, -69, -8, -71, -31, 14, 36,
    -34, -34, -42, 10, 59, -11, -65, -17,
    19, 32, 41, 32, -27, -63, 24, 4,
    -16, 19, -92, 10, -38, -56, 4, 50,
    -10, 12, 0, -107, -74, 31, 24, 45,
    -33, 30, -26, 6, -27, -9, -61, -10,
    34, 50, 78, 44, -13, 27, 29, 39,
    -32, -11, -18, 43, -11, 49, -1, 5,
    39, -55, -24, 1, -21, -51, 30, 37,
    -54, 20, -13, -2, 38, 23, -76, -25,
    -36, 67, 32, 14, 40, -31, -26, 48,
    -88, -38, -12, 65, 41, 12, 28, -15,
    -25, 62, 5, 38, 9, -32, 13, 0,
    -5, -5, 22, -31, 54, -29, 42, 15,
    -27, 24, -29, -31, -32, -10, 31, 57,
    -2, -40, -28, 19, 40, 47, -16, 40,
    -12, 46, -30, -65, 29, -7, 12, 47,
    -18, -30, 33, -42, 8, 18, 41, -59,
    28, 20, -35, -21, -3, -32, 22, -3,
    51, 11, 0, 23, 24, 64, -57, 3,
    61, -81, -54, 16, -55, -64, 2, -27,
    -16, 17, 32, -25, -75, -45, -45, 20,
    -83, -51, -58, -40, 28, -23, 25, -25,
    -4, -38, 42, -25, -39, 20, -58, 16,
    -27, 16, -37, -14, -31, 9, 55, 44,
    -73, -28, -14, -98, -18, 38, 8, -47,
    19, -20, -29, 79, 52, 15, -64, 49,
    28, 33, -36, 57, 48, -33, 8, 38,
    26, 5, 48, 39, 10, -27, -70, -5,
    6, 50, 4, 86, -30, -12, -29, -27,
    16, -44, -52, 30, 7, 38, -58, 5,
    21, -59, 11, -27, -2, 58, 39, 35,
    71, -34, -49, 43, -9, -1, -30, -25,
    49, 59, -63, -12, -26, 50, -6, -32,
    -2, -99, -23, -5, -27, 55, 65, 4,
    -9, -22, 28, 49, 85, 51, -7, 70,
    71, -43, 3, 30, -31, 36, 17, -11,
    -18, 36, -43, 10, 7, -28, -15, 18,
    -20, -26, 33, 3, -21, -72, 31, -59,
    3, 19, 39, -20, 3, 27, -35, 63,
    10, -24, 58, -21, 37, 62, -20, 74,
    -43, -11, -29, -25, -50, 2, -55, 106,
    34, 44, -14, -40, 10, 4, -48, -61,
    -77, -52, -8, -57, 20, 13, -104, -30,
    20, 53, 53, 29, 1, -31, 3, -27,
    -8, 62, -23, -63, 4, 2, 6, 62,
    -13, 78, 29, -38, -62, 8, -17, -28,
    -33, 38, -3, 108, -1, 5, -40, 29,
    30, 103, -105, -75, -90, -56, 15, 7,
    -35, -76, 21, 100, -16, 47, -55, -81,
    -65, 33, -95, -60, 12, -11, 52, -56,
    50, 70, 12, 114, 37, 77, 13, -56,
    -74, 4, -16, 34, 15, 64, -96, -3,
    -15, 38, -15, 31, -66, 8, -58, -60,
    47, -4, -68, -47, 46, 62, 0, 15,
    -26, -50, 0, 59, 13, 33, 2, 2,
    40, 48, 18, 39, 21, 95, 33, 101,
    -26, 52, -72, 88, 30, 0, -2, 28,
    -75, 36, -4, 71, -65, 9, 5, -64,
    -65, -73, 56, -59, -70, -36, -55, 22,
    23, -1, -47, -84, -91, 17, -42, 17,
    -24, 3, -13, -13, 31, 66, 27, -4,
    -13, -5, -33, 76, -14, 81, -57, 55,
    48, 27, -16, -57, 30, 16, 15, -21,
    -10, -61, -25, -26, -24, 49, -18, 17,
    -53, -10, 39, 41, -55, -53, 65, 37,
    -22, -2, 24, 13, 21, -6, -27, -18,
    53, 49, 20, 25, 24, -47, -25, -17,
    -39, -9, -59, -27, -51, 25, 33, -2,
    -47, -70, 14, -16, 57, -5, -33, -50,
    51, 38, 51, 7, -41, 50, 12, 9,
    -25, -36, 16, -13, -61, -39, -66, -24,
    -36, 26, -15, -31, -29, 21, -31, -46,
    13, 38, 21, 60, -9, -55, 34, 46,
    10, -38, 1, 5, -27, -48, -46, 5,
    33, 48, 1, -57, -20, -6, -19, -44,
    9, -25, 5, -10, 32, 30, 42, -17,
    15, -63, -22, 32, -13, 35, -14, 68,
    -66, -60, -34, 43, 4, 78, 2, 51,
    -24, -55, -3, -74, 19, -14, 11, 42,
    -28, -27, 6, -39, -30, 1, 68, -56,
    31, -35, -26, -75, 1, -33, -55, 4,
    -12, -41, -80, 54, 20, 9, -8, -12,
    34, -52, 12, -70, -40, -22, -66, 25,
    53, 8, 25, -10, -34, 19, -16, -20,
    34, 51, -52, -51, 54, 93, 4, -36,
    -6, 16, 41, 15, 39, 20, -41, -63,
    23, 78, 82, -9, 31, 20, -16, -6,
    44, 37, -86, -40, -56, 11, 15, 37,
    -21, 55, 61, 76, 7, 18, -30, -60,
    -69, -33, 24, -25, -38, -80, -54, -38,
    -55, -10, 33, -31, 43, 47, -10, -71,
    -19, -17, -72, -37, 62, -9, 50, -16,
    46, 40, 39, 70, -35, 114, 10, 4,
    -9, -45, -36, 104, -86, 29, -22, 14,
    68, -4, 36, -55, -18, -18, 6, 42,
    39, 0, -7, -35, 37, 52, 5, -21,
    -26, -22, -40, 11, 16, 30, 62, -48,
    -58, 31, 1, -21, 45, 60, -44, 28,
    23, 17, -33, 27, 23, 15, -42, -35,
    40, -26, -90, -25, 55, -7, 19, 8,
    -48, -56, -52, 47, 0, -23, 33, -11,
    -1, 39, 37, 41, -11, 29, 7, -18,
    -32, 25, -18, -6, 1, 6, 26, 20,
    -11, -8, -19, -15, 2, -30, -90, 55,
    -34, 40, -59, 6, 49, 36, 3, 28,
    -27, -51, -29, -52, 70, 54, -2, 12,
    -30, -34, 22, 51, 35, 33, 36, 26,
    -1, 110, -30, 29, -56, -3, -19, 62,
    31, -35, -49, 48, -3, -56, -16, -57,
    -34, 62, -39, 0, 47, 27, -34, -29,
    -28, -40, 31, 44, -25, -46, 45, 19,
    36, -14, 56, -1, -28, 37, 21, 46,
    -46, -55, -44, 36, -61, -19, -36, -57,
    9, -41, 16, -2, -22, 11, -8, 41,
    6, 22, -79, 52, -73, 3, -41, -32,
    42, -6, -8, 85, 20, 74, 9, -15,
    -7, -32, 38, -20, 11, -38, 43, 9,
    -24, 49, 46, -17, -24, 69, -56, 18,
    2, -32, 0, -10, -58, -15, 22, -11,
    -68, -8, -2, 72, 28, -46, -85, -92,
    94, 48, 9, -56, -1, 20, 61, -50,
    4, 17, -1, 65, -60, -51, -16, -23,
    47, 42, -12, 39, 10, 31, -51, 27,
    -13, -41, 35, 22, 0, 21, 45, 28,
    22, 9, -45, 16, -56, 44, -4, 84,
    10, 49, -19, 45, 95, -25, -23, -97,
    -8, 6, -64, 0, -35, 6, -84, -56,
    -20, 6, -6, -33, 54, -99, -45, 27,
    24, -49, -18, -56, 56, -42, -27, 44,
    42, 27, 122, 0, 39, 45, -16, 115,
    28, 45, 7, -33, 21, -32, -61, 33,
    39, -58, -81, -70, -39, -33, -64, 57,
    -76, -50, 89, -57, 56, -5, 31, -19,
    -11, -16, 3, -36, -47, -76, -44, 89,
    -5, -19, -28, 63, -55, 55, -10, 43,
    -15, -11, 47, 23, 7, 57, -25, -74,
    -43, 40, 11, -47, -68, -84, -20, 1,
    54, -53, -4, -22, -37, -64, 4, 31,
    24, -63, -24, -29, -8, 64, 59, -39,
    54, 42, 23, -16, 16, 3, 56, -61,
    -45, 46, -62, 39, -35, 34, -18, 62,
    -19, -24, -40, 32, -29, -2, -78, -2,
    -70, -11, -4, 2, -72, -47, 8, -8,
    19, 68, -61, -32, 25, -42, -1, -87,
    47, -67, -13, -37, 35, 27, 58, 67,
    -4, -5, -74, -50, -21, 2, -60, 86,
    13, 28, -127, -18, 12, -14, -35, -43,
    -96, -75, -24, -72, -14, 41, -85, -1,
    -6, 10, 77, 12, -43, -101, -91, 35,
    64, -4, -42, -87, 95, 94, 37, 91,
    27, 40, -9, 110, -2, 43, -78, -31,
    7, 67, 50, 20, -106, -8, 42, 40,
    -21, 18, -23, -82, -75, -92, -45, -1,
    -34, -89, -38, -47, 57, 11, -19, -22,
    19, 51, 13, -15, 36, -66, 3, 60,
    41, 3, 23, 57, 78, 23, -102, 27,
    -54, -32, 7, 123, 34, -12, -48, 23,
    42, 53, -19, -75, -17, 35, 5, -71,
    -75, 24, 18, 27, 102, 2, 43, 12,
    -26, -40, -4, -47, 19, -10, -27, -53,
    10, 42, 38, -12, -5, 32, 3, 85,
    16, 49, 7, 48, 59, 55, 29, 48,
    29, -45, 37, -3, 82, -64, 2, 79,
    58, -49, 55, -3, 49, 3, 14, -24,
    21, 0, -2, 11, -15, 34, 41, -63,
    59, 17, -15, -9, 25, 35, 10, -10,
    -26, 57, -36, 24, 31, 30, -8, 9,
    -14, 24, -57, -54, 32, -36, 42, 13,
    -57, -4, -11, -16, -10, 50, -42, -21,
    -45, -25, 59, 10, -41, -3, -86, -3,
    93, -44, -77, 6, 24, -53, 41, -9,
    4, -21, -8, 10, -103, -17, 5, -17,
    -3, -3, 36, 30, -34, 50, -70, -7,
    13, 14, -72, 69, 12, -16, 56, 16,
    30, 21, 34, 6, 12, 5, -36, 29,
    -61, 4, 3, 34, -48, 17, -84, 48,
    -25, 48, -44, -13, 30, 15, 16, -33,
    20, -70, 32, 49, -28, 0, 26, -16,
    -34, -11, 47, 17, 9, 8, -34, -14,
    48, -85, 0, -45, -21, -85, 48, -20,
    -14, -54, -31, 3, 0, -2, -75, -54,
    29, 2, -22, 5, 6, 10, -17, 89,
    -48, -35, 12, -49, 54, -26, -52, -55,
    -90, 4, 31, 8, -27, 96, 54, 48,
    -26, -35, -7, -67, 4, -26, 48, -56,
    55, 50, 33, 29, -18, 29, -2, -37,
    -10, -56, 53, 30, 50, 40, 41, 50,
    18, 34, 46, -4, 19, 45, -34, -25,
    31, -42, -38, 71, 48, 20, -18, -54,
    -49, -83, -5, -58, -11, -32, -75, -26,
    -18, 51, 127, 50, -3, -85, 70, 55,
    -33, -36, 45, -87, 55, -31, 17, 34,
    -6, 29, -17, -25, 2, -23, -42, -55,
    -61, 110, -14, 63, -21, -17, -31, -15,
    31, -73, -28, -21, -22, -61, 14, 61,
    42, -47, 20, -28, 37, -2, 16, 51,
    -65, 11, 3, -15, 2, -4, -7, 9,
    -1, 52, 19, 12, 7, 102, -43, -58,
    3, -37, -27, 16, -63, 40, -60, 26,
    -70, -81, 44, -5, -6, -7, -45, -6,
    28, 20, -57, 30, 66, 23, 34, -18,
    -34, 34, -2, -13, 64, 34, -4, -26,
    -37, 47, 41, -17, -49, 28, -14, 72,
    -50, 15, -13, -29, -71, 47, 58, 45,
    -88, 43, -56, -67, 19, -47, 38, 7,
    74, 47, -59, 2, 17, -27, -49, -8,
    3, -38, -32, -31, 0, -25, 78, -18,
    15, -23, 37, 2, 23, 2, 58, 36,
    -63, -22, -81, 38, -39, -26, 39, 44,
    8, -27, -28, -52, 12, -26, -1, -50,
    30, -27, 21, 30, -33, -80, 33, -17,
    -74, -2, 83, 16, -11, 62, 29, 7,
    22, -15, -36, -9, -62, -61, -8, -46,
    -61, -32, 2, -60, -66, 40, 11, -61,
    -35, -6, -50, -34, -46, 23, 37, 21,
    -34, -2, 49, 25, 36, 0, 17, -53,
    -6, -34, 54, -41, -8, 14, 19, -11,
    39, 10, -19, -13, 25, -63, 18, 54,
    -21, -31, 27, -19, -22, -29, -6, 21,
    11, -14, -15, 44, -59, -32, 22, 71,
    -35, 5, 34, -65, 60, -69, -86, -37,
    27, 42, -65, 4, -16, 53, -96, -10,
    -1, -15, -59, -14, -83, -44, 42, -35,
    84, -51, 57, -24, 45, 71, 127, -42,
    -18, 45, 26, -29, -34, 92, -41, 43,
    67, -18, -127, 22, -70, -16, -29, -23,
    -58, -23, -11, 44, -37, -44, 38, 20,
    61, 95, -14, -44, -27, -19, -30, 73,
    -22, -95, -40, -8, 72, 78, 74, 38,
    52, 84, -120, 15, -13, -87, 35, 65,
    16, 19, 7, -74, -81, 91, 24, -33,
    -41, -27, -84, -20, 88, -14, -79, -79,
    41, -9, 35, 11, -35, -82, -6, 46,
    14, 42, 36, -4, 36, 12, 81, 81,
    -26, 63, 44, 24, -2, 51, 6, 17,
    16, -9, 9, 77, -50, -29, -78, 56,
    4, -79, -89, -17, -19, -60, -6, 61,
    -27, -90, -23, -3, 27, 8, -37, -50,
    -53, -7, 11, 1, -32, -18, 17, -31,
    75, 118, 28, 33, 10, 41, 18, -37,
    1, 5, -41, 60, 21, 7, -103, -26,
    8, 14, -7, 31, -68, -73, -101, -84,
    24, -40, -31, -45, -18, -45, -17, 75,
    -68, -13, -40, -25, -23, -67, 86, -45,
    27, 92, 27, 97, 41, 108, 3, 103,
    15, -37, -69, 16, -59, 66, 9, 108,
    6, -22, -16, 46, -2, 0, -54, -11,
    -29, -37, -33, 6, -102, -55, 75, -38,
    73, 15, 0, -95, -72, 19, -71, -64,
    19, -102, 28, -48, 40, 49, 81, 115,
    -3, 118, -65, 18, -67, 31, -18, 96,
    2, 39, -90, 24, 7, 7, 0, 19,
    -37, 26, 12, -10, 49, -6, -34, -53,
    -69, 37, 24, 54, 19, 30, -37, -42,
    -45, -77, -1, 5, 90, 51, 41, 18,
    -20, 83, -25, 86, 35, 19, -49, -12,
    -38, 72, -50, 37, 34, -29, -75, -9,
    30, 18, -13, 34, -69, -26, 81, -60,
    -8, -50, 75, 54, 43, -21, 3, -45,
    -103, 0, -5, -16, -59, -10, -10, -6,
    -12, 33, 85, 48, -9, 25, -76, 15,
    13, 7, -10, 26, -49, 83, -9, 21,
    52, -1, 32, -11, -58, 16, 1, -44,
    0, 23, 18, -12, 17, 62, -80, 29,
    -35, -28, 65, -30, 79, 53, 32, 4,
    7, 22, -7, -10, 25, -10, -9, -38,
    -70, 42, 60, 31, -5, -32, -6, 14,
    -42, 52, -20, -85, 20, -36, 30, 18,
    -66, -32, 19, 1, 28, -70, 48, 4,
    -31, 3, -38, 5, 48, -69, 19, 82,
    -25, 2, -54, -4, 31, -35, -50, 4,
    65, 56, -58, -4, -30, 48, 64, 50,
    33, -40, 56, 33, 12, 64, 15, 66,
    -22, -36, -5, 37, 50, -46, -56, 1,
    33, -18, 10, 38, 15, -6, -26, 12,
    44, 28, 16, 21, 20, -96, 41, -8,
    -44, -25, 1, -4, 52, 41, 58, 40,
    -40, 23, 23, 38, -61, -11, -91, 51,
    -20, 46, 16, -72, 13, -76, -22, -12,
    0, 3, 19, 48, 53, 8, 44, -40,
    -40, -21, -7, 47, -39, -72, 13, 17,
    66, 49, 2, 54, 29, 75, -34, 8,
    -32, 64, -31, -39, -62, 38, -34, 33,
    -81, -7, 33, 31, -33, -83, -17, -66,
    38, 23, -50, 7, 68, 44, 19, 1,
    27, -59, 12, -38, 16, 34, 13, -34,
    57, 0, 37, 59, 61, 37, 60, 127,
    13, 33, 9, 19, 42, -1, 86, 14,
    -15, 20, 50, -4, 30, 17, -18, -3,
    39, 41, 35, -1, -39, -18, 31, 28,
    -27, 38, 55, 1, 22, 34, -2, 52,
    -28, -21, 44, -35, -42, 30, 3, 61,
    -13, 12, -8, -10, 15, 21, 17, 10,
    46, 45, 1, -28, -53, 63, 13, -13,
    -33, -25, 3, -38, 8, -48, -33, 15,
    -36, 30, 6, 51, -25, 35, 80, 21,
    36, 24, 19, -39, -31, 70, -52, -34,
    -63, -19, 47, 0, -28, -5, 41, -28,
    31, -38, -39, 64, 55, -36, -30, -70,
    -13, 9, -72, 77, 51, 39, 34, 15,
    -37, -12, 4, 8, -13, 52, -8, 59,
    53, -31, -51, 6, -12, 24, 1, 52,
    -14, -53, 74, 35, 56, 69, 51, 33,
    26, 44, 47, 34, -51, 7, 71, 45,
    -27, -56, -28, -47, -23, -9, -10, 15,
    22, -21, 23, -36, 28, 11, -28, 14,
    38, 30, -1, -22, -19, -2, -77, -6,
    16, -69, -38, -1, 34, 16, -54, -29,
    -51, 0, 16, 5, -40, 11, -15, 9,
    22, 32, -74, -17, 12, 16, -50, -49,
    -33, -14, -48, 40, 36, 26, -69, 4,
    28, 57, -34, 53, 29, 3, 31, -7,
    -44, -18, 32, 30, -65, 30, -6, 46,
    -32, -57, -25, 0, 60, -52, 2, -45,
    18, 16, -69, -24, 50, -44, -12, -27,
    -82, -89, -28, -51, -44, -1, -112, -114,
    106, -10, 72, 5, -16, -54, -41, -22,
    58, 6, 9, -7, -10, -48, 22, 36,
    -48, 31, 51, 106, -92, -64, -77, -112,
    -34, 2, -27, 43, -72, -127, -11, -29,
    -3, 19, -42, -92, -71, -97, 28, -25,
    -63, 8, 77, -2, 55, 18, 27, -88,
    -13, -39, -65, -45, 75, -28, -9, 11,
    69, 68, 34, 34, 46, -33, -21, 47,
    -34, -14, -34, 35, 64, 50, -11, -64,
    -44, -50, 12, 17, -44, -6, 32, -66,
    -5, -54, -2, -43, 63, 28, -4, 70,
    37, -66, 5, -18, -18, 6, 33, -49,
    62, -6, 27, 9, -66, 39, 49, 63,
    30, -7, -21, -11, -5, 60, -9, -13,
    52, -33, -27, -16, 30, -47, -36, -22,
    -11, -16, 82, 55, -36, 14, 22, 51,
    2, 31, 32, 22, 56, 17, -13, 0,
    -9, -2, 24, -49, 23, -26, 34, 10,
    61, -31, -1, -45, -55, 85, -95, 84,
    -64, -4, 2, -40, 34, 19, -15, -7,
    -87, 11, -19, 4, -3, 0, -18, -5,
    18, 42, -15, -1, -38, -36, -73, 50,
    -33, -25, -46, -36, 47, -51, 88, 66,
    46, -5, -45, 39, 37, -35, -29, 7,
    -19, 116, 51, 20, -6, 34, -41, 2,
    2, -71, 61, 8, 20, -61, -12, 26,
    -29, -60, 90, 0, -10, 6, 4, -38,
    -12, 29, 22, 49, 72, -25, -68, -24,
    61, 78, 43, 17, 1, -60, -54, -52,
    -50, 17, -91, 114, 28, 7, 29, 42,
    -13, 51, 58, -48, 51, -10, 13, -21,
    43, -50, 4, -11, -7, -6, -29, 41,
    26, 19, 14, 19, 3, 53, 19, -14,
    -24, 27, 12, -25, 19, 5, -7, -71,
    98, -45, -19, 34, -9, 33, -6, -9,
    50, 26, -35, -32, -50, -31, -4, -41,
    -15, -24, -1, 2, -17, -17, 55, -42,
    15, 37, 44, 60, 98, 8, -31, 5,
    24, 15, -75, 24, -23, 32, 24, 54,
    -42, -87, 39, -21, 0, 24, -41, -21,
    -3, 0, -1, -54, 103, -12, 24, -8,
    -41, 56, 55, -21, 20, -47, -24, 37,
    88, 3, -52, 23, 47, -43, 99, -18,
    44, -40, 16, 44, 30, 5, 13, 57,
    -41, -53, -50, 53, -76, -69, 23, 25,
    -24, 67, -34, 44, 39, -28, -47, -59,
    -1, -79, -16, -13, 23, 0, -52, 73,
    -22, -45, 75, -29, 12, 7, -2, 10,
    -43, -9, 81, -77, 16, -41, 31, -40,
    25, 24, -37, 42, -40, 71, -103, -24,
    -17, -68, 54, 48, 43, 24, -29, -46,
    -35, -44, -14, 51, -64, -42, 21, -33,
    28, 37, -40, -19, -1, -75, 65, 9,
    51, -21, 44, 24, 14, -41, 14, -16,
    48, 3, 63, 74, -63, 34, -32, -51,
    36, -5, 8, -44, -8, -11, -67, 71,
    58, -74, 0, 50, -73, 55, 30, -61,
    22, -40, 39, 36, -35, -57, 21, -45,
    -33, 25, -14, -32, -24, -70, -31, 29,
    72, -64, -48, -39, 14, 2, 25, 42,
    86, -30, -32, -50, -46, 2, 2, 8,
    -44, -45, -61, -28, -42, 48, 4, -25,
    71, 60, -50, -17, 56, 50, 15, -26,
    43, -31, 9, 55, 8, 18, -49, -31,
    -39, -61, -8, 9, -30, -8, -16, 55,
    -17, 23, 12, 36, -11, 23, -15, -7,
    -29, 64, -23, 70, 29, 11, 76, 19,
    6, 7, -89, 46, -37, -8, 80, 83,
    -20, 28, -24, 0, 40, -57, -18, -26,
    -26, -13, -4, -42, 18, 49, -3, -39,
    -37, -24, -40, -50, 23, 55, -57, 0,
    -25, 10, -26, 47, -50, -50, 12, -21,
    4, -34, 1, 41, -2, -17, 16, -1,
    -36, 29, 60, -31, 53, -22, 32, -61,
    7, -2, -15, 17, 72, 25, 39, -34,
    -26, -53, 3, -34, -39, -32, -33, -64,
    -63, -22, 33, 16, -7, 36, -9, 33,
    65, 27, -47, 27, -41, -19, -7, 11,
    -17, -15, -8, -4, 8, 3, -33, -70,
    -2, -1, 4, 3, 22, 27, 33, 3,
    -58, -10, -61, 76, 25, 30, -30, 37,
    12, 78, -34, -37, -38, 43, 3, -4,
    55, -30, -49, -33, -75, 51, 78, -15,
    -12, -8, 2, -12, -21, 6, 5, -25,
    -42, -27, 37, -58, 19, -33, 48, -49,
    -4, -50, -85, -27, -66, -47, -27, -35,
    -58, -3, -4, -71, 25, -19, 0, -36,
    25, 4, 11, -35, 53, 0, -28, -25,
    12, 37, 1, -79, -1, -32, 9, -12,
    -13, -20, -1, -23, 28, 6, -58, -31,
    47, 31, 21, -43, 63, -45, -10, -6,
    8, 33, 16, 14, -73, 82, -6, -19,
    0, -28, -77, 86, 71, 64, -25, -46,
    -48, 17, -84, -32, -87, -77, -21, -39,
    26, -11, -67, 13, -68, 5, 63, 45,
    -3, -54, -17, -8, -20, 13, 120, -21,
    -22, -32, 11, 35, 4, 38, -49, 67,
    -74, -62, -13, -43, -4, 29, 14, 21,
    -55, -72, 10, 2, 36, -31, -63, 1,
    5, -40, 74, -32, -29, 37, 1, 18,
    24, 30, -32, -9, -36, 6, -1, 81,
    -35, -49, 7, 44, 41, -21, -41, 43,
    18, -54, -59, -45, 35, -48, -66, -51,
    -1, 2, 34, -19, -9, 12, -24, -65,
    -29, -6, -42, -30, 33, 2, -46, -57,
    98, -33, -3, 61, -48, 36, 15, 29,
    -47, -55, -16, -20, -24, -20, 14, 63,
    -8, 53, -39, 21, -71, 4, -21, 13,
    -16, 29, -56, 42, 50, -28, -57, 9,
    37, 79, -32, -73, -26, -19, -6, -24,
    -74, -30, -15, -61, 47, 18, -62, -59,
    -18, 27, -55, 25, 24, -29, -46, 7,
    16, -24, 10, 32, -18, 33, -102, 30,
    -35, 19, -35, 65, 48, 25, 70, -1,
    31, 72, -59, 91, -1, -8, -3, -32,
    -3, 25, -49, -97, 26, 14, 13, 85,
    -32, -65, -70, 4, -1, -86, -20, -74,
    87, 26, 8, 37, -27, 85, 30, 22,
    -6, -47, -60, 46, -20, 28, -42, 24,
    -55, -21, -4, 70, -33, -36, -30, 18,
    -40, -18, -21, 37, -10, -22, 22, -11,
    30, 6, -23, -15, 29, -35, -75, -47,
    20, 7, 19, -35, 6, 29, 80, 7,
    -9, 56, -85, 40, -44, -54, -63, 44,
    47, 19, 4, 12, -78, -30, 52, 74,
    43, -41, 41, -33, 42, -24, -18, 41,
    31, 34, 46, 36, 3, 66, 31, 14,
    -65, 34, -37, -9, -16, 58, -30, -49,
    49, 44, -56, -17, -2, 26, 28, -71,
    7, 30, -39, -19, -28, -59, -74, 14,
    -10, -31, 7, -18, 45, 24, -18, 0,
    18, 25, 15, -3, 16, -2, -4, 24,
    -61, 13, 23, -69, 6, -3, 8, -1,
    28, 34, -13, -9, -14, 63, 15, -18,
    21, -51, -6, -60, -52, -12, 13, -84,
    -1, -13, -41, 66, -45, 17, -62, -43,
    -62, -57, -8, -22, 38, 39, 25, 37,
    39, -46, -16, 51, 31, 15, 90, 8,
    -40, -46, 30, 69, -62, 47, -10, 82,
    -39, -9, 23, 35, -25, 31, 54, 1,
    -71, 20, -32, -22, 46, 13, 21, -60,
    -20, 2, -51, -53, -22, 10, 57, 23,
    -22, 9, -49, 43, -22, -7, -30, 15,
    36, -15, 28, 51, -38, 40, -41, -23,
    -53, 68, -55, -6, 38, -35, 4, 15,
    -14, -29, 48, -9, -75, 34, 8, 78,
    -6, -27, 7, -43, -20, 21, -25, 3,
    -47, -73, 63, 32, -37, 17, 16, 4,
    -44, -41, 78, -59, 20, 6, 35, -12,
    -20, 53, -21, -24, 31, -79, 8, -31,
    -33, 27, 49, -28, 46, 23, -57, 53,
    -12, -12, -62, 9, 15, -19, -67, 46,
    -46, 24, 24, -67, 57, 35, 17, -13,
    2, 33, -63, -23, -14, -33, -23, 6,
    21, -34, -47, 35, 19, -10, 5, -2,
    20, 24, -16, 66, 42, 86, 50, -46,
    29, 10, 22, -11, -46, 44, 49, -46,
    36, -19, -76, 48, -29, 0, 43, 22,
    -41, 5, -45, 5, -11, 41, -21, -15,
    -68, 47, -48, 22, 7, 55, -61, 16,
    -13, -40, 11, 52, -92, 12, -10, 7,
    49, 70, -36, -42, 25, -5, 34, -39,
    -18, -83, -46, 35, -30, 11, -4, -77,
    45, 49, 8, -21, -63, 10, 75, 78,
    56, -66, -41, 42, -31, 1, 0, 24,
    9, -9, -85, 28, 14, -72, 46, 42,
    -2, 8, 77, -18, -33, -9, -5, -49,
    17, -23, 38, -1, -7, -65, 2, -28,
    24, -75, -10, -39, -7, -5, -40, -12,
    15, 56, 27, -44, -21, -23, -13, -32,
    58, -7, -58, -9, 31, 1, 19, -44,
    5, -15, 21, -25, 25, -35, 40, 16,
    62, 25, -54, -41, 18, 21, -36, -42,
    11, -5, -28, 4, 3, -17, 2, -19,
    16, -1, -24, 34, -24, -19, -10, -14,
    -13, -70, 44, -29, 49, -87, -31, -58,
    33, 22, 35, 25, -24, -10, 6, 4,
    6, -17, -65, -18, 34, -56, 21, -20,
    33, 71, -52, -9, 42, 17, 2, 29,
    -42, -5, -14, 48, -22, 52, 52, -62,
    14, -30, -2, -14, -14, -15, 3, -27,
    -41, 32, -1, -60, -23, -21, 5, -16,
    49, -37, -5, -58, 40, -21, 38, 10,
    47, -39, -65, -33, -36, -51, -74, -13,
    -2, 62, 56, -22, 28, -20, 53, -15,
    44, -2, 16, 16, -24, -30, -32, 5,
    -52, 9, -25, -8, 2, -44, -33, 37,
    -39, 20, -41, 30, 31, 25, 55, -69,
    127, 26, 0, 36, 125, -21, 96, 63,
    -13, 22, -49, -41, -42, 81, 31, 58,
    -21, -45, -32, 41, -38, 11, 23, 31,
    36, -100, 76, -52, 67, 12, 26, 14,
    -23, 63, 62, -86, 56, 47, -123, -69,
    46, 29, -48, -13, 5, -22, 104, -13,
    61, 19, -48, 46, -16, -23, -48, 42,
    -40, 43, 2, 53, 24, -57, -55, -55,
    36, 25, -43, 46, 53, -85, 18, -52,
    14, -71, 41, -45, -38, 17, -23, -25,
    -79, 32, 2, 73, -29, -34, -37, 9,
    30, 55, 16, -55, 58, 51, 48, 14,
    -82, 71, -17, 50, 54, 70, -19, -35,
    15, 62, 20, 3, 7, -49, -49, 42,
    -39, -92, 47, -61, -25, 14, 16, -19,
    -5, 16, 7, -4, -49, -6, 21, -74,
    13, -48, 52, -25, -8, 10, 14, -39,
    -5, 59, -39, 30, -19, 14, -41, 43,
    23, -21, 31, -29, 58, 32, -52, 11,
    -40, 0, -1, -108, 19, 50, -61, -11,
    -3, -14, -39, 5, -10, -27, -11, -13,
    -3, 44, 85, 10, 108, -64, 38, 32,
    -37, -25, 13, 35, -24, 55, 22, -40,
    -8, 96, 73, 58, -46, -48, -26, 42,
    -72, -51, -28, 41, -43, -59, 3, -25,
    -51, -48, -27, 14, -11, -7, -8, 39,
    -16, 58, 41, -46, 22, -27, 46, -22,
    27, -29, 11, 23, 16, -34, -9, 18,
    41, 28, 17, 14, 35, 64, -13, -9,
    26, -17, -40, -59, -11, -9, 74, -60,
    -6, -75, 11, -39, -22, -32, 47, 56,
    -63, -64, -70, 46, 7, -20, 26, 40,
    48, 79, -24, -42, -37, 36, 0, 45,
    -62, -44, -47, -66, 43, -79, 90, -6,
    49, 12, -1, -28, -82, -10, -23, -34,
    -23, -27, 42, -17, 13, -32, -30, -13,
    57, -18, -26, 63, 35, -36, 36, -14,
    -58, -9, -5, -17, -25, -16, 65, 9,
    4, 64, -41, -72, -63, 11, -52, 45,
    -40, -76, -21, 59, 65, 38, 68, 21,
    -5, 66, -7, -64, -54, 36, -63, 22,
    -30, 102, 26, 34, 25, 14, -21, -101,
    -25, -41, -14, 24, 1, 44, 6, -2,
    25, 49, 40, -35, -51, 52, -19, -18,
    -35, -43, 82, 39, -71, -56, 74, 62,
    45, 9, 2, 39, 55, -18, 11, -8,
    -46, 6, 12, 18, -75, -63, 4, 8,
    -1, -7, 7, -75, -48, -23, 50, 60,
    -4, 29, 16, 45, 20, 14, -35, 15,
    -57, -17, -8, -5, 48, 10, 45, 34,
    52, 22, 8, 5, -8, -41, 29, -5,
    1, -29, -54, -19, -51, 14, 5, 13,
    -15, 52, 18, 17, 23, -30, 29, -20,
    40, -53, -51, -38, -8, 3, -2, -23,
    -73, -52, -34, 49, -14, 25, 25, -51,
    -27, 50, 31, 46, -81, -19, 31, 46,
    38, 9, -21, -59, -22, 72, 3, -34,
    -11, -50, 54, -67, 43, -43, 33, 27,
    2, 2, 11, -27, 13, 40, -19, -10,
    42, 10, 16, 25, -54, -20, -10, 90,
    7, 21, -5, -19, 12, -54, 8, -42,
    19, -52, 25, 2, -28, -45, -81, -18,
    -45, -35, 82, 26, -2, -70, -41, -67,
    29, 37, 5, 53, 37, 16, -73, 18,
    -32, 12, 10, 25, -90, -70, -92, 28,
    -27, 38, 22, 19, 48, -34, 25, 42,
    -52, 57, 12, 57, -57, -27, -1, 1,
    -54, 73, 7, -18, 30, 22, 14, 0,
    -23, -77, -26, -39, -48, 67, 25, -12,
    31, 31, 33, -29, 21, 23, -55, -34,
    27, 20, -9, 79, 17, -16, 27, -30,
    50, -51, -36, 11, 0, 7, -46, 3,
    32, -5, -1, 25, -29, 35, -17, 4,
    -9, 20, -7, 67, -85, -27, 11, -3,
    54, -11, -32, -74, -1, 25, 57, 66,
    -39, -38, -81, 10, -77, -20, -38, 21,
    60, -49, 38, 67, -19, 85, 54, 104,
    -80, -46, -46, 14, -53, 36, -6, 18,
    9, -1, 22, -43, 1, 16, 71, 5,
    -35, 43, 51, -32, -39, 2, 22, -17,
    39, 31, 1, 13, -35, 18, -25, -41,
    68, -5, 48, -21, 6, 31, -54, 36,
    -6, -54, 43, -52, 34, 37, -38, 39,
    -66, 27, 9, 36, -20, 35, -18, -45,
    -10, -27, 37, 36, -11, 9, 0, 35,
    57, 48, -22, 17, -67, -16, 8, 18,
    -1, -16, 55, -36, -5, 48, 48, 5,
    42, 21, 6, -23, -9, 5, -6, -30,
    -51, 44, -7, -11, 52, 4, -73, -22,
    -62, -45, -35, -99, -65, -66, 35, -22,
    -51, -4, 23, 42, 41, -4, -37, -5,
    -47, -39, 2, 22, 54, 19, 31, -43,
    77, 83, -39, 34, -27, 62, -21, 23,
    -46, -50, -24, 38, -79, -13, -9, -30,
    33, -48, -74, -45, -47, -99, -58, -10,
    -72, -10, -27, -13, 8, -28, -23, 60,
    24, -87, -21, -21, -17, 40, -49, -97,
    14, 51, -4, 82, -53, 43, 4, 49,
    -32, 78, -22, 74, -10, 56, 5, 14,
    -75, 54, -71, 1, -9, -61, 22, -65,
    -78, -76, -6, 7, -43, -89, 67, -45,
    49, 46, -11, -99, 43, 20, 71, 68,
    7, -23, -42, 72, 8, 46, 24, 114,
    -30, -74, -88, 1, -25, -56, -43, -12,
    65, 113, -122, -7, -1, 27, -55, -3,
    -17, -70, -61, 44, 10, -20, -53, -74,
    -18, -18, 10, 18, 7, -2, 35, -18,
    14, -54, 78, -65, -18, 49, 52, 48,
    -64, 20, -48, -23, -39, -21, -52, 19,
    52, 50, 54, 18, 24, 14, 84, 33,
    -72, 36, 41, 12, -30, -56, -55, 67,
    -21, -56, -9, -24, 22, 3, -47, -69,
    18, -4, -86, -71, 72, -17, -7, 48,
    61, 62, -26, 4, 64, -29, -2, 9,
    -48, -29, 7, 76, -21, 13, 28, -62,
    16, 28, 30, -26, 56, -16, 31, -57,
    40, 24, -27, -59, -24, -29, 57, -18,
    -33, 21, -7, -33, -13, -93, 18, -61,
    41, -50, 70, 88, -30, 26, -18, 31,
    -68, -4, -2, 22, -8, 36, -13, -29,
    -64, 23, 27, 66, 47, -9, 15, -49,
    -51, 43, -70, -31, -58, 57, 36, 58,
    21, -35, -76, 15, -42, -2, 2, -29,
    52, 22, 51, 19, 51, 55, -39, 6,
    66, 55, 28, -68, -30, -36, -31, 17,
    87, 7, -53, -46, -22, -31, 30, -40,
    -10, -72, -41, -25, 40, 23, 10, 1,
    55, -60, 50, 18, -57, 35, -55, -30,
    -62, -85, -46, -43, 18, 47, 49, 74,
    18, 58, -6, -88, 30, -27, -11, 103,
    -40, 5, 8, 83, -62, -27, 37, 36,
    -50, 7, -6, 31, -7, -12, 5, -41,
    11, 20, 99, -103, -5, 13, -21, -2,
    -37, -35, 58, 38, -52, -35, 58, 46,
    44, 70, -34, 72, 12, 63, -60, 12,
    -13, 57, 60, 9, -9, 10, -20, -59,
    31, -56, 12, -35, 84, 17, -4, -20,
    -67, -84, 49, 33, 80, -19, -6, -37,
    5, 43, -18, -28, 84, -25, 18, 44,
    20, 53, -2, -34, 17, 3, -11, -45,
    -121, 58, 49, -92, -10, 13, 59, 42,
    -22, -56, -12, -82, -26, -70, 18, -51,
    -19, -17, 27, -34, 17, -18, 26, -66,
    73, -14, 72, 18, -33, -43, -23, -23,
    20, -37, 12, 8, 7, -19, 38, 79,
    -9, -43, -36, -25, 27, -59, -40, -29,
    127, -15, -91, 33, 6, -98, -7, -35,
    22, 10, -31, -25, -39, -16, -65, -51,
    57, -42, -32, 16, 41, -64, 16, 41,
    42, 42, -79, -41, -7, 24, 18, 17,
    6, 33, -9, 0, -24, 28, 25, -69,
    76, -25, 2, -18, 31, 36, -30, 31,
    -21, -54, -48, -11, -41, 9, 73, 50,
    -18, 19, 54, 8, 13, -49, 67, -38,
    -58, 8, 59, -31, 21, -14, -10, 4,
    13, -25, -38, -25, -19, -33, -16, 7,
    -24, -9, -46, -27, 24, 74, 56, -21,
    37, -22, -48, -112, -47, 22, -66, 23,
    -7, -29, -76, -12, 26, 18, 26, -2,
    13, -76, -56, -13, 8, 51, 18, -87,
    76, -71, 55, 39, -22, 60, -31, -20,
    43, -20, -17, -21, 24, 66, -24, 4,
    -74, -31, 4, -48, -58, 66, 9, -31,
    -69, -33, -57, 23, -45, 2, -1, -15,
    36, 32, -21, 9, -9, -16, 7, 4,
    18, -23, -33, 54, 21, 61, -27, 33,
    5, -42, -4, -45, -24, -47, 5, -6,
    18, 44, -22, -11, 57, -98, -56, 45,
    51, -33, 41, -22, -3, 16, -59, 20,
    8, -55, 71, -7, -19, -39, -28, 32,
    33, -14, -40, 45, 15, 21, 37, 22,
    50, 42, 25, -20, -20, 64, 10, -57,
    31, -32, -55, 49, -82, -70, -29, -75,
    -36, -80, -22, 19, 45, 57, 41, -70,
    43, 13, 63, 47, 57, 44, 43, 5,
    16, 32, -8, 31, -21, 21, 5, -30,
    33, 44, -20, -33, 31, -70, -41, -4,
    -2, 27, 43, 2, 6, -22, -29, 0,
    -24, 11, -2, -59, 39, -17, -38, 31,
    -46, 3, 26, -16, 32, -14, 34, -36,
    12, 21, 43, -44, 92, -15, -62, 34,
    -75, -35, 16, 55, 36, -14, -2, -10,
    32, 23, -9, 15, 22, -64, 52, -44,
    10, -29, 13, 31, -6, 50, 56, -64,
    37, -17, -39, 3, -21, -37, -25, -78,
    -11, 46, 7, -43, -42, -9, 56, -36,
    16, -2, -42, 71, -4, -11, 6, 65,
    -19, -16, 43, -54, -24, -24, -34, -32,
    -13, 67, -26, -22, -60, -28, 45, 19,
    9, 18, -47, 25, 77, -4, -67, -12,
    85, -14, 16, 97, 12, -30, -24, 33,
    -14, 20, 20, -62, 12, 85, 66, 82,
    -22, 61, -69, 77, -8, -86, 16, -57,
    -6, -7, 115, 12, -95, -5, 36, 5,
    -45, -83, 35, -43, -5, 43, -18, 7,
    -45, 41, 66, 31, 42, -5, -42, -62,
    18, 37, -11, 30, 24, 4, 49, 18,
    79, 76, 71, -18, -2, -41, 52, -34,
    -22, -34, -42, 3, 12, -11, -60, 13,
    -23, 2, 23, -74, -35, -17, 31, 12,
    30, -3, 13, 32, 1, 67, 5, 66,
    -20, 16, 14, 36, -25, 15, 47, -47,
    1, -43, -6, 31, -13, 36, -26, 26,
    79, 17, -8, 6, -45, 23, 25, 22,
    39, -1, -15, -31, -11, -88, 31, -59,
    -5, 62, 3, 33, -64, -20, -27, -24,
    34, 15, -41, -45, -69, 42, -67, 17,
    -50, -17, 10, 59, -30, 13, 20, 17,
    42, -45, 91, -70, -65, 25, -63, 54,
    -4, 80, 11, 20, 32, 49, 16, -9,
    25, 65, 37, 11, -6, -26, 36, -5,
    -40, 77, 44, 21, 8, 62, 0, 35,
    50, -36, -59, 2, -19, -62, -24, 24,
    18, -46, 43, 8, -12, -56, -32, -10,
    17, 96, 49, 15, -86, -7, 54, 29,
    36, -94, -15, -1, 4, 27, 3, -59,
    36, 5, 55, -35, 46, 34, -14, 24,
    -36, 6, 40, 21, 4, -33, -73, 39,
    0, -20, 49, -28, -7, -32, -18, 24,
    -1, 49, -37, -31, 60, 14, -27, 2,
    -5, 8, 12, -18, -9, -59, 28, -5,
    70, -25, 19, 82, 29, 67, 50, 4,
    -3, 43, -23, 64, -6, 19, 11, 1,
    37, 22, 42, 29, 22, 8, -75, -45,
    28, -44, -45, 10, 19, -1, 13, -16,
    18, -14, -35, -48, 60, -50, 12, 2,
    21, 12, -26, 50, 26, 38, 55, 49,
    29, 11, -16, 46, 7, -23, 33, -3,
    -51, 23, -21, 68, -1, -41, 15, 28,
    -15, 38, 93, 48, -49, 6, -16, 9,
    -39, -3, -59, -13, 36, 50, 39, -66,
    -7, 41, -49, -14, -34, 38, -53, -13,
    5, 48, 44, 57, 7, -21, 13, -10,
    20, 34, -36, 36, -5, 63, 25, -42,
    56, 0, -28, -11, 54, 52, 18, -1,
    -39, 67, 67, 6, 2, -40, 50, -29,
    25, -50, -17, -40, 7, 30, -16, 3,
    -21, -62, 59, -21, 3, 48, 33, -50,
    -65, 17, 60, -29, -50, 19, 18, -4,
    23, 47, 60, 50, -9, 62, -59, 25,
    -8, -93, -67, 37, 29, 66, 42, -8,
    43, 25, 31, -68, 26, 24, 19, 30,
    -37, 46, 34, 4, 61, 39, 48, 27,
    18, -34, 17, -13, 8, 40, 43, -53,
    5, 54, 42, 5, 7, -10, 30, -52,
    -20, -19, -49, -18, -22, 81, -51, 49,
    -26, -17, -19, 64, 61, -89, -73, -79,
    28, 0, -48, -43, -7, -22, -31, -66,
    22, 3, 30, -70, 0, 37, -17, 6,
    -36, 9, 24, -20, 15, -2, 37, 16,
    -38, 72, 45, 17, -29, 41, -17, 47,
    25, 90, -62, -39, -22, -3, -8, -56,
    -13, -57, 10, 3, -33, 30, 36, -42,
    70, 24, 9, -7, -2, 41, -96, 36,
    -39, -18, -79, -44, 9, 22, 23, -33,
    13, -37, -47, -24, 55, -20, 3, 8,
    -14, 27, 9, 28, -2, -25, -35, 42,
    -8, 42, 24, 33, -64, -29, -49, 13,
    -25, 7, 21, 39, 52, 61, 59, -63,
    -17, -39, 44, -40, 5, -12, -49, 96,
    48, -12, 11, -18, 41, -28, -6, -44,
    -6, -69, 22, 73, 46, 18, -118, -6,
    89, 5, 49, 7, -1, 14, 29, 7,
    29, -41, -1, 25, 37, -4, -46, -30,
    -25, 16, -48, 26, -57, 0, -96, -10,
    -8, -32, 28, -13, 82, -17, -55, -48,
    3, 58, -46, 36, 1, -48, -28, -43,
    22, -24, -93, 32, -31, -63, -29, -41,
    -16, 3, -18, -74, 13, 51, 52, -54,
    33, 43, -5, 10, -73, 74, 13, 21,
    -25, -17, -14, 23, -15, -37, -42, 7,
    -53, 74, 11, 22, -28, -39, 28, 28,
    80, -3, -29, 25, 17, 1, -12, -9,
    45, 54, 15, -32, 11, -57, -8, 30,
    -3, 46, -13, 50, 12, -32, 2, 2,
    23, 6, -25, 46, 23, 14, 24, -2,
    32, 41, 11, -13, 51, -41, -33, -85,
    -18, 45, 10, 45, -64, -29, -50, 26,
    46, 14, -4, 37, 9, 38, -48, 44,
    -10, 37, -32, 64, 0, -21, -63, 13,
    -25, 0, -1, -11, 21, 27, -50, -75,
    26, -37, 69, 28, -47, 32, 48, -20,
    -27, -22, -35, -26, -21, 28, 7, 42,
    45, -29, -47, -40, -83, 1, 7, -39,
    -10, 0, -9, -77, 33, -13, 57, 4,
    -36, 9, -43, -10, -5, 80, -24, -61,
    38, 34, 50, -49, 11, 59, 24, -22,
    -22, 30, -51, -54, -31, 45, -55, -42,
    -96, -4, -58, -29, 15, 19, -64, 16,
    12, -33, 22, -25, -49, -67, 53, -16,
    55, 6, -18, -93, 11, 3, 42, 28,
    -5, -2, 12, 58, 76, 29, 9, 48,
    11, -14, -60, -22, -26, -55, -27, 53,
    -58, 34, -83, 49, 31, 64, -93, -19,
    -15, 14, -52, -1, 58, 41, -35, -60,
